Emoji Embedding
🇸🇰 -0.0552382618188858 0.10411293804645538 0.022785065695643425 0.14896942675113678 -0.039631810039281845 0.0627724900841713 0.23574572801589966 0.068902887403965 -0.07057948410511017 -0.12508045136928558 0.05124175176024437 -0.17420166730880737 0.11060992628335953 -0.04901289567351341 -0.009639213792979717 0.01430048979818821 -0.015116321854293346 -0.14108183979988098 -0.0017332241404801607 0.17534376680850983 -0.03786309435963631 -0.2023058980703354 -0.03160586580634117 0.056727319955825806 -0.04602835699915886 -0.027910763397812843 0.02885960042476654 0.0742930918931961 -0.13319547474384308 0.02254774607717991 0.01472514495253563 0.13392747938632965 -0.1272924542427063 0.009914794005453587 -0.14614441990852356 -0.28565195202827454 -0.006622677203267813 -0.059847354888916016 0.04390199854969978 -0.012744533829391003 -0.016758989542722702 -0.07979846000671387 0.2278783619403839 -0.24111470580101013 -0.014818929135799408 0.11877770721912384 -0.31074801087379456 0.11744067072868347 0.23058903217315674 -0.06276710331439972
👔 -0.2555611729621887 -0.04552985355257988 -0.252109557390213 0.3068180978298187 0.038166217505931854 -0.0821361392736435 -0.11020733416080475 0.04423630237579346 -0.24897931516170502 -0.2518898546695709 -0.013919597491621971 0.0740223377943039 -0.21955928206443787 -0.03743581846356392 -0.11265969276428223 -0.09154076129198074 -0.2050449401140213 -0.14661452174186707 0.31840193271636963 0.015187143348157406 0.03700334206223488 -0.015250335447490215 -0.35956886410713196 0.1422380656003952 -0.34998586773872375 0.08305276185274124 0.04850972443819046 -0.02223467454314232 0.031401291489601135 -0.20566296577453613 -0.1464538723230362 0.07307299971580505 -0.04166700690984726 0.22104838490486145 -0.04513293132185936 0.06023501977324486 -0.10355190187692642 0.3418301045894623 -0.13542188704013824 -0.06357249617576599 0.1579866111278534 -0.18963339924812317 -0.08793686330318451 0.10926546901464462 -0.19923962652683258 -0.35546553134918213 0.02029118873178959 0.039271824061870575 0.06975069642066956 0.15621742606163025 
🌀 0.3248075246810913 -0.0732840970158577 -0.01987503655254841 0.16968587040901184 -0.49412354826927185 -0.29989078640937805 0.26962557435035706 0.16341112554073334 0.16337920725345612 -0.0680936723947525 -0.12990917265415192 -0.19703668355941772 0.10800661891698837 0.230881467461586 -0.036229103803634644 0.1034739762544632 -0.11396221816539764 -0.15456777811050415 -0.11669979989528656 0.08231037855148315 -0.09463274478912354 -0.24592435359954834 0.1918877363204956 -0.09720560908317566 0.21898992359638214 0.36002299189567566 0.1777554750442505 0.07044164836406708 0.13340608775615692 0.3756280839443207 -0.3246248662471771 -0.33645373582839966 0.29906708002090454 -0.262090802192688 -0.19078536331653595 -0.13497880101203918 -0.29980382323265076 -0.1770700067281723 0.19683335721492767 -0.059946782886981964 -0.5205256938934326 0.1279739886522293 0.2867065370082855 -0.16684605181217194 -0.010526414960622787 0.26553234457969666 0.21448440849781036 -0.12870840728282928 -0.054082781076431274 0.06155923008918762 
🚾 0.1511429101228714 -0.013714688830077648 0.24087925255298615 -0.18299393355846405 -0.07506787031888962 -0.13486361503601074 0.31562110781669617 0.07916810363531113 -0.12008558213710785 -0.08717614412307739 -0.2683965861797333 0.16299310326576233 0.02727026492357254 0.02551553212106228 0.17478910088539124 0.26577305793762207 0.13757966458797455 0.05808244273066521 0.3295951187610626 0.2944624722003937 0.44702863693237305 0.018376000225543976 -0.017943110316991806 -0.1264335662126541 -0.26304522156715393 0.11400115489959717 -0.07788535952568054 -0.03824163228273392 0.14737555384635925 0.2750096917152405 -0.39668628573417664 -0.05858484283089638 -0.023785419762134552 -0.09438799321651459 0.000946065760217607 0.4556526839733124 0.12037815898656845 0.322096586227417 0.05298512801527977 -0.11575084924697876 0.27287471294403076 -0.17210504412651062 0.27700620889663696 0.22462239861488342 -0.10610363632440567 0.23167259991168976 -0.14019855856895447 -0.11967958509922028 0.2711239457130432 -0.14408253133296967 
👹 0.29881733655929565 -0.3665241301059723 -0.16534264385700226 0.1998639702796936 0.0499357245862484 0.03950410336256027 0.22662919759750366 -0.06089324504137039 -0.3386601209640503 0.21759796142578125 0.027953339740633965 0.32917702198028564 0.06694195419549942 0.11881900578737259 -0.03147844597697258 -0.14759795367717743 0.04605109244585037 0.18374761939048767 -0.14889025688171387 0.2236299365758896 -0.006289057899266481 -0.09237703680992126 -0.15620702505111694 -0.06194629520177841 0.09611417353153229 0.11661605536937714 -0.04038543626666069 -0.300344854593277 -0.06326569616794586 -0.19278724491596222 -0.28612232208251953 -0.05121886730194092 0.3664332926273346 -0.1586924046278 0.07482048124074936 0.3696678876876831 0.10530120879411697 -0.36987194418907166 -0.045924048870801926 -0.19746245443820953 -0.34605318307876587 0.09107015281915665 0.039499688893556595 -0.3645927906036377 0.21311768889427185 0.18637977540493011 0.12155689299106598 -0.09034144133329391 0.14253932237625122 0.1624947041273117 
🚻 0.17827671766281128 0.3295779526233673 0.10090771317481995 -0.18927033245563507 0.2519427537918091 -0.05314329266548157 -0.01729043759405613 0.21198099851608276 0.15363864600658417 -0.050778649747371674 -0.1371356099843979 -0.05108610540628433 -0.21068866550922394 0.16281211376190186 0.3231191635131836 0.0004394971765577793 -0.05808289349079132 -0.06951345503330231 0.39285990595817566 0.2796551585197449 0.08964111655950546 0.2691079378128052 -0.24938815832138062 -0.08573032915592194 0.06309277564287186 0.07874464988708496 0.27854710817337036 0.10210250318050385 -0.07436718046665192 -0.0694989264011383 -0.17539817094802856 -0.12976649403572083 0.01487240381538868 -0.11028638482093811 -0.22539333999156952 0.20152702927589417 0.2435174435377121 0.1224229633808136 0.12065435200929642 -0.10873367637395859 0.2458489090204239 0.024755189195275307 0.2210732102394104 0.3106691837310791 -0.07210639864206314 0.1741996854543686 -0.21888016164302826 0.09279530495405197 0.12126629799604416 -0.08080586791038513 
👬 -0.07761774957180023 -0.11836938560009003 0.15277424454689026 -0.17584246397018433 0.11536149680614471 0.15970614552497864 -0.034967631101608276 0.33233192563056946 -0.29937782883644104 0.03385920450091362 -0.14429692924022675 -0.08170939981937408 -0.22560329735279083 0.02505132183432579 0.1628018617630005 -0.45677855610847473 0.0629221498966217 -0.19194506108760834 0.09502004832029343 0.14148683845996857 -0.017969945445656776 0.23242445290088654 0.13998988270759583 0.14646616578102112 -0.25967156887054443 -0.005294141359627247 0.13406303524971008 -0.3987601101398468 -0.3630335032939911 -0.23738935589790344 -0.19280026853084564 0.1411421000957489 -0.12627175450325012 -0.15202748775482178 0.019494924694299698 -0.26392510533332825 0.011480261571705341 0.0377458818256855 -0.08502260595560074 0.1770385205745697 -0.1977197676897049 -0.22331763803958893 0.16145071387290955 0.35912057757377625 0.05141070485115051 -0.3231271207332611 -0.3545624911785126 -0.12558850646018982 -0.20241780579090118 0.16065315902233124 
🇫🇯 -0.24930189549922943 -0.2114146649837494 -0.024688707664608955 0.09033498913049698 0.006052373442798853 -0.1721169501543045 0.02496216632425785 -0.19671352207660675 -0.11193931847810745 -0.10344795882701874 0.17603842914104462 0.16057880222797394 -0.032708048820495605 -0.1414928138256073 -0.021125195547938347 0.014485196210443974 -0.06367339938879013 -0.0952855721116066 0.0687691941857338 0.02007632702589035 0.06414542347192764 0.004430972971022129 -0.23891304433345795 -0.07202310860157013 0.10787049680948257 -0.05767817795276642 0.1528707593679428 -0.12512870132923126 -0.2733933925628662 0.27448001503944397 0.021815162152051926 0.26167672872543335 0.10371468216180801 0.0011720415204763412 0.07244231551885605 -0.17246247828006744 -0.06522094458341599 -0.06010517105460167 -0.15797553956508636 0.06774874776601791 -0.13940425217151642 -0.17452046275138855 0.17342881858348846 -0.06268904358148575 -0.09232579916715622 0.09578444808721542 0.025424065068364143 0.26784029603004456 0.14690829813480377 -0.06629063189029694 
🎧 -0.24484477937221527 -0.128229022026062 0.17939582467079163 -0.02788214385509491 -0.12754110991954803 0.049009181559085846 0.3068574070930481 0.04675959050655365 0.09486520290374756 0.31103459000587463 0.17996136844158173 0.036276690661907196 0.09841255843639374 -0.04328327625989914 -0.18660210072994232 0.1484222263097763 0.047529883682727814 0.010424342006444931 0.2702968716621399 0.0682627409696579 0.05791914090514183 0.16560354828834534 0.19735974073410034 0.13896873593330383 0.33605071902275085 0.3198925256729126 0.13528227806091309 0.05782475695014 -0.20058871805667877 -0.2946086823940277 -0.24623450636863708 -0.05750739201903343 0.39773163199424744 -0.08378595858812332 -0.13600854575634003 -0.029445422813296318 0.0193136278539896 -0.1129797101020813 -0.029457084834575653 -0.1357107311487198 0.2700313925743103 0.01787886768579483 -0.1610691249370575 -0.19610890746116638 0.19463835656642914 0.1840076744556427 0.40915316343307495 -0.056106068193912506 -0.39092063903808594 0.17507018148899078 
🐽 0.15270625054836273 -0.3156048357486725 -0.14495621621608734 -0.35379889607429504 0.2048877626657486 0.04070208966732025 -0.1019940972328186 -0.3064033091068268 0.27931711077690125 -0.05130407214164734 -0.05051606893539429 0.1178148090839386 0.1816422939300537 -0.1144871860742569 -0.024702344089746475 -0.023814836516976357 -0.02124212495982647 -0.058346182107925415 0.2905956506729126 0.08048520982265472 -0.16586333513259888 -0.15972155332565308 0.26111331582069397 -0.08921853452920914 -0.00981629453599453 0.2740289270877838 -0.012740508653223515 0.25358811020851135 -0.010232066735625267 -0.09033400565385818 -0.3473992645740509 -0.02762931026518345 0.06523696333169937 0.14616139233112335 -0.17803604900836945 -0.00941570196300745 -0.12704138457775116 0.236379936337471 0.2521042227745056 0.01665531098842621 0.018114183098077774 -0.07075954973697662 0.08022371679544449 -0.12351291626691818 0.4569433629512787 0.13065287470817566 -0.1285974085330963 -0.0715017020702362 0.021377095952630043 0.22552713751792908 
🚜 -0.2368154674768448 -0.10218728333711624 0.20101065933704376 0.2046341598033905 -0.30559372901916504 0.05313672870397568 -0.12257509678602219 0.17312836647033691 0.17413198947906494 -0.07566206157207489 -0.12106448411941528 -0.2538706064224243 -0.06936860829591751 -0.2393614947795868 -0.08519300073385239 -0.12512201070785522 0.18640296161174774 0.21970248222351074 0.10380645096302032 0.005208340473473072 0.25053369998931885 -0.09917167574167252 -0.1982239931821823 -0.047729767858982086 0.06306680291891098 0.1622476577758789 -0.09988424181938171 -0.26031675934791565 0.12205560505390167 0.013348516076803207 -0.11694123595952988 -0.4207145571708679 0.234766885638237 -0.047953203320503235 0.19030901789665222 0.16260738670825958 0.1556369662284851 0.11499428749084473 0.17603681981563568 0.3148050606250763 -0.048454832285642624 -0.49396243691444397 0.04532243683934212 -0.006894420366734266 0.11054550856351852 -0.3347133696079254 -0.004361536353826523 0.07563662528991699 0.12703561782836914 0.26109981536865234 
♋ 0.39476266503334045 0.2401396930217743 0.024773016571998596 0.12122970074415207 0.013034260831773281 0.10961443930864334 -0.07085400819778442 -0.17433498799800873 -0.1188429519534111 0.3137305676937103 0.16610509157180786 0.24281084537506104 -0.026426462456583977 0.15591244399547577 0.274159699678421 0.03536910563707352 -0.12086686491966248 -0.1983570009469986 0.10696489363908768 0.2212190479040146 -0.22990089654922485 -0.10584422200918198 0.09036910533905029 -0.020050790160894394 0.05732148885726929 0.1642981320619583 0.012202554382383823 -0.3196372985839844 -0.3371768891811371 -0.02162882499396801 -0.17726972699165344 -0.010436782613396645 0.01785026490688324 -0.34574565291404724 0.08928728103637695 -0.05083387717604637 -0.15436314046382904 -0.219410240650177 -0.06926827132701874 0.06378605961799622 -0.2344653159379959 0.006460803560912609 0.20205606520175934 0.07486377656459808 -0.16475754976272583 0.18694181740283966 0.03609379753470421 0.3365814983844757 -0.1382671445608139 -0.06112908944487572 
🚭 -0.02390156127512455 -0.09697797149419785 0.23901112377643585 -0.12170154601335526 -0.4649147391319275 0.32978492975234985 0.35382547974586487 -0.024496711790561676 0.22303526103496552 0.377376914024353 0.1079372838139534 -0.04573536291718483 -0.18418048322200775 -0.2602960169315338 0.07670348882675171 0.41908788681030273 0.3218346834182739 -0.1943683624267578 0.26093918085098267 -0.2053816169500351 -0.2433682233095169 0.17901989817619324 0.30007097125053406 -0.14983925223350525 -0.17335553467273712 0.08889130502939224 -0.15256138145923615 -0.014861100353300571 0.09400956332683563 0.2874050736427307 -0.34043392539024353 -0.02337650954723358 -0.17086879909038544 -0.3017379939556122 -0.23415066301822662 -0.35953569412231445 0.304923415184021 -0.013627634383738041 0.36528390645980835 0.325619101524353 -0.17966391146183014 0.07397830486297607 0.484937459230423 0.40573185682296753 0.06933744996786118 -0.12158101052045822 -0.3502333462238312 0.07299797236919403 0.09000910818576813 0.29892322421073914 
🚷 0.30757781863212585 0.1312161684036255 0.17136350274085999 -0.04959002882242203 -0.010947147384285927 -0.21928906440734863 0.23066957294940948 0.11516793817281723 0.1528654545545578 -0.06362545490264893 -0.1616813689470291 -0.25466614961624146 -0.028384219855070114 -0.4046717584133148 0.05171985551714897 0.15071775019168854 0.23631255328655243 -0.19973327219486237 0.03695112466812134 0.10373442620038986 -0.11297380924224854 0.030083954334259033 -0.13315045833587646 0.09059666097164154 0.10494579374790192 0.20956562459468842 0.1879429668188095 -0.11500418931245804 0.2318708747625351 0.004201972391456366 -0.016197022050619125 -0.07977937906980515 0.012281638570129871 -0.03443047031760216 -0.016313757747411728 -0.04486880078911781 0.24416036903858185 -0.040819235146045685 0.05515584349632263 0.34808191657066345 -0.04043707624077797 -0.04919816926121712 0.3146117031574249 0.16069789230823517 -0.30824044346809387 -0.20875495672225952 -0.023506412282586098 -0.06359441578388214 -0.07023052871227264 0.42650240659713745 
📅 -0.06559445708990097 0.025815535336732864 -0.12148358672857285 -0.011426620185375214 -0.3834940195083618 -0.07002325356006622 -0.01857016235589981 0.06731374561786652 -0.04849335178732872 -0.12511540949344635 0.017787816002964973 -0.20279154181480408 -0.29701074957847595 0.009846782311797142 0.3821212649345398 -0.03672850877046585 0.013738267123699188 -0.24782399833202362 0.038760799914598465 0.40675973892211914 -0.0676078051328659 0.05912015587091446 0.07954762130975723 0.0534471720457077 0.026622604578733444 0.04284858703613281 0.058705415576696396 -0.36728325486183167 -0.20614413917064667 0.3873654901981354 -0.11308378726243973 0.034763727337121964 -0.21665619313716888 0.10153459757566452 0.0060571483336389065 -0.06442363560199738 0.13165821135044098 0.2156827598810196 -0.004303488880395889 0.13384303450584412 -0.3342560827732086 -0.13885162770748138 0.0075880722142755985 -0.1622752696275711 -0.05799281224608421 0.23809248208999634 0.16511009633541107 0.035758305341005325 0.06522785127162933 0.10816587507724762 
💈 -0.26083314418792725 -0.09815729409456253 0.00028783711604774 -0.1574644148349762 0.12915419042110443 -0.07533573359251022 -0.10276743769645691 -0.10255192965269089 -0.08485647290945053 -0.041113849729299545 -0.05220257490873337 0.03925178945064545 -0.0863233357667923 -0.07409574836492538 0.019589338451623917 -0.3413660526275635 -0.02685050666332245 0.06042644381523132 0.12604564428329468 -0.1160607784986496 0.014544356614351273 0.1800680160522461 -0.20177428424358368 0.04473133385181427 0.009450073353946209 0.1865873783826828 -0.028171833604574203 -0.13905060291290283 -0.19816644489765167 -0.21039821207523346 -0.13049857318401337 -0.16459248960018158 -0.05846436321735382 0.08236608654260635 0.11383689194917679 -0.07710490375757217 -0.08134805411100388 0.22672772407531738 0.12105777114629745 0.3054412007331848 0.2026340812444687 0.1770654171705246 -0.027439462020993233 0.1555953025817871 -0.18809476494789124 -0.16176234185695648 0.11000342667102814 -0.06670021265745163 0.004711031913757324 0.09538968652486801 
✔️ -0.2333059161901474 -0.11714600771665573 -0.03579068183898926 -0.15906420350074768 -0.09821362793445587 0.05886443704366684 0.06947189569473267 0.08503417670726776 0.06684546917676926 0.034839410334825516 -0.16402895748615265 -0.1087920293211937 -0.1559540182352066 -0.12867310643196106 0.011569364927709103 0.0593462735414505 0.15756207704544067 -0.25625428557395935 -0.06402882933616638 -0.0193480271846056 0.07285787910223007 -0.10314550250768661 -0.0940965861082077 -0.3029913902282715 -0.11551729589700699 -0.046945907175540924 0.03923947364091873 -0.14686022698879242 0.003748609684407711 0.2819173336029053 0.013682614080607891 0.022387700155377388 0.06991645693778992 0.01909635215997696 -0.05544055625796318 -0.13227394223213196 0.04572896659374237 0.11199142038822174 0.0431402325630188 0.08665084838867188 0.039788756519556046 0.2064792811870575 0.024307645857334137 -0.052297089248895645 -0.1172633245587349 0.030841324478387833 0.056303657591342926 0.10575948655605316 -0.20807185769081116 0.07918529212474823 
🙎🏼 -0.24219553172588348 0.053096603602170944 -0.14401409029960632 -0.04423164203763008 0.11040759831666946 0.0993010625243187 0.04100654646754265 -0.05481411889195442 -0.0540236234664917 0.04935557022690773 0.09619885683059692 0.052255239337682724 -0.061327870935201645 0.18500645458698273 0.031139016151428223 -0.058791957795619965 0.0673845186829567 -0.12847931683063507 0.10258383303880692 0.03288255259394646 -0.052318524569272995 0.12214822322130203 -0.010644408874213696 0.0810491219162941 -0.15238536894321442 -0.14838139712810516 0.016748499125242233 0.11739327758550644 -0.07260774821043015 0.0468590073287487 -0.03828311711549759 0.11979226022958755 0.02047865279018879 -0.09538630396127701 0.188937246799469 0.057190410792827606 0.05275798961520195 0.03159446269273758 -0.08594868332147598 -0.14667676389217377 0.08119718730449677 0.14389947056770325 0.0941714346408844 0.1398729681968689 0.07991158962249756 -0.009209251031279564 -0.010895971208810806 -0.09334560483694077 -0.31735798716545105 0.06526755541563034 
🍸 -0.1055639386177063 -0.2752247154712677 -0.30163776874542236 0.021911170333623886 0.05353191867470741 0.01703454740345478 0.07260537147521973 0.14225360751152039 -0.25253182649612427 0.20917627215385437 -0.03779640048742294 -0.33771100640296936 0.2357674539089203 0.00992538407444954 0.053265783935785294 -0.030722839757800102 -0.09159816056489944 -0.06631701439619064 0.3450791537761688 -0.21302518248558044 0.33315056562423706 0.14165732264518738 -0.001798100769519806 0.3137262165546417 -0.4367348253726959 0.32419776916503906 0.11093557626008987 0.023189309984445572 0.15422360599040985 0.20080161094665527 -0.14566606283187866 -0.28185632824897766 -0.00013469671830534935 0.017853999510407448 0.2240377962589264 -0.11254718154668808 -0.0016740658320486546 0.35032814741134644 0.4819653034210205 0.3196544051170349 0.24738970398902893 0.1198987364768982 0.24300946295261383 0.21520264446735382 0.2032075971364975 0.26239362359046936 -0.32679125666618347 -0.042034927755594254 0.29095277190208435 0.10131349414587021 
🤷 -0.075153648853302 -0.15887045860290527 0.040082454681396484 -0.13978023827075958 0.08152449876070023 -0.12986701726913452 0.2964193820953369 0.10930135846138 -0.16651099920272827 0.022628098726272583 -0.025318333879113197 0.010457952506840229 -0.22317302227020264 -0.2640937864780426 -0.05767239257693291 0.010767814703285694 -0.10093756765127182 -0.20005285739898682 0.29413312673568726 0.13957639038562775 -0.054891180247068405 0.2935228645801544 -0.04421143978834152 -0.26904162764549255 0.1150161474943161 0.16880367696285248 -0.017419124022126198 0.08801307529211044 -0.1674322932958603 0.272062748670578 -0.1808081418275833 0.1647493690252304 0.2611609399318695 0.19235394895076752 -0.21153898537158966 -0.21727928519248962 -0.08789654821157455 -0.0967351570725441 -0.03165285289287567 -0.08005005121231079 -0.020712291821837425 0.068644218146801 0.028077678754925728 0.09970395267009735 0.003775406163185835 -0.008099912665784359 0.23908141255378723 0.33977994322776794 -0.15390565991401672 0.14602674543857574 
🌂 -0.1019742488861084 -0.07439863681793213 0.30693984031677246 0.3917415738105774 -0.3111433982849121 -0.229127436876297 0.08956227451562881 -0.26767078042030334 0.3130496144294739 0.06185699999332428 0.02051880583167076 -0.32767099142074585 0.030129533261060715 -0.020317865535616875 -0.2846546471118927 0.21012449264526367 0.0915251225233078 -0.20125658810138702 0.15317390859127045 0.10827162116765976 -0.11321965605020523 0.0825076699256897 0.1202399879693985 -0.3019818663597107 -0.2684171497821808 0.3432439863681793 0.21029050648212433 -0.02820589393377304 0.05462547391653061 0.3340919017791748 -0.017463678494095802 -0.3350721001625061 -0.04461108520627022 -0.18042020499706268 -0.473750501871109 -0.17810878157615662 0.04908032342791557 -0.1753201186656952 0.3846440017223358 0.10186335444450378 -0.06451083719730377 -0.19555418193340302 0.11083253473043442 0.02271629124879837 -0.05961047112941742 0.04987301677465439 -0.33232197165489197 -0.26461198925971985 -0.19270962476730347 -0.021800972521305084 
🚓 0.10038351267576218 -0.18069961667060852 0.2599904537200928 -0.11054892838001251 -0.10907958447933197 -0.07859864830970764 0.09946238249540329 0.2722269892692566 0.06783536821603775 -0.11776533722877502 -0.19776588678359985 0.1056811586022377 -0.2763185501098633 -0.2798159122467041 0.20375734567642212 -0.29559898376464844 0.04334386810660362 0.025378044694662094 0.05981019139289856 0.1947314739227295 0.23502348363399506 0.06351221352815628 -0.1712624877691269 0.09386446326971054 -0.45652639865875244 0.13126958906650543 0.10721806436777115 -0.35987624526023865 -0.02379823848605156 0.058112382888793945 -0.08074942231178284 -0.015811879187822342 -0.19789272546768188 -0.3991335928440094 0.3159790337085724 0.17869091033935547 0.05570381507277489 -0.02617909014225006 0.13982434570789337 0.12764695286750793 -0.04515326768159866 0.15427440404891968 0.19386036694049835 -0.10688003152608871 -0.1586505025625229 -0.349275678396225 -0.24029888212680817 0.19488921761512756 0.2791120707988739 0.17735624313354492 
🍤 0.0828152596950531 -0.3745412826538086 -0.12561193108558655 0.2918258011341095 -0.07713908702135086 0.18780608475208282 -0.04081067815423012 0.28631964325904846 0.1757633090019226 -0.10064174234867096 0.08710942417383194 0.1916593462228775 0.19823327660560608 0.07836103439331055 -0.04716658964753151 -0.17235153913497925 0.46561819314956665 -0.27377480268478394 0.056239619851112366 0.15696124732494354 0.1303572952747345 -0.3792221248149872 0.058717355132102966 -0.008101936429738998 -0.028009891510009766 0.34271618723869324 0.2727104425430298 -0.19807736575603485 -0.11511477082967758 0.11001279950141907 -0.33056625723838806 -0.20493821799755096 0.04959043860435486 0.12065038084983826 -0.1451920121908188 0.15573634207248688 -0.35346531867980957 0.18610639870166779 0.24984057247638702 -0.01801908016204834 -0.11460132896900177 0.10611888021230698 0.36217325925827026 0.11680452525615692 0.14125001430511475 0.12776397168636322 -0.3386653959751129 0.10385911166667938 -0.078132264316082 0.251912921667099 
💘 0.17771103978157043 -0.09581568837165833 0.29731985926628113 -0.12935934960842133 -0.19830116629600525 0.29569903016090393 0.07991556823253632 0.05122432857751846 0.03996851295232773 0.29396969079971313 0.2225027084350586 0.032092783600091934 -0.1191694587469101 0.16723383963108063 -0.23288725316524506 -0.042045097798109055 -0.1439819484949112 0.09021452069282532 0.0029197868425399065 0.2652157247066498 0.05170119181275368 0.08888746798038483 -0.177273228764534 0.008151262998580933 0.31963837146759033 0.07513126730918884 -0.20418454706668854 -0.12494751065969467 -0.018446868285536766 -0.060973286628723145 -0.08425522595643997 -0.24024613201618195 0.055474478751420975 0.14268989861011505 0.23154360055923462 0.02653270959854126 0.1773836314678192 -4.924974200548604e-05 0.11102147400379181 -0.059681471437215805 0.0573422871530056 -0.15299423038959503 -0.05961240455508232 0.011401042342185974 0.10273808985948563 0.008528131060302258 0.17477238178253174 -0.1180281937122345 0.006411997601389885 0.19248810410499573 
🚔 0.0692083090543747 -0.28695619106292725 0.3439708352088928 -0.0638575553894043 -0.07970283925533295 -0.1182858943939209 -0.13376575708389282 0.286897748708725 0.13315966725349426 -0.06959963589906693 -0.18837960064411163 -0.14235283434391022 -0.2920758128166199 -0.1409856379032135 0.18248654901981354 -0.12142524123191833 -0.08431138843297958 -0.014367636293172836 0.20155321061611176 -0.05982239916920662 0.2137291431427002 0.009067757055163383 -0.20616412162780762 0.049803100526332855 -0.13202407956123352 -0.014553423039615154 0.31641024351119995 -0.442112535238266 0.056204989552497864 0.22199903428554535 -0.11863972991704941 0.16990603506565094 -0.11987486481666565 -0.40056484937667847 0.13531632721424103 0.1261802762746811 0.16110245883464813 -0.11010955274105072 0.27658817172050476 0.17803850769996643 -0.30890193581581116 0.15926435589790344 0.04931251332163811 -0.07870609313249588 0.07304710894823074 -0.21525150537490845 -0.2590394914150238 0.17169523239135742 0.23459334671497345 0.2979537844657898 
👚 0.022495049983263016 -0.03800187632441521 -0.3604038953781128 -0.13223406672477722 0.030873816460371017 -0.07538357377052307 -0.05081148445606232 0.03756483644247055 0.26949718594551086 -0.21266068518161774 0.10566814988851547 -0.2964639663696289 -0.025814782828092575 -0.21133629977703094 0.04583083465695381 0.052927277982234955 -0.2654240131378174 -0.09309924393892288 0.5072205662727356 0.10980857908725739 0.07422103732824326 0.45661264657974243 -0.00589789729565382 0.15018579363822937 -0.3336799144744873 0.217014878988266 -0.07835730165243149 0.009912790730595589 0.15597641468048096 -0.023127196356654167 -0.1641511172056198 0.13518717885017395 0.08648493885993958 0.07679613679647446 0.11036738008260727 0.2645048201084137 0.01970142498612404 0.16070280969142914 0.06724361330270767 -0.014566204510629177 0.15332478284835815 0.009123129770159721 0.07305960357189178 0.13983607292175293 0.13716046512126923 -0.2802378833293915 -0.11624448746442795 -0.09277255088090897 0.12021394073963165 0.184179425239563 
🐧 0.16170886158943176 -0.11542834341526031 -0.10349366813898087 -0.06586761027574539 0.034741420298814774 -0.01537006814032793 -0.14736662805080414 -0.13136516511440277 0.009526059031486511 -0.026240218430757523 -0.11222425103187561 0.24931280314922333 -0.07123591750860214 0.06480223685503006 0.22440312802791595 0.15235349535942078 0.25091132521629333 -0.11796624958515167 -0.06897655874490738 0.21931158006191254 -0.1806802898645401 0.21280302107334137 -0.03601470962166786 0.13280703127384186 0.0799775943160057 0.2309931218624115 -0.08917977660894394 -0.16634880006313324 -0.206412211060524 0.21280384063720703 -0.1742544174194336 -0.12902727723121643 0.1730869710445404 0.15760108828544617 -0.0331340916454792 -0.427870512008667 -0.09471998363733292 -0.27602827548980713 0.04167337715625763 -0.16908854246139526 -0.1751185804605484 -0.23337183892726898 0.2998937964439392 -0.03766150400042534 -0.16059796512126923 -0.004421798046678305 0.13112664222717285 0.10263250023126602 -0.25731587409973145 0.26593858003616333 
🍥 -0.10528521239757538 -0.2776755690574646 -0.14019620418548584 0.27005597949028015 -0.30955198407173157 0.13395839929580688 0.10583173483610153 0.12137873470783234 0.02113584242761135 0.3858689069747925 -0.2789883613586426 0.2902996242046356 0.2414684295654297 0.15747492015361786 -0.14600224792957306 -0.022465892136096954 0.1745399683713913 0.11308231204748154 0.2201256901025772 0.05235641822218895 0.2257063239812851 -0.1663498729467392 0.22647596895694733 0.04935041442513466 0.11827237904071808 0.4632476270198822 0.07086403667926788 0.026465658098459244 0.11956179141998291 0.08766501396894455 -0.2881081700325012 -0.1623503565788269 0.1430128961801529 0.24061278998851776 -0.07308012247085571 0.01278005912899971 -0.4744732975959778 0.08349434286355972 0.13561837375164032 0.09676007181406021 -0.11148656904697418 -0.033042337745428085 -0.17630204558372498 -0.0732007548213005 0.029029950499534607 0.19880007207393646 0.23897013068199158 0.1103375032544136 0.018621183931827545 0.015763189643621445 
🍵 -0.07521198689937592 -0.20697453618049622 -0.10114318132400513 0.2826169431209564 -0.22766757011413574 -0.06491280347108841 0.1295625865459442 0.059284601360559464 0.30389171838760376 -0.00853054504841566 -0.12657329440116882 0.16462408006191254 0.4055021107196808 -0.02565806917846203 0.06374409794807434 -0.01322795171290636 0.002073284238576889 0.25933176279067993 0.05149795860052109 -0.14404253661632538 0.07965408265590668 -0.09538088738918304 0.28236135840415955 -0.10306810587644577 0.10934273153543472 0.2759633958339691 0.13448309898376465 0.249908909201622 0.19530776143074036 0.2624087631702423 -0.1351233720779419 -0.03841741383075714 0.07413864880800247 0.07230044156312943 -0.1665404736995697 -0.004750533495098352 -0.28890150785446167 0.4436791241168976 0.16502074897289276 -0.09452775120735168 -0.006802667863667011 -0.10270287841558456 -0.184978649020195 0.10353449732065201 0.15814079344272614 0.20135892927646637 -0.22655273973941803 0.026312382891774178 0.1700734943151474 0.18535219132900238 
✂️ -0.0007437871536239982 -0.15574637055397034 0.034254297614097595 -0.21062436699867249 -0.18709389865398407 0.13026335835456848 -0.01582643762230873 -0.16372767090797424 0.06919106096029282 -0.04146521911025047 -0.07108848541975021 -0.0967530757188797 0.04146752506494522 -0.02548881433904171 -0.3301667273044586 0.04380462318658829 0.24701516330242157 -0.16568024456501007 0.06451191008090973 -0.12894536554813385 0.07903192192316055 -0.11975260823965073 -0.05579017475247383 -0.22275662422180176 -0.07323236763477325 -0.07670754939317703 0.017559554427862167 -0.02323809266090393 0.08515475690364838 0.0705299824476242 -0.13418088853359222 0.028907952830195427 -0.015196466818451881 -0.030737008899450302 -0.12147374451160431 0.04911135137081146 -0.3042515516281128 0.16505561769008636 0.11141303181648254 0.08542098104953766 -0.06475100666284561 0.05040108039975166 0.01705326698720455 0.07593849301338196 0.015323885716497898 0.04719412699341774 0.16308102011680603 0.05539237707853317 -0.010397202335298061 0.10782109200954437 
👓 0.33348360657691956 0.2296321839094162 0.13501590490341187 -0.06248406693339348 -0.030659552663564682 0.017553403973579407 0.2716742157936096 -0.04318299889564514 -0.2843288481235504 -0.09341822564601898 -0.15714901685714722 0.03626568242907524 -0.11019016057252884 0.11698784679174423 -0.24453459680080414 0.4988971948623657 0.02513767220079899 -0.365227073431015 0.22542497515678406 0.08499222248792648 -0.18761226534843445 0.3188088834285736 0.010195656679570675 -0.09543614089488983 -0.09496277570724487 0.37312349677085876 -0.18741099536418915 0.06148180738091469 0.045472584664821625 0.1553669422864914 -0.2409435361623764 0.18269674479961395 -0.03335661441087723 -0.41731444001197815 -0.008086678571999073 0.14137832820415497 -0.13038723170757294 0.2563929557800293 -0.20641149580478668 -0.09255468100309372 0.19777131080627441 0.2705238163471222 0.2927660346031189 0.06417407840490341 -0.14720560610294342 -0.15752555429935455 0.24336332082748413 0.14697976410388947 -0.08969003707170486 -0.034359220415353775 
⛔ -0.08653463423252106 0.2027382105588913 -0.03661361336708069 0.17151416838169098 -0.13897506892681122 -0.012583381496369839 -0.08840741962194443 0.08955799788236618 -0.027310071513056755 -0.12597939372062683 -0.07634183019399643 0.02343531884253025 0.026854922994971275 -0.05950551480054855 0.15291240811347961 0.06775116175413132 0.08731556683778763 -0.21796730160713196 0.15564681589603424 -0.03923324868083 0.0017779349582269788 -0.0581958033144474 -0.2342899888753891 0.03854253143072128 -0.011351000517606735 0.04712836816906929 0.1593557447195053 -0.16250726580619812 -0.081806980073452 -0.05101346597075462 0.04796505346894264 -0.12847203016281128 -0.04633155092597008 -0.18740949034690857 0.13847309350967407 -0.05037381500005722 0.10374557971954346 -0.12764471769332886 -0.11817395687103271 0.03686515986919403 0.17276844382286072 -0.14104972779750824 0.21742026507854462 0.09825553745031357 -0.1730981320142746 -0.06464218348264694 -0.2468206286430359 0.2705089747905731 0.1621832400560379 0.14848938584327698 
💂 -0.12253511697053909 -0.0712885633111 -0.0002757346082944423 -0.15941035747528076 0.04025254398584366 -0.2848472595214844 0.03807640075683594 0.5179837942123413 -0.0388980433344841 -0.38459527492523193 0.07538921386003494 0.32660433650016785 0.04283197969198227 -0.12967939674854279 -0.2809754014015198 0.010397662408649921 -0.006751073524355888 -0.02072051726281643 -0.04882323741912842 0.1999215930700302 -0.04386049136519432 0.1994602531194687 -0.4507460594177246 -0.3162775933742523 -0.32993537187576294 -0.026061037555336952 0.24068783223628998 -0.3342992961406708 -0.35279229283332825 0.233188658952713 -0.21924321353435516 -0.14682728052139282 -0.07461144030094147 -0.033204335719347 0.4189996123313904 0.23521529138088226 0.17058436572551727 -0.12209448963403702 -0.29464632272720337 0.11198313534259796 0.02691025473177433 0.3800317347049713 0.1724020093679428 -0.041805561631917953 -0.12665949761867523 -0.10163451731204987 -0.19641587138175964 0.1102791354060173 -0.25988534092903137 0.1026189923286438 
🆔 -0.1728559136390686 -0.2956930100917816 0.3042597770690918 0.021892623975872993 0.05037890747189522 -0.049502838402986526 0.008619734086096287 0.13747277855873108 0.32640540599823 -0.013999088667333126 0.18767675757408142 -0.16658595204353333 0.06870730966329575 -0.2318807989358902 -0.15331082046031952 -0.10884487628936768 0.024133890867233276 -0.19274897873401642 0.34315991401672363 0.06851024925708771 -0.22358225286006927 -0.14354966580867767 -0.010243101045489311 -0.0370466485619545 -0.12004996091127396 0.10230016708374023 -0.2256363481283188 -0.32651934027671814 -0.0017520883120596409 -0.0751071646809578 -0.1781667321920395 -0.21366563439369202 -0.3034214973449707 -0.261033296585083 0.10874024033546448 0.17891241610050201 0.025770334526896477 0.04575338214635849 0.013816462829709053 0.09820035845041275 0.10358530282974243 0.15710417926311493 -0.0020154407247900963 0.13519242405891418 -0.022018002346158028 -0.226912260055542 -0.02208305522799492 0.37089648842811584 0.36717358231544495 0.0799485594034195 
😕 0.16873833537101746 -0.23555076122283936 0.02933323383331299 -0.12430651485919952 -0.040124643594026566 -0.14419054985046387 0.10472797602415085 0.105525903403759 -0.5963056683540344 0.3379136919975281 -0.08043815940618515 -0.19812974333763123 -0.17856305837631226 0.024904510006308556 0.0673203393816948 -0.07840918004512787 0.29838427901268005 -0.23173746466636658 0.2705446779727936 0.23664700984954834 -0.25984519720077515 0.27873697876930237 0.10511782765388489 0.43145468831062317 0.33323976397514343 0.1348779946565628 -0.1903395801782608 -0.016030697152018547 -0.17357316613197327 -0.20070752501487732 -0.31370776891708374 -0.0706566646695137 0.2606944441795349 -0.42204251885414124 -0.051877185702323914 -0.05897006392478943 -0.024346988648176193 0.1071048229932785 -0.17386694252490997 0.1010875478386879 -0.20141193270683289 -0.10535437613725662 0.06283382326364517 0.1433349847793579 0.005451025906950235 0.11427116394042969 0.02036760374903679 0.10410177707672119 0.18176648020744324 0.25481200218200684 
🎎 0.11098331212997437 -0.038994982838630676 -0.024086136370897293 -0.11335761845111847 -0.06852494180202484 -0.24517332017421722 -0.04900483414530754 0.32773450016975403 -0.3381577432155609 0.08130650222301483 0.053193237632513046 -0.06482470035552979 0.18419449031352997 -0.2812035381793976 0.2576116621494293 0.15836270153522491 -0.1781759262084961 0.08135063201189041 0.13483066856861115 0.43025141954421997 0.2853061556816101 0.07985694706439972 -0.28910717368125916 -0.20633269846439362 0.14928604662418365 0.24656474590301514 -0.09479545056819916 -0.5383461117744446 -0.33245956897735596 -0.047298792749643326 -0.16751287877559662 0.13166581094264984 0.08416026830673218 0.05320596322417259 0.16467921435832977 0.021601911634206772 0.3760952353477478 0.06078396737575531 -0.07004774361848831 0.08048982173204422 -0.5265401005744934 -0.4469345808029175 0.10918236523866653 -0.24372313916683197 0.36763623356819153 0.08749645948410034 -0.18410447239875793 -0.18900448083877563 -0.2738909125328064 0.07298668473958969 
🏊🏻 -0.17356020212173462 -0.017829615622758865 -0.01383475586771965 0.20791958272457123 -0.09379735589027405 -0.0003919937298633158 -0.16353066265583038 0.06335147470235825 0.18592095375061035 -0.20273658633232117 0.019970903173089027 -0.10099822282791138 0.02637637034058571 0.03655043616890907 0.020835349336266518 -0.03760005533695221 0.10793216526508331 0.13328124582767487 -0.030741795897483826 -0.0554206483066082 -0.015251957811415195 0.19670362770557404 0.047854870557785034 0.013685082085430622 0.18440838158130646 0.16524332761764526 -0.016094863414764404 0.002656693570315838 -0.1226908341050148 0.12287808209657669 -0.11656872928142548 -0.2342366725206375 -0.01935502700507641 -0.04002400115132332 0.2036815732717514 0.035495392978191376 -0.05383482202887535 0.05366872623562813 0.04898257553577423 -0.13767124712467194 -0.027899598702788353 -0.03872907906770706 0.060588426887989044 -0.12743307650089264 0.16409127414226532 -0.09632043540477753 0.055411044508218765 -0.04063769057393074 -0.054564520716667175 0.03172895312309265 
❗ -0.056091707199811935 0.13561275601387024 -0.11833792924880981 -0.046199772506952286 0.1699489951133728 -0.10535170882940292 0.20299343764781952 -0.062290266156196594 -0.06392594426870346 0.04982762783765793 -0.06360870599746704 -0.021258370950818062 -0.01298233587294817 -0.15382124483585358 0.018029022961854935 -0.1561427116394043 0.169535830616951 -0.007865211926400661 0.003087395103648305 0.01140879187732935 -0.16837169229984283 -0.1534138172864914 -0.17279469966888428 -0.2253052294254303 -0.06084558367729187 -0.028866015374660492 -0.020054157823324203 0.06587216258049011 0.048395849764347076 0.008111950010061264 -0.12779328227043152 -0.13905248045921326 0.06631973385810852 0.20659959316253662 -0.05920407548546791 -0.09156455844640732 0.11316507309675217 0.12329104542732239 -0.028349747881293297 0.22225606441497803 0.008673762902617455 0.09269404411315918 0.011879106983542442 0.014653786085546017 0.009275723248720169 -0.11619583517313004 0.08925918489694595 -0.07603123039007187 -0.12659306824207306 0.06312515586614609 
💭 0.34754666686058044 -0.17101487517356873 0.2123199701309204 -0.2721109092235565 -0.2533321976661682 -0.056907352060079575 -0.19973142445087433 0.17794156074523926 -0.07324319332838058 0.40896469354629517 -0.07670034468173981 0.09182523936033249 -0.12392482906579971 0.10162179917097092 0.17980848252773285 0.08815896511077881 0.2473670393228531 -0.07607556134462357 -0.17917396128177643 0.13249121606349945 0.03333152085542679 0.08395908027887344 0.007313867565244436 -0.12798896431922913 0.2869130074977875 0.13226939737796783 -0.34662318229675293 -0.15719391405582428 0.08769956976175308 0.17041166126728058 -0.18316452205181122 -0.05396701395511627 -0.059538088738918304 -0.17668281495571136 -0.2800018787384033 -0.27620401978492737 -0.03914836794137955 0.14547599852085114 -0.004646164830774069 0.03732720762491226 -0.23933590948581696 -0.17712365090847015 -0.13206955790519714 0.1338440328836441 -0.14948581159114838 0.09908825159072876 0.17626412212848663 0.09521881490945816 -0.18122008442878723 0.3024546205997467 
💬 0.21320825815200806 -0.03544387221336365 0.13913173973560333 0.01416191179305315 -0.37720638513565063 -0.17018036544322968 -0.12167202681303024 -0.01837506890296936 -0.16302171349525452 0.2810649573802948 -0.07595793157815933 0.06832326203584671 -0.1474766731262207 0.12311884760856628 -0.08648565411567688 -0.09599944204092026 -0.23309893906116486 -0.04777709022164345 0.02428780123591423 0.20731478929519653 0.33910346031188965 0.27837103605270386 -0.07072533667087555 -0.06123258173465729 0.23347441852092743 -0.026873841881752014 0.07479958981275558 -0.07715389132499695 0.0276259146630764 0.45416581630706787 -0.20875965058803558 -0.178310826420784 -0.08720733225345612 -0.3210614323616028 -0.457164466381073 -0.1832684725522995 -0.06519660353660583 0.018714765086770058 -0.2271169275045395 0.04747525230050087 0.24473515152931213 0.15939193964004517 -0.3759812116622925 0.08756233751773834 -0.018088288605213165 -0.27482736110687256 0.1491554230451584 0.21265211701393127 -0.25182023644447327 0.3181230127811432 
🎴 -0.03447142243385315 0.22105741500854492 -0.0818968117237091 0.34304115176200867 0.02385018765926361 -0.13761650025844574 -0.16902270913124084 -0.17771466076374054 0.02927965670824051 0.17681963741779327 0.05987561494112015 0.3798384964466095 -0.20670872926712036 -0.01665734313428402 0.3152744174003601 -0.2646794617176056 0.04251189902424812 -0.11192309111356735 0.021623756736516953 0.10118147730827332 0.13562268018722534 -0.3022487163543701 0.015561492182314396 -0.1359754353761673 -0.17584450542926788 0.26305097341537476 0.37038588523864746 -0.32921266555786133 -0.22940601408481598 -0.10624932497739792 -0.0537756122648716 0.03970266133546829 0.11874639987945557 -0.31999269127845764 0.24634788930416107 0.2881765067577362 0.37357833981513977 0.048593390733003616 -0.23999299108982086 -0.160344198346138 -0.159464493393898 -0.07715805619955063 -0.31114181876182556 -0.1299450844526291 -0.4257209002971649 -0.1749926507472992 -0.04689399525523186 0.04849161207675934 -0.091583251953125 0.18529178202152252 
♉ -0.023975016549229622 0.17090150713920593 0.02045121230185032 -0.007683422416448593 -0.07059160619974136 0.12124329805374146 -0.24836601316928864 -0.08699439465999603 -0.3606395125389099 0.34935083985328674 0.3189062476158142 0.41022607684135437 -0.015079778619110584 0.013754698447883129 0.1221107766032219 0.034381527453660965 -0.19768601655960083 -0.02786295674741268 -0.04838097468018532 0.05095996707677841 -0.15912611782550812 -0.27039381861686707 -0.08621560782194138 0.0761597603559494 -0.02342447265982628 0.12769700586795807 -0.007675237022340298 -0.3743472397327423 -0.3291248679161072 -0.0516551248729229 -0.25870436429977417 0.15769049525260925 -0.12904123961925507 -0.07145200669765472 0.17005287110805511 -0.43244048953056335 -0.1462956964969635 -0.25505831837654114 -0.13034766912460327 -0.05087365210056305 -0.10806141793727875 -0.09388472884893417 0.07025134563446045 -0.07085384428501129 -0.15293624997138977 0.13052192330360413 0.18471269309520721 0.3221176564693451 -0.030475502833724022 -0.22947199642658234 
⚖ 0.23757614195346832 -0.17486363649368286 -0.051962610334157944 -0.03789055347442627 0.15761680901050568 0.09322532266378403 0.379594624042511 -0.09870974719524384 -0.009211991913616657 -0.17752227187156677 0.11472741514444351 0.07431840896606445 -0.04256174713373184 0.05822252854704857 -0.16205164790153503 -0.06898654997348785 0.043255940079689026 -0.047560445964336395 0.13461047410964966 -0.0817064717411995 -0.006292872130870819 -0.023223666474223137 0.08478426188230515 -0.03422355651855469 -0.022746166214346886 0.11496922373771667 0.13184715807437897 -0.14202281832695007 -0.2816219925880432 0.07587645947933197 -0.13472771644592285 -0.23179012537002563 0.0930737629532814 -0.24830283224582672 0.04894278198480606 0.005031126085668802 -0.166999951004982 -0.07999326288700104 0.23668071627616882 0.2534724771976471 -0.12508027255535126 0.2724854052066803 0.18646541237831116 0.19223837554454803 -0.17747896909713745 -0.07726607471704483 0.1905345916748047 0.1882314831018448 -0.056037332862615585 0.026944471523165703 
🇮🇩 0.032354000955820084 -0.01713874749839306 0.05182109400629997 0.03221436217427254 -0.06286904960870743 -0.31958284974098206 0.08149806410074234 -0.0724855437874794 0.051377251744270325 -0.10255124419927597 0.07994227111339569 -0.029926665127277374 0.17084798216819763 -0.17201219499111176 0.040144000202417374 0.048958659172058105 -0.07789202779531479 0.003518444485962391 0.17921021580696106 0.09390368312597275 0.05758270248770714 -0.08382939547300339 -0.09268365055322647 -0.025946779176592827 -0.17324912548065186 -0.057412732392549515 0.11765444278717041 -0.05968797206878662 -0.09893454611301422 0.0830041840672493 -0.045426882803440094 0.06169113144278526 -0.2472369223833084 -0.09344647079706192 0.020756974816322327 -0.05587281286716461 0.11145114153623581 -0.11534558236598969 -0.25978612899780273 0.07585840672254562 -0.011731408536434174 -0.09634318202733994 0.02802308462560177 -0.1285656988620758 -0.23120728135108948 0.19044919312000275 -0.01137256808578968 0.3253994584083557 0.23815518617630005 -0.017051441594958305 
🛵 0.11870209127664566 -0.1162787675857544 0.1159052699804306 0.3284086585044861 -0.29824212193489075 0.13281090557575226 0.21260730922222137 0.03492647409439087 0.12247104942798615 0.06896218657493591 0.12444812804460526 -0.22599631547927856 -0.2580501437187195 -0.22462844848632812 -0.12557370960712433 -0.31006449460983276 -0.18126483261585236 0.14475810527801514 0.035751208662986755 -0.13946573436260223 0.10026799887418747 -0.10675407201051712 -0.1227354109287262 -0.010762798599898815 0.1024966910481453 0.2639297842979431 0.016726214438676834 -0.19033753871917725 -0.21840408444404602 0.26531755924224854 -0.2923945188522339 0.08946456015110016 0.18406635522842407 0.066263347864151 0.08592356741428375 -0.3124209940433502 -0.04349050298333168 0.023537520319223404 0.023699156939983368 0.34955668449401855 -0.34818828105926514 -0.19599409401416779 -0.0618414543569088 -0.06952690333127975 -0.16651040315628052 -0.11175739765167236 0.1945248693227768 0.022949811071157455 -0.08499596267938614 0.2766253352165222 
⬅️ -0.2126961648464203 -0.03786979615688324 0.028086978942155838 -0.013315670192241669 -0.008615348488092422 -0.06222859397530556 0.024429289624094963 0.008057999424636364 -0.06726867705583572 -0.01338928658515215 -0.12218868732452393 0.00896390900015831 0.044115688651800156 0.15707482397556305 -0.24257561564445496 0.10380379110574722 -0.04908981919288635 0.01445438526570797 0.09837083518505096 -0.13140831887722015 -0.05935782939195633 -0.05227524787187576 -0.04743039608001709 -0.011978748254477978 -0.11745109409093857 0.022572215646505356 0.03699423372745514 0.08228001743555069 -0.0069025601260364056 -0.049653682857751846 -0.14991289377212524 -0.08710066229104996 -0.044934749603271484 -0.0815584659576416 0.02995539829134941 -0.1651940941810608 0.02298271842300892 -0.04209825396537781 -0.11494728177785873 -0.0305306538939476 0.006647705566138029 0.1577717363834381 -0.16189587116241455 -0.09438646584749222 -0.08371197432279587 -0.09852831810712814 0.14599663019180298 -0.11113352328538895 0.026394397020339966 -0.04938821867108345 
📒 0.18728448450565338 0.2302774339914322 0.019671382382512093 -0.19084899127483368 0.056052111089229584 0.1341250091791153 -0.1799943447113037 -0.12145737558603287 0.33421003818511963 -0.09507476538419724 -0.16181664168834686 0.30004724860191345 -0.11778309941291809 -0.1280541718006134 0.2894285023212433 -0.1174715906381607 -0.094807930290699 -0.2369130551815033 0.07141221314668655 0.16512615978717804 0.14151114225387573 -0.22276274859905243 0.16697372496128082 0.09006385505199432 -0.0284397192299366 0.12404102832078934 0.02482113242149353 0.1301978975534439 -0.08255746215581894 -0.07614234834909439 -0.14851665496826172 -0.3950921297073364 0.34547844529151917 -0.07794126123189926 -0.012368480674922466 0.13961012661457062 -0.16566045582294464 0.018130915239453316 -0.03279714286327362 0.024608436971902847 0.25039732456207275 -0.00739374989643693 -0.09671357274055481 -0.11276482045650482 -0.1986534297466278 -0.05566394329071045 0.29670628905296326 -0.004881611559540033 -0.018230250105261803 -0.006695292424410582 
😡 -0.046166591346263885 -0.210970938205719 0.03787102550268173 -0.26181909441947937 -0.21340623497962952 0.061092231422662735 0.39706316590309143 0.45602187514305115 -0.3183835744857788 0.1950228214263916 -0.16048692166805267 -0.039852309972047806 -0.16308073699474335 -0.10444987565279007 0.1905325949192047 -0.0005185745540075004 0.2630941867828369 -0.18534301221370697 0.10014818608760834 0.10240902006626129 -0.5335668921470642 0.10248793661594391 0.0708857849240303 0.11541668325662613 -0.1347413808107376 -0.10339013487100601 0.1500607430934906 0.09025871008634567 0.17617173492908478 0.11542435735464096 -0.2285684496164322 0.16389261186122894 0.0834931805729866 -0.23766694962978363 -0.3263174593448639 -0.053726326674222946 -0.25782787799835205 -0.30931416153907776 0.10943592339754105 -0.1386725753545761 -0.13958331942558289 0.271847665309906 0.15833906829357147 -0.011902636848390102 0.27763938903808594 0.016612514853477478 -0.06596480309963226 -0.037549152970314026 -0.10134129226207733 -0.021770626306533813 
🇲🇦 -0.04751987010240555 0.09148745983839035 -0.03645018860697746 0.1025116816163063 -0.02630733884871006 -0.05610760673880577 0.051386989653110504 0.057143475860357285 -0.009478767402470112 0.10004394501447678 0.1114041805267334 -0.19986028969287872 0.024046286940574646 -0.1476132571697235 -0.12531818449497223 0.006513434462249279 -0.0493156835436821 -0.24090908467769623 0.26885852217674255 0.31268635392189026 -0.14657588303089142 -0.11582086980342865 0.15561127662658691 0.12169559299945831 -0.0320659801363945 -0.08450083434581757 0.13388343155384064 -0.2507708668708801 -0.29342907667160034 0.037418611347675323 0.029333898797631264 0.09553006291389465 -0.2025034874677658 -0.06357935070991516 -0.06927694380283356 -0.09288924932479858 0.014179320074617863 0.1578710675239563 -0.1523260623216629 0.09500793367624283 0.08241473883390427 0.025025272741913795 0.12546969950199127 -0.1622025966644287 -0.07068430632352829 0.005057260859757662 -0.23562422394752502 0.2191910445690155 0.05874491482973099 -0.07310599088668823 
🇨🇭 0.07148575037717819 0.050513509660959244 -0.07228213548660278 0.04509420320391655 -0.013552404940128326 -0.02231433056294918 -0.12070716917514801 -0.09717271476984024 -0.20247229933738708 -0.17030899226665497 0.2553825378417969 -0.004295933526009321 -0.05381902679800987 -0.015878817066550255 -0.10447259992361069 -0.18040084838867188 -0.015958596020936966 -0.27772244811058044 -0.11771997809410095 0.17888809740543365 -0.14610181748867035 -0.16981112957000732 -0.0695919543504715 0.023638254031538963 -0.2678510546684265 0.14182688295841217 0.18979421257972717 -0.1256466507911682 -0.19292742013931274 -0.13645035028457642 -0.1312895268201828 -0.08571238815784454 -0.009544054046273232 0.014815149828791618 -0.2095848172903061 -0.1396256387233734 0.020226798951625824 -0.11953692883253098 -0.2878809869289398 0.255629301071167 0.1472627967596054 -0.15652617812156677 0.20227080583572388 -0.27642300724983215 -0.2707969546318054 -0.05210166424512863 -0.1760225147008896 0.039512015879154205 0.021000005304813385 -0.08454782515764236 
🍦 -0.08427063375711441 -0.01598127745091915 -0.10555118322372437 0.07259715348482132 -0.0667818933725357 0.08785493671894073 0.2243039309978485 0.24853740632534027 -0.15119953453540802 0.023504406213760376 0.10497665405273438 0.07714110612869263 0.22643309831619263 0.04030896723270416 -0.21472123265266418 0.07409064471721649 -0.06286631524562836 -0.06392394751310349 0.599737286567688 -0.1200958788394928 0.0065083373337984085 -0.030608676373958588 0.29600414633750916 -0.09235498309135437 -0.28250032663345337 0.1903393417596817 0.3955199122428894 -0.0571780763566494 0.2138674110174179 0.4457259178161621 -0.10779992491006851 -0.2316003292798996 0.019538192078471184 0.14575724303722382 -0.013639119453728199 -0.002256600884720683 -0.1926126778125763 0.3558720052242279 0.18793298304080963 0.27296215295791626 -0.06519677489995956 0.15592680871486664 -0.03488227352499962 -0.0003359773545525968 0.3198716342449188 0.2102389931678772 -0.2289363145828247 -0.04355965927243233 -0.1391083002090454 0.40802985429763794 
❗️ -0.039763517677783966 -0.013398217968642712 0.11559911072254181 -0.0612284280359745 -0.015930451452732086 -0.09470277279615402 0.2215261310338974 -0.06826256960630417 0.04762871563434601 0.06853088736534119 -0.08536168932914734 -0.16699695587158203 0.011093199253082275 -0.1560230255126953 -0.10520246624946594 -0.24400301277637482 0.19890819489955902 -0.05636311322450638 -0.2443339228630066 -0.023029819130897522 -0.1278388798236847 -0.14288005232810974 -0.16825254261493683 -0.057869892567396164 -0.01676749810576439 0.047974973917007446 -0.032608579844236374 -0.11501877754926682 0.02066979929804802 0.06826560199260712 -0.047261230647563934 -0.2940495014190674 0.1564745157957077 -0.029139958322048187 -0.00092787214089185 0.10604982078075409 0.1376461684703827 -0.09714711457490921 -0.013098852708935738 0.22362306714057922 0.14408771693706512 0.010740361176431179 -0.12493640184402466 0.076634481549263 -0.04291313514113426 -0.11959172040224075 -0.060125913470983505 0.015691015869379044 -0.14927437901496887 0.03967012092471123 
🌐 0.37121281027793884 0.19493748247623444 0.42799440026283264 0.22629481554031372 -0.01515303086489439 -0.31821563839912415 -0.0717252716422081 -0.11655031144618988 0.36774134635925293 0.027470994740724564 -0.07054605334997177 0.029423696920275688 -0.12585318088531494 0.07623788714408875 0.05795808508992195 0.2164335995912552 0.27047663927078247 -0.05906549096107483 -0.009637626819312572 0.5707247853279114 0.07982753217220306 0.09395945072174072 -0.009368028491735458 0.01623881794512272 0.3899784982204437 0.2978963851928711 -0.004548043943941593 -0.2580549120903015 -0.10940961539745331 0.05177244171500206 -0.06093199551105499 -0.0076463487930595875 0.269172340631485 -0.22548794746398926 -0.0680420771241188 0.0492110401391983 -0.38887107372283936 0.17883245646953583 0.12816910445690155 0.06685899943113327 0.040306951850652695 0.032587930560112 0.057994697242975235 -0.06466658413410187 -0.3909996449947357 0.24146002531051636 0.07271810621023178 0.0003625847166404128 -0.15180334448814392 0.1488715410232544 
🎡 0.005470342468470335 0.017205704003572464 0.03800739347934723 0.19786429405212402 -0.38138121366500854 -0.13089285790920258 -0.030962379649281502 -0.28332024812698364 0.2317247837781906 -0.0413394421339035 -0.3606797158718109 -0.113568514585495 -0.4699566960334778 -0.18727649748325348 -0.05269306153059006 0.3816312551498413 0.2924729883670807 0.19723494350910187 0.0227193720638752 -0.11597158759832382 0.10841533541679382 0.0004600407264661044 -0.3883839547634125 0.20661137998104095 0.20841902494430542 0.1710093468427658 0.0988486260175705 -0.16769276559352875 -0.18153992295265198 0.07809334993362427 -0.16677546501159668 -0.0397685281932354 0.18406936526298523 0.013822265900671482 0.2068863958120346 -0.06629443168640137 0.20205280184745789 0.0914049968123436 -0.08436175435781479 0.22950394451618195 -0.23991744220256805 -0.027283741161227226 -0.36587098240852356 -8.268259989563376e-05 -0.3248765468597412 -0.03403853997588158 0.061183348298072815 -0.08642343431711197 0.11387262493371964 0.22326608002185822 
🇿🇲 -0.0821027159690857 0.23053544759750366 -0.0013799475273117423 0.08709374815225601 -0.03510097786784172 0.05259880796074867 -0.06484583020210266 -0.22073374688625336 0.1535143405199051 -0.026773961260914803 0.03641023486852646 -0.010942625813186169 -0.046713560819625854 -0.245435893535614 0.056328851729631424 -0.12053566426038742 0.2073826789855957 -0.07786758989095688 0.018612997606396675 -0.11009709537029266 0.035045355558395386 -0.22183825075626373 0.009244421496987343 -0.0745309516787529 -0.10414774715900421 -0.06560488790273666 0.23474079370498657 -0.009199085645377636 -0.2572276294231415 -0.004341387655586004 0.041984062641859055 0.0173368901014328 -0.12370327115058899 -0.07847068458795547 -0.06863269954919815 0.10790008306503296 0.1691676378250122 -0.149779811501503 0.059586215764284134 -0.07542181760072708 -0.03995848447084427 -0.030984383076429367 0.07250069081783295 -0.14817602932453156 -0.18658049404621124 0.07256050407886505 -0.17184315621852875 0.04098937287926674 -0.009005283936858177 -0.03966466337442398 
🤒 0.09687016904354095 -0.128000870347023 0.2783244848251343 -0.2700260281562805 -0.07865533977746964 0.11692765355110168 0.27992671728134155 0.4044156074523926 0.2066940814256668 0.15937834978103638 -0.14813263714313507 -0.04141952842473984 0.15188056230545044 -0.1734147071838379 0.16353626549243927 0.020348230376839638 -0.04786853864789009 0.023005342110991478 0.13004258275032043 0.3122999668121338 -0.14520148932933807 0.22224678099155426 0.21220684051513672 -0.09435054659843445 0.045349232852458954 -0.05976748839020729 0.20315749943256378 -0.30914491415023804 0.0792686939239502 0.15748393535614014 -0.11264444887638092 0.07380848377943039 0.18985122442245483 -0.21860846877098083 0.11659534275531769 -0.29292020201683044 0.2101721316576004 0.20465894043445587 0.35385584831237793 -0.11930031329393387 -0.06010565161705017 -0.0464429073035717 0.29957881569862366 0.1581203192472458 -0.14451812207698822 0.1672498881816864 0.043826814740896225 0.2542501986026764 -0.16066676378250122 0.25138139724731445 
🔓 0.03751940652728081 -0.05845746397972107 0.22971728444099426 0.10807839781045914 -0.1391780525445938 -0.1717090904712677 -0.056416917592287064 0.2175486981868744 -0.022491173818707466 -0.011319868266582489 -0.1562984138727188 0.09662724286317825 -0.20737777650356293 0.20315855741500854 -0.03959188982844353 0.14033302664756775 0.33944329619407654 -0.16538190841674805 0.2615330219268799 0.014581190422177315 0.03211711719632149 0.08954738080501556 -0.2601657807826996 0.2316439151763916 -0.145196795463562 0.14377298951148987 0.2146063894033432 -0.15939755737781525 -0.035587720572948456 -0.17565062642097473 -0.15992245078086853 -0.19268444180488586 -0.017547015100717545 -0.13791754841804504 0.05561623349785805 0.17324256896972656 0.20459173619747162 -0.06641697883605957 0.007709546945989132 0.04565545171499252 -0.004098995588719845 -0.22211050987243652 0.22744162380695343 0.16329248249530792 -0.1713024526834488 0.17778009176254272 0.059722065925598145 -0.08156353235244751 0.02525593340396881 -0.1951856166124344 
🎻 -0.14439265429973602 0.02657586708664894 -0.20155878365039825 -0.09800121933221817 -0.23144426941871643 0.06273487210273743 -0.05523395165801048 0.21258240938186646 -0.12023889273405075 0.3482877314090729 0.15798479318618774 -0.07774282991886139 -0.06990762799978256 0.19046908617019653 -0.09043572843074799 -0.1769341230392456 0.10403449088335037 -0.1090233102440834 0.14888569712638855 -0.018885456025600433 0.2710150480270386 0.10456572473049164 -0.23091576993465424 0.11590985953807831 0.09036578238010406 0.3645786643028259 -0.15008877217769623 -0.29264184832572937 -0.32368117570877075 0.003330872394144535 -0.22085458040237427 -0.39356496930122375 0.30863305926322937 0.1279228925704956 0.211912602186203 -0.09058398753404617 0.19445182383060455 0.08158297091722488 0.15827353298664093 0.1337175965309143 0.022551510483026505 -0.17295263707637787 -0.03409619629383087 -0.1335894912481308 -0.00023551734921056777 0.10349808633327484 0.05849751830101013 0.21981553733348846 -0.33860138058662415 0.29208117723464966 
😹 0.060408834367990494 -0.07827603816986084 0.07926380634307861 -0.10000583529472351 0.022881604731082916 -0.03532461076974869 0.17057475447654724 0.252482146024704 -0.12004178017377853 0.16361479461193085 -0.3018234372138977 0.10838546603918076 -0.10709977895021439 -0.26622864603996277 0.21080940961837769 -0.17900030314922333 0.1586308628320694 -0.060977768152952194 0.07598478347063065 0.21085941791534424 -0.17533227801322937 0.1638186126947403 0.09357519447803497 -0.07342526316642761 0.48567554354667664 0.16565492749214172 -0.1438794583082199 -0.035630207508802414 0.0038143941201269627 -0.16937679052352905 -0.0769079402089119 0.10522108525037766 0.04788392037153244 -0.06660354137420654 -0.2255817949771881 -0.1828734278678894 0.12460072338581085 -0.22131289541721344 0.0839676707983017 -0.012603666633367538 0.024362104013562202 -0.061302438378334045 -0.2498081922531128 0.030296532437205315 0.07951842248439789 0.06636064499616623 -0.17457477748394012 -0.12816542387008667 -0.036192189902067184 0.015096665360033512 
🚮 0.13984167575836182 -0.05443180724978447 0.2087489813566208 -0.21724288165569305 -0.00043729160097427666 0.10050045698881149 -0.045645665377378464 -0.008625750429928303 0.1280687153339386 -0.019045459106564522 -0.08509533107280731 -0.04205583035945892 0.07235720753669739 -0.2183310091495514 0.18082185089588165 0.008292673155665398 0.2800073027610779 0.1930723786354065 0.2136557251214981 0.12859168648719788 -0.05436912178993225 -0.26973971724510193 0.22520367801189423 0.08084364235401154 0.06269189715385437 0.08919721096754074 0.0871497094631195 0.05448681488633156 0.16222967207431793 0.001286272774450481 -0.08147028088569641 -0.09312380105257034 -0.03545650467276573 -0.48714128136634827 -0.14838866889476776 0.21287207305431366 0.17697474360466003 0.019466467201709747 0.14413270354270935 0.08558595180511475 -0.21688659489154816 -0.18161404132843018 0.008552957326173782 0.15596257150173187 -0.05159584805369377 0.1880429983139038 -0.19147448241710663 0.07226201891899109 0.36947017908096313 0.057501617819070816 
👽 0.26462632417678833 -0.007346503436565399 -0.08626072853803635 0.15306828916072845 -0.0215853750705719 -0.11488635092973709 0.044191062450408936 -0.10250232368707657 -0.008723667822778225 -0.03241788595914841 -0.04073157161474228 0.18209971487522125 0.09173683077096939 0.032350651919841766 0.28222012519836426 -0.371135950088501 0.13316504657268524 0.02261458709836006 -0.06329291313886642 0.26226118206977844 0.05507291853427887 0.06856054067611694 0.09238003939390182 0.06118890643119812 0.09349490702152252 0.32341131567955017 -0.16446246206760406 -0.3096325695514679 0.05213954672217369 0.20543964207172394 -0.36367034912109375 -0.3154935836791992 -0.30004069209098816 -0.15089960396289825 -0.20368604362010956 0.07682649791240692 -0.08659952878952026 -0.14260786771774292 0.030408306047320366 0.21031582355499268 0.16100282967090607 -0.3271823525428772 0.1244717463850975 0.1404794603586197 0.024988126009702682 -0.32325834035873413 0.002472479594871402 0.15087546408176422 0.3062237799167633 0.16588664054870605 
🌝 0.43730100989341736 0.16825559735298157 -0.23580418527126312 0.001522568054497242 -0.029094578698277473 -0.01638876087963581 0.01134207658469677 -0.07496263086795807 -0.25623270869255066 0.02918025478720665 -0.2747553288936615 0.11946261674165726 -0.13533915579319 0.2820165455341339 0.14070071280002594 -0.12944719195365906 0.4039512574672699 -0.12658259272575378 -0.23980754613876343 -0.09679258614778519 -0.14959180355072021 0.14543192088603973 0.10895349085330963 -0.12080651521682739 0.04050130769610405 0.37959524989128113 -0.039892468601465225 0.04186355322599411 -0.0022101232316344976 0.17737528681755066 -0.059268396347761154 -0.05384949594736099 -0.31574347615242004 -0.013231836259365082 0.0439995713531971 0.09821055829524994 0.07480952888727188 0.02324688248336315 -0.13184694945812225 -0.2335135042667389 0.012871136888861656 0.046765975654125214 -0.03389652073383331 -0.4115508794784546 -0.10097752511501312 0.0686255618929863 0.2743382155895233 0.17677882313728333 -0.20774777233600616 0.17953558266162872 
🇭🇺 -0.2812742590904236 0.20274284482002258 0.06824357807636261 0.16034358739852905 0.03146856278181076 -0.005360218230634928 0.09344661235809326 0.11687193810939789 -0.15519511699676514 -0.1639728993177414 -0.00229615718126297 -0.02409200370311737 0.034806836396455765 -0.06201215833425522 0.0648290142416954 0.01600748673081398 0.06755777448415756 -0.1491018384695053 0.10547109693288803 0.1465180665254593 0.1730199009180069 -0.17620274424552917 -0.11714410036802292 -0.11209049075841904 0.11758047342300415 0.05153670161962509 0.03554007038474083 -0.1122128963470459 -0.09640487283468246 0.012201745994389057 0.045191094279289246 -0.032721105962991714 0.13545840978622437 -0.21538187563419342 -0.23661592602729797 -0.2541417181491852 0.1481279581785202 0.054257772862911224 -0.021952582523226738 0.1787218451499939 -0.09939757734537125 0.076557956635952 0.16188164055347443 -0.0031476281583309174 -0.20038922131061554 0.17214801907539368 -0.004295294173061848 0.19370554387569427 0.062142256647348404 0.012994688004255295 
🐆 0.4310811161994934 -0.3435656428337097 -0.11632812023162842 -0.30198535323143005 -0.0537399984896183 0.07589343190193176 0.14248226583003998 -0.16918739676475525 0.07862403988838196 -0.02187464013695717 0.2105046659708023 0.33441200852394104 -0.03499576821923256 -0.03504098206758499 -0.1767556518316269 -0.10291207581758499 0.06320081651210785 0.16305498778820038 -0.04777729883790016 0.3130469024181366 -0.36020323634147644 0.14369730651378632 0.002883585635572672 0.057629041373729706 0.009525852277874947 0.3029382824897766 -0.10994042456150055 -0.05090195685625076 -0.07153992354869843 -0.005248094443231821 -0.27062588930130005 -0.18839962780475616 0.17653393745422363 0.16255882382392883 0.16505475342273712 -0.005090608727186918 -0.09767108410596848 -0.32388779520988464 -0.32304394245147705 -0.20423322916030884 -0.05250732973217964 -0.06003633514046669 0.24773459136486053 -0.19813276827335358 0.21632452309131622 -0.3122294843196869 0.12420910596847534 -0.0236625075340271 0.3221958875656128 0.14146775007247925 
🇰🇵 -0.11710656434297562 0.13117286562919617 0.047382015734910965 0.05815722048282623 -0.016598185524344444 -0.11328641325235367 0.17204774916172028 0.034197453409433365 0.12860019505023956 0.005266003310680389 0.21698474884033203 -0.017833059653639793 0.0170198492705822 -0.23763510584831238 -0.21077954769134521 0.21728229522705078 -0.06597596406936646 -0.17281392216682434 -0.04810713231563568 0.15760307013988495 0.06944222003221512 0.046501535922288895 -0.12265678495168686 0.13691122829914093 0.0017556181410327554 0.004345443099737167 0.05197150632739067 -0.036229778081178665 -0.054755568504333496 0.06914588809013367 -0.12010687589645386 0.07523351162672043 -0.07878716289997101 -0.12864205241203308 0.08721638470888138 -0.17114821076393127 0.02980354055762291 -0.06920856237411499 0.023804467171430588 0.18504004180431366 -0.0018356317887082696 -0.2864246368408203 -0.054428476840257645 -0.12126848101615906 -0.10920459032058716 0.22427168488502502 -0.06972695887088776 0.16787472367286682 0.11761825531721115 -0.10103534907102585 
💔 0.12414669245481491 0.027839193120598793 0.033630289137363434 -0.3541046380996704 -0.2426673322916031 0.29792773723602295 0.24794325232505798 0.4237401783466339 0.22052092850208282 0.2782914340496063 -0.021800147369503975 0.02185184694826603 -0.08673106133937836 0.04433558136224747 -0.01956859976053238 -0.09272431582212448 0.05726011469960213 -0.19381393492221832 0.2109977900981903 0.3586178123950958 -0.17434315383434296 0.2562430799007416 0.06677169352769852 -0.04257705807685852 0.17453384399414062 0.11131735891103745 0.0874614417552948 -0.0653746947646141 -0.01955682411789894 0.05922214314341545 -0.06350313872098923 -0.25388944149017334 0.3489864468574524 -0.04110119864344597 -0.20175854861736298 0.07924721390008926 0.14951734244823456 -0.004840579349547625 0.2519998848438263 0.09539604187011719 -0.22007696330547333 -0.22124849259853363 -0.02900565229356289 -0.00236548506654799 -0.14371109008789062 0.06545941531658173 -0.14393340051174164 -0.08493851870298386 -0.38264158368110657 0.006073317490518093 
🎅🏻 -0.12270201742649078 -0.058691177517175674 -0.256477028131485 -0.09411164373159409 0.09823812544345856 0.044410690665245056 -0.010482421144843102 0.1285085678100586 -0.11415348947048187 -0.05391179770231247 0.08952602744102478 0.07524745911359787 -0.010802993550896645 -0.1412365436553955 0.14837995171546936 -0.08881236612796783 0.011897454038262367 -0.10745055973529816 -0.04145581275224686 -0.1345396190881729 0.10432606935501099 0.1475382000207901 -0.1264854073524475 -0.14784367382526398 0.09256698191165924 0.04942406713962555 -0.05117764323949814 0.1137913390994072 -0.04465372860431671 -0.08902662992477417 -0.07482534646987915 -0.19078029692173004 -0.15934541821479797 -0.04331370070576668 0.19749246537685394 0.03048107586801052 0.09429796785116196 0.1894754320383072 0.09583135694265366 -0.0020638196729123592 -0.03920115530490875 0.09997642040252686 0.034865982830524445 -0.1370764523744583 -0.09979651123285294 -0.009229796007275581 -0.12952864170074463 -0.07647209614515305 -0.094761922955513 0.051095493137836456 
👇🏽 -0.15509891510009766 0.08274954557418823 0.09907543659210205 -0.026823244988918304 0.033582862466573715 -0.044886283576488495 0.046728700399398804 0.038617800921201706 -0.02832518331706524 0.17243532836437225 -0.15460456907749176 -0.1358664184808731 -0.16351769864559174 -0.011672236025333405 -0.07496059685945511 0.039681531488895416 -0.04640049859881401 -0.15122997760772705 0.0643516480922699 -0.09072695672512054 0.1310454159975052 0.05881602317094803 -0.026531554758548737 -0.0261611919850111 -0.06118655949831009 0.10365544259548187 0.13365064561367035 0.038801319897174835 -0.0370614230632782 0.006486494094133377 -0.021871762350201607 -0.10059566795825958 0.15287743508815765 -0.1607833057641983 0.14719843864440918 -0.07490263134241104 -0.1428239494562149 0.04398409649729729 0.05163539573550224 -0.1690441071987152 0.024877110496163368 -0.025460559874773026 0.14279666543006897 -0.01866699382662773 -0.07812922447919846 -0.027989529073238373 0.12809807062149048 -0.07201969623565674 0.13808931410312653 -0.07533174008131027 
🍆 -0.13058124482631683 0.038190651684999466 -0.21106983721256256 0.12973351776599884 -0.007853134535253048 0.0996566042304039 0.2420729249715805 -0.14854083955287933 -0.1413460224866867 0.1841680407524109 -0.15353195369243622 -0.034704338759183884 0.24084483087062836 -0.26356106996536255 -0.04854799434542656 -0.15140463411808014 -0.12992265820503235 -0.08802913874387741 0.33459213376045227 0.12721548974514008 -0.06680504977703094 -0.26201626658439636 0.29183241724967957 -0.17626740038394928 -0.41958287358283997 0.3810288608074188 0.26784539222717285 0.20981507003307343 0.06787412613630295 -0.04376756772398949 -0.2563968300819397 0.026521433144807816 0.10183057934045792 0.09891985356807709 0.030105648562312126 0.007646023761481047 -0.18532703816890717 0.24817202985286713 -0.07861162722110748 0.0027570193633437157 -0.0844302698969841 -0.024251103401184082 -0.12181738018989563 -0.22313202917575836 0.11857713758945465 -0.15655067563056946 -0.051094263792037964 0.009723877534270287 -0.2889387309551239 0.38373997807502747 
👃🏽 -0.04307609796524048 -0.09451459348201752 -0.01681843027472496 0.09349831193685532 0.05299355462193489 0.06886744499206543 0.2514040172100067 -0.08691763877868652 -0.14430512487888336 -0.007354096043854952 -0.08714327216148376 0.05867008492350578 0.168210968375206 0.16419380903244019 -0.32734906673431396 0.13442295789718628 -0.034142423421144485 -0.04388921335339546 0.14507105946540833 0.07648688554763794 -0.21109293401241302 0.07767606526613235 0.1415404975414276 -0.06241593882441521 -0.1781015545129776 0.16009989380836487 0.24013885855674744 0.07501013576984406 -0.0935964286327362 0.006034632213413715 -0.16392800211906433 -0.11190598458051682 0.07980869710445404 0.013885966502130032 -0.06109773740172386 -0.08161424100399017 -0.1188151016831398 0.15901409089565277 0.17362143099308014 -0.12246142327785492 -0.06138521432876587 0.023899486288428307 -0.1582079380750656 -0.08087682723999023 0.017961876466870308 0.2211012840270996 0.05486801266670227 -0.004999030381441116 -0.19989386200904846 -0.19290560483932495 
🐖 0.0397648848593235 -0.6173714995384216 0.032631631940603256 -0.1222548708319664 -0.08524103462696075 -0.003094705753028393 0.1948554962873459 0.06057940050959587 0.15127116441726685 0.16718605160713196 -0.2532199025154114 0.3409481346607208 0.1701425462961197 -0.17155791819095612 -0.06753260642290115 -0.04317012429237366 0.5432427525520325 -0.05644951015710831 0.1941967010498047 0.42937472462654114 0.21635328233242035 -0.5953869223594666 0.17307646572589874 -0.16694587469100952 -0.21911916136741638 0.26583266258239746 0.07331948727369308 -0.21325191855430603 0.2150920182466507 -0.10519774258136749 -0.32053205370903015 0.1064033955335617 0.01690644770860672 0.20749779045581818 -0.23593080043792725 0.32877039909362793 -0.12847931683063507 0.29473230242729187 0.18509596586227417 0.02323371171951294 -0.156822070479393 -0.005817963741719723 -0.07203873246908188 -0.030448123812675476 0.1259966641664505 0.09179122745990753 -0.3110943138599396 -0.025571873411536217 0.2546779215335846 0.10799024254083633 
😮 -0.09455877542495728 -0.286380797624588 -0.10435231029987335 0.17136427760124207 -0.2257060557603836 -0.0352366641163826 0.21470925211906433 0.17979641258716583 0.2792438864707947 -0.15398384630680084 -0.11898661404848099 -0.27771878242492676 -0.014407134614884853 0.15334449708461761 -0.08688078820705414 0.19797717034816742 0.18291375041007996 -0.3591570556163788 0.17971807718276978 0.26571178436279297 -0.046351950615644455 0.03430280461907387 -0.13944804668426514 -0.009312747046351433 -0.07588367909193039 -0.048310525715351105 0.1055382788181305 0.19087658822536469 -0.2897382378578186 -0.19929121434688568 -0.1271839141845703 -0.16182632744312286 0.19374506175518036 0.05306372046470642 -0.36363986134529114 -0.27670249342918396 0.2457779347896576 0.1338759958744049 0.21606288850307465 0.03458963707089424 -0.011646120809018612 -0.22946807742118835 0.12421807646751404 0.39785274863243103 -0.07236839085817337 -0.03858388587832451 0.06974799931049347 -0.0773111954331398 0.008073247969150543 0.029059091582894325 
✴️ -0.03899477422237396 0.1105048730969429 0.18986152112483978 0.28533223271369934 -0.1898970901966095 0.04577774554491043 -0.021151695400476456 0.07340001314878464 -0.08688443899154663 0.05646534264087677 -0.024393806234002113 -0.07077568024396896 0.0031494651921093464 0.010257856920361519 -0.1143948882818222 -0.06485946476459503 0.06887965649366379 0.08959957957267761 -0.09103051573038101 -0.1487445831298828 -0.3227548897266388 0.04507065191864967 0.024122050032019615 0.0019946275278925896 -0.08189662545919418 0.17652273178100586 0.11371888220310211 0.09142732620239258 -0.08409232646226883 -0.04793766140937805 -0.08463243395090103 0.0069763874635100365 0.1121583878993988 -0.023317990824580193 0.11322395503520966 -0.07010231167078018 -0.15776462852954865 0.06571738421916962 -0.021884312853217125 -0.13534404337406158 -0.015661312267184258 0.16690190136432648 -0.11180659383535385 -0.0916380062699318 -0.0700620487332344 -0.04993372783064842 -0.1656786948442459 -0.0951605886220932 -0.033423468470573425 -0.002585756592452526 
➗ 0.028575768694281578 -0.1426135152578354 0.005001997575163841 -0.1631530076265335 0.0022376386914402246 -0.040227364748716354 -0.07844194769859314 0.04596182703971863 -0.10023728758096695 -0.10598881542682648 0.026838291436433792 0.07182668894529343 -0.07706403732299805 -0.01325218379497528 -0.057671401649713516 -0.06636828184127808 -0.15326711535453796 -0.059447936713695526 -0.02237227000296116 0.018038423731923103 0.049540866166353226 -0.11609223484992981 0.010052851401269436 -0.12186331301927567 -0.09229220449924469 -0.03773660585284233 0.1292673796415329 -0.08443398773670197 -0.08465384691953659 0.017265159636735916 0.009943568147718906 0.04457387328147888 0.10130215436220169 -0.009614251554012299 0.06859880685806274 0.007634485140442848 -0.05970513075590134 0.06724189966917038 0.1304522454738617 -0.06134010851383209 -0.04396140202879906 -0.06936651468276978 -0.08310145139694214 -0.14692088961601257 0.08703789860010147 0.12313450127840042 -0.06933441758155823 -0.035940609872341156 -0.16047322750091553 0.12472911924123764 
⌚ -0.09555048495531082 -0.2676036059856415 0.2773134112358093 0.28946971893310547 -0.04300094395875931 -0.2941712439060211 -0.054820649325847626 0.13650961220264435 0.3265123665332794 0.014896595850586891 0.06459800899028778 -0.016153238713741302 -0.15035590529441833 0.26462021470069885 0.25684475898742676 0.18808884918689728 0.012536151334643364 -0.11882293969392776 0.17908404767513275 -0.06365075707435608 0.1179746612906456 0.16495490074157715 -0.12847043573856354 0.044000688940286636 -0.0017021109815686941 0.10037491470575333 -0.04819001257419586 -0.3422397971153259 -0.029743537306785583 -0.0705295130610466 -0.03106454573571682 0.11953753232955933 0.11689333617687225 -0.09307842701673508 -0.13539093732833862 0.11013352125883102 0.12659254670143127 0.09232980012893677 -0.11285463720560074 0.08815157413482666 0.12413643300533295 0.17278870940208435 0.07483264803886414 0.13965661823749542 0.03003782220184803 -0.07439998537302017 -0.009186950512230396 0.10677541792392731 -0.38438886404037476 0.2729237675666809 
🆎 0.028825009241700172 -0.15877565741539001 0.08995100110769272 0.010080345906317234 -0.020608529448509216 0.13503117859363556 0.32648125290870667 -0.12384311854839325 0.06373699754476547 0.16277408599853516 0.3503935933113098 0.16578909754753113 -0.003289477899670601 -0.1236574649810791 -0.21716804802417755 0.008965292945504189 0.016743797808885574 -0.044706664979457855 0.036732517182826996 0.23416513204574585 -0.13095855712890625 -0.010122920386493206 0.22179850935935974 0.07922109961509705 -0.029565341770648956 0.3228590786457062 -0.0578150637447834 -0.16979189217090607 -0.1687096506357193 0.19511008262634277 -0.1329980343580246 -0.11514151841402054 0.1435839980840683 0.07506167888641357 0.23732894659042358 -0.11992226541042328 0.05786360055208206 0.02038538083434105 0.20017020404338837 0.34956473112106323 0.09671469777822495 -0.09344399720430374 -0.10958356410264969 0.03561205789446831 -0.0427134744822979 0.18018943071365356 0.07427814602851868 0.17511245608329773 0.16865605115890503 0.12025698274374008 
👻 0.12350398302078247 -0.054996784776449203 -0.040260061621665955 0.012291750870645046 0.009016289375722408 -0.21792210638523102 0.19214731454849243 -0.07444407045841217 0.075977623462677 -0.0029517163056880236 -0.1552909016609192 -0.08989490568637848 0.1864398568868637 0.05688967928290367 0.10516111552715302 -0.1078423261642456 0.11637034267187119 0.13744711875915527 -0.07664632797241211 0.24665753543376923 0.02803046442568302 0.059775833040475845 -0.13364583253860474 0.18311384320259094 -0.0963103249669075 0.28723829984664917 -0.2464427947998047 -0.13087326288223267 0.036506567150354385 0.1363063007593155 -0.23565882444381714 0.05875043943524361 0.08886425197124481 -0.08768249303102493 0.12217593193054199 0.381407231092453 0.052009616047143936 -0.3335108757019043 -0.0270380862057209 -0.02127046138048172 -0.1033015251159668 -0.08215216547250748 -0.2416568100452423 -0.12807410955429077 0.06238137185573578 -0.10795199871063232 -0.07172025740146637 -0.22052519023418427 0.1530434787273407 0.2485334575176239 
🗻 0.04102667048573494 0.09187023341655731 0.046709123998880386 -0.09107058495283127 -0.0306460689753294 0.07135758548974991 0.07623866200447083 0.2286885380744934 0.054347530007362366 0.02784908004105091 -0.09594408422708511 -0.2398505061864853 -0.015356365591287613 -0.23534506559371948 -0.10765183717012405 0.13561411201953888 0.23619434237480164 0.12598071992397308 -0.082781121134758 0.1435122936964035 0.1424015760421753 -0.16161422431468964 -0.24058762192726135 0.03139977902173996 0.055966369807720184 -0.03363979980349541 -0.15206998586654663 0.1426152139902115 -0.215141162276268 0.21210666000843048 -0.1425294578075409 -0.011415205895900726 0.06565152853727341 -0.03238115832209587 -0.05274815112352371 -0.09027242660522461 -0.09166523814201355 -0.012835701927542686 -0.05794892460107803 0.1287931203842163 -0.04760889708995819 0.039391424506902695 0.05243637412786484 -0.021493660286068916 -0.01627831533551216 -0.19130194187164307 -0.053035713732242584 0.11808809638023376 0.18260632455348969 -0.2857222557067871 
🇨🇺 -0.16740131378173828 0.16135174036026 0.02426239103078842 -0.015407041646540165 -0.010325580835342407 -0.17373643815517426 -0.05313890054821968 0.07743329554796219 -0.07453463226556778 -0.18385998904705048 0.1196540966629982 -0.17809541523456573 0.038507815450429916 -0.18760554492473602 -0.07701154053211212 -0.21641801297664642 -0.038892775774002075 0.08859246969223022 0.01951519027352333 0.09509006887674332 -0.0908636674284935 -0.032752737402915955 -0.16311056911945343 -0.20255473256111145 -0.06265139579772949 -0.09496307373046875 0.1581447869539261 -0.14510031044483185 -0.2245495617389679 0.023457223549485207 0.032410044223070145 0.09028591215610504 -0.04829976707696915 -0.17939120531082153 -0.15498127043247223 -0.014077921397984028 0.04240139201283455 0.02628270722925663 -0.04815252125263214 0.2635522186756134 -0.08680148422718048 -0.0119254682213068 0.1348324418067932 -0.1767527014017105 -0.12539063394069672 -0.19071592390537262 -0.2954059839248657 0.0509113110601902 0.05420244112610817 -0.09620493650436401 
😟 0.09610358625650406 -0.14917214214801788 0.07358162850141525 -0.033868636935949326 -0.013669800944626331 -0.29764723777770996 0.25919631123542786 0.35836470127105713 -0.2300596833229065 0.12434389442205429 -0.10586660355329514 -0.26377424597740173 -0.16093562543392181 -0.2183556854724884 0.12184517830610275 0.2526310682296753 0.07601306587457657 -0.3614494502544403 0.45158693194389343 0.330588698387146 -0.29284125566482544 0.2629469335079193 0.010714110918343067 0.0449591763317585 0.11234378814697266 0.13095848262310028 0.17117224633693695 -0.03909141570329666 0.18892180919647217 0.2547711431980133 -0.1820269078016281 0.03389820083975792 0.38615137338638306 -0.3185959458351135 -0.051491640508174896 -0.2376762479543686 -0.28906136751174927 -0.2411026507616043 0.02380758710205555 -0.05737406387925148 -0.35932376980781555 0.0022217698860913515 0.2928139865398407 -0.2412872314453125 -0.10046223551034927 -0.06120005249977112 -0.1273103803396225 0.41149118542671204 0.04065047577023506 0.3963935077190399 
💣 0.25858694314956665 -0.1940094232559204 0.18735097348690033 -0.17103801667690277 -0.03016747161746025 -0.09623248875141144 0.19533438980579376 0.15027303993701935 -0.04095000401139259 -0.07062187045812607 -0.248984694480896 -0.2728508710861206 -0.11185947060585022 -0.053421445190906525 -0.08561372011899948 -0.08264468610286713 0.10386423766613007 0.13460855185985565 0.0495184063911438 0.11668555438518524 0.1900462955236435 0.1838526576757431 -0.015392829664051533 0.28303876519203186 -0.018942777067422867 0.05908341333270073 0.055273860692977905 -0.022084269672632217 -0.010571219027042389 -0.035804372280836105 -0.1019931435585022 -0.11188039183616638 0.09804943948984146 -0.042261142283678055 0.2261551320552826 0.14848649501800537 0.19215957820415497 0.06815234571695328 0.0460774190723896 0.17309577763080597 -0.13392312824726105 -0.0013959226198494434 0.06424323469400406 -0.20417021214962006 0.12505295872688293 0.016920212656259537 0.022669214755296707 0.22321024537086487 0.25480878353118896 0.13280637562274933 
💁 0.21709361672401428 -0.32799243927001953 -0.12634381651878357 -0.07742976397275925 -0.005646764766424894 -0.08040918409824371 0.08088583499193192 0.006328105460852385 0.007952826097607613 0.31523656845092773 -0.15989629924297333 0.1546192467212677 -0.08054676651954651 -0.0024659335613250732 0.08739402145147324 0.04162232577800751 0.10936340689659119 -0.15520615875720978 0.47655344009399414 0.24645039439201355 0.09561670571565628 0.4268665015697479 -0.14815682172775269 0.24551545083522797 0.19868871569633484 0.06054329872131348 0.10527140647172928 -0.0028901733458042145 0.06365060806274414 0.06486618518829346 -0.038824718445539474 -0.0025216983631253242 -0.16453351080417633 -0.20217299461364746 0.27276870608329773 -0.052725065499544144 -0.25318148732185364 0.2097177952528 0.16446056962013245 -0.001593243796378374 0.21848541498184204 0.04143931716680527 0.07238616794347763 0.14774540066719055 -0.04496849328279495 -0.2818295359611511 0.14909140765666962 0.3154345154762268 0.13869690895080566 0.44313809275627136 
🦀 0.11464205384254456 -0.21756160259246826 -0.19296996295452118 0.14197708666324615 -0.18123535811901093 0.11275822669267654 -0.0027754022739827633 0.17434510588645935 0.06609546393156052 0.12376940250396729 -0.021669650450348854 0.15502099692821503 0.18648001551628113 0.21021641790866852 -0.13186728954315186 -0.09055770933628082 0.003144137794151902 0.0716821625828743 0.09541857987642288 0.29504308104515076 -0.19701117277145386 -0.2009088546037674 -0.07132035493850708 -0.21067939698696136 -0.1791139394044876 0.21619407832622528 -0.044619232416152954 -0.14522980153560638 -0.0702686682343483 0.08895902335643768 -0.1767396181821823 -0.10284601897001266 -0.10521946847438812 0.34667590260505676 0.05261097475886345 0.06056647002696991 -0.043492913246154785 0.056334421038627625 0.12355015426874161 -0.0263202041387558 -0.35014021396636963 0.04100477322936058 -0.1358286589384079 -0.02623368613421917 0.0404803641140461 0.11235575377941132 -0.0029534301720559597 -0.033229127526283264 0.047608647495508194 0.1955200731754303 
🇬🇭 -0.19778338074684143 -0.08012808859348297 0.24371875822544098 0.00832065474241972 0.018128085881471634 -0.28251394629478455 -0.015103709883987904 -0.13230833411216736 0.09947878867387772 -0.11226435005664825 0.20473210513591766 -0.14787587523460388 0.03507799282670021 -0.24040967226028442 0.015991749241948128 -0.20384225249290466 -0.06736201047897339 -0.19113372266292572 0.09401848912239075 -0.1683005839586258 -0.10395785421133041 -0.010601875372231007 -0.004653277341276407 0.030787959694862366 -0.02777545340359211 -0.007364166434854269 -0.06733839958906174 -0.08123981207609177 -0.40214282274246216 0.22935797274112701 -0.07624907791614532 0.1290060430765152 -0.04630324989557266 -0.30725815892219543 0.13614346086978912 0.03164378181099892 0.14997084438800812 -0.1248336136341095 -0.2267933338880539 0.0989847406744957 0.11656484007835388 0.06014179065823555 0.24693983793258667 -0.11817418038845062 -0.33496880531311035 0.12749508023262024 -0.16885752975940704 0.2299889624118805 0.10800187289714813 -0.1259707361459732 
🎩 -0.481606125831604 0.2304721176624298 -0.0837460309267044 -0.26868006587028503 0.0732882097363472 -0.09647180140018463 -0.006858176086097956 0.04467291757464409 -0.06902015954256058 -0.09213796257972717 -0.13810302317142487 0.003783043473958969 -0.17581771314144135 0.1609795093536377 -0.1129242330789566 -0.036364369094371796 0.40007278323173523 -0.016170024871826172 -0.11477334797382355 0.06689520925283432 -0.0032925226259976625 -0.17688795924186707 -0.3199935257434845 -0.08249024301767349 -0.46823829412460327 -0.003919495269656181 0.0381515808403492 -0.07999444007873535 -0.17568433284759521 0.1978064775466919 -0.16352850198745728 -0.13148196041584015 0.10038892924785614 0.07922117412090302 0.4663107693195343 0.24588251113891602 0.3621924817562103 0.36478716135025024 0.18942612409591675 0.1526906043291092 -0.07728549093008041 0.051820967346429825 0.04340720176696777 0.17426516115665436 -0.1424981951713562 0.0072214496321976185 0.13771167397499084 0.004786164965480566 0.09523150324821472 0.2616332471370697 
🇼 0.021995149552822113 0.1701095849275589 0.08358550071716309 0.19605284929275513 0.05295836925506592 0.02413421869277954 0.18475331366062164 -0.16795602440834045 0.030056655406951904 -0.15954618155956268 -0.06672710925340652 0.14552077651023865 -0.12756118178367615 0.026271522045135498 -0.0073425257578492165 0.10155536979436874 -0.06209632009267807 -0.08296611160039902 0.08564954251050949 -0.113910011947155 0.1986285001039505 -0.020979173481464386 -0.14437125623226166 -0.04622102528810501 -0.10650043934583664 0.12114423513412476 -0.05147859454154968 -0.1962670385837555 -0.002041451632976532 0.18929427862167358 -0.03333150967955589 -0.09441593289375305 0.04536646604537964 -0.11092079430818558 -0.07943523675203323 -0.09759604185819626 -0.07033760100603104 -0.028890272602438927 0.009531732648611069 0.07754606753587723 0.0045311483554542065 0.058394648134708405 -0.027954762801527977 -0.10086801648139954 0.057623475790023804 0.07414817810058594 -0.0004997824435122311 0.12492398917675018 0.05365894362330437 0.05119031295180321 
👉🏾 -0.2758026421070099 0.02445059083402157 0.16459931433200836 -0.06882932037115097 0.14754125475883484 -0.010020485147833824 -0.00445171445608139 0.08132200688123703 -0.09411308914422989 0.17067337036132812 -0.16618365049362183 -0.12435092031955719 -0.10476653277873993 0.1336444616317749 -0.11712303012609482 -0.07687186449766159 0.21898235380649567 -0.14146004617214203 0.045699939131736755 0.022515317425131798 -0.09613371640443802 0.13550914824008942 0.14119456708431244 -0.15660542249679565 0.07919732481241226 0.12898971140384674 0.1175958439707756 0.032083913683891296 -0.016662007197737694 -0.12708862125873566 -0.08937710523605347 -0.1084992066025734 0.2099081575870514 -0.0905892550945282 -0.0908597856760025 -0.0770769938826561 -0.2123580276966095 0.013199931010603905 0.027119334787130356 -0.1828988939523697 0.02757108211517334 -0.028025301173329353 0.09256117790937424 6.923505225131521e-06 0.1592041701078415 -0.03928399458527565 0.08254444599151611 0.0013340612640604377 -0.09049911797046661 -0.19788259267807007 
🙊 0.2702656090259552 -0.244475319981575 -0.029164841398596764 0.023405026644468307 -0.20117051899433136 0.02853817492723465 0.149026021361351 -0.05825502797961235 0.10619442164897919 0.18327200412750244 -0.3709512948989868 0.07101752609014511 0.044535987079143524 -0.32696816325187683 0.19611047208309174 0.03952477499842644 0.25325775146484375 -0.19248676300048828 0.20889943838119507 0.36318469047546387 -0.21902501583099365 0.13845886290073395 0.2669869661331177 0.1312231719493866 0.40735724568367004 0.06660784780979156 -0.019995998591184616 0.08748210221529007 -0.010758178308606148 -0.3481365144252777 -0.024571599438786507 -0.3122434914112091 -0.18484394252300262 -0.20963475108146667 -0.1337873786687851 -0.16475772857666016 0.09701327234506607 -0.2489321231842041 0.03818250820040703 0.27539604902267456 -0.21641167998313904 0.11799781024456024 -0.03971247747540474 0.3678649067878723 0.030863339081406593 -0.04404735192656517 0.05954363942146301 0.26985523104667664 -0.1502426415681839 0.13045035302639008 
🍚 -0.0547570139169693 -0.05303557217121124 -0.0882633700966835 0.18004284799098969 -0.022947534918785095 0.04164909943938255 -0.12388962507247925 -0.10560249537229538 0.1435878872871399 -0.28998544812202454 -0.21553131937980652 0.13088616728782654 0.302247554063797 -0.37252071499824524 -0.0433652363717556 0.16597650945186615 0.195780947804451 0.1375645101070404 0.1116255670785904 0.21181797981262207 -0.009119183756411076 -0.18813739717006683 0.19999141991138458 -0.07405634224414825 -0.27579161524772644 0.19767901301383972 0.21371981501579285 -0.16662393510341644 0.04542487487196922 0.23945491015911102 -0.15170979499816895 -0.20656254887580872 -0.09631916135549545 0.04907645657658577 0.22159525752067566 0.2752859592437744 -0.21065330505371094 0.20054329931735992 -0.005103108007460833 0.274362176656723 -0.3155907690525055 0.1840347796678543 -0.02192634716629982 -0.024511130526661873 0.2290269136428833 0.22984249889850616 -0.2146749347448349 0.20253872871398926 -0.27176976203918457 0.24319541454315186 
🍙 -0.2353033870458603 -0.032182853668928146 -0.13511539995670319 0.29553931951522827 0.07941631972789764 -0.15281958878040314 -0.14575327932834625 0.026241697371006012 -0.10543810576200485 -0.18395841121673584 -0.17516246438026428 0.21710485219955444 0.10202822089195251 0.05590859055519104 0.12788093090057373 0.03686128556728363 0.2626773416996002 -0.20826411247253418 0.12115634977817535 0.2782009541988373 0.19874317944049835 0.0186349768191576 0.023679478093981743 -0.35478895902633667 0.1035708636045456 0.15724052488803864 0.3871258497238159 0.13968360424041748 0.014839350245893002 -0.06063130870461464 -0.1095827966928482 -0.27700671553611755 0.19330619275569916 0.08204132318496704 0.051780831068754196 0.14653423428535461 -0.17417043447494507 0.22550296783447266 -0.09595505148172379 0.11293340474367142 0.010292214341461658 0.08590274304151535 0.10121727734804153 -0.276899516582489 0.32774120569229126 -0.03909507766366005 -0.13805626332759857 0.1748223900794983 0.05940231680870056 -0.13782437145709991 
🚯 0.18405357003211975 -0.10073213279247284 0.3705592155456543 0.0854535922408104 -0.0027361700776964426 -0.11446386575698853 0.19256997108459473 0.060759518295526505 0.10998241603374481 -0.08683305233716965 0.0019613695330917835 0.0931069403886795 0.11729712784290314 -0.1526651531457901 0.14973251521587372 0.07332514971494675 0.36151620745658875 0.04929414018988609 0.43531179428100586 0.07291216403245926 -0.02908332832157612 -0.269169420003891 0.007472761441022158 -0.06338944286108017 0.1168118491768837 0.20500849187374115 0.09139904379844666 -0.08869823068380356 0.2704903483390808 0.10522624850273132 -0.09287751466035843 0.01960732974112034 -0.2212054580450058 -0.3292783498764038 0.006641439162194729 0.29718098044395447 0.14299432933330536 -0.006019026972353458 0.29528898000717163 0.23741479218006134 -0.2070053368806839 -0.20140880346298218 0.1316859871149063 0.11465215682983398 -0.08099613338708878 0.12492398917675018 -0.32921043038368225 0.2348630428314209 0.4197719693183899 0.17548836767673492 
👩🏿 -0.24857911467552185 0.10518531501293182 -0.11274082213640213 -0.08302780240774155 0.060449786484241486 0.2843979299068451 0.09532695263624191 0.015376226976513863 0.0027590689714998007 0.1266336292028427 -0.04657052457332611 -0.08372131735086441 0.15203101933002472 0.05098334327340126 0.08067202568054199 -0.12285120785236359 0.05254724621772766 0.17983034253120422 0.07072477042675018 0.09692337363958359 0.019757911562919617 0.14740046858787537 0.1352294236421585 0.18935485184192657 0.05351557210087776 0.028988270089030266 -0.09860923141241074 -0.016383543610572815 -0.06481221318244934 0.153557687997818 -0.08743644505739212 -0.28079572319984436 -0.02256552316248417 -0.28650978207588196 0.06018170341849327 0.024558018893003464 -0.11320455372333527 0.17864477634429932 -0.019678618758916855 -0.03886309266090393 0.09522099792957306 0.08843553066253662 0.15057021379470825 -0.014896348118782043 0.003353269537910819 -0.1471886783838272 0.04868151620030403 -0.10936170816421509 0.13459894061088562 0.2354937046766281 
🇫🇷 0.011666744016110897 0.1632949262857437 -0.14945721626281738 -0.15871213376522064 -0.12021415680646896 -0.01564408652484417 0.05004587024450302 0.08040610700845718 -0.009023838676512241 -0.10008842498064041 0.24630475044250488 0.03825420141220093 -0.026308638975024223 -0.1576184183359146 -0.08750033378601074 -0.20655633509159088 -0.2004723697900772 -0.34483861923217773 0.062193501740694046 0.1552998572587967 -0.11694617569446564 -0.13787013292312622 -0.327274888753891 -0.018423572182655334 -0.04564419016242027 0.048258278518915176 -0.025594562292099 -0.19984735548496246 -0.16458314657211304 0.2982950210571289 -0.07677514851093292 -0.01897491328418255 0.007151914294809103 -0.08395910263061523 -0.1947147101163864 -0.16504324972629547 0.10057743638753891 0.012208305299282074 -0.2814747095108032 0.22119295597076416 0.19896917045116425 -0.07769716531038284 0.24093104898929596 -0.14950063824653625 0.030636833980679512 0.22157859802246094 -0.19881007075309753 0.08275885879993439 0.11891859024763107 0.0963062047958374 
👸🏼 0.10813821852207184 0.0003833207010757178 -0.024389198049902916 0.07742317765951157 0.029623694717884064 -0.038818683475255966 0.040988534688949585 0.12694324553012848 0.004976682830601931 -0.010318314656615257 -0.031597621738910675 0.17703381180763245 -0.08591384440660477 -0.07422459870576859 -0.020365970209240913 0.020184462890028954 -0.08971638977527618 0.09383735060691833 -0.13263626396656036 0.03462160378694534 0.17649748921394348 0.08961185067892075 0.15888063609600067 -0.055783141404390335 -0.04053294286131859 -0.026044605299830437 -0.13851839303970337 0.10832507908344269 0.028562378138303757 0.07930321991443634 -0.04894357547163963 -0.17855198681354523 0.06742049008607864 0.048377856612205505 0.1817362755537033 -0.02848445624113083 -0.04960326850414276 0.18236736953258514 0.09580758213996887 -0.11606637388467789 0.19454045593738556 0.04801980033516884 -0.10863588750362396 -0.1297813206911087 0.11583229154348373 0.06445704400539398 -0.05163971707224846 -0.05582397058606148 0.05866680666804314 0.12216705083847046 
😿 0.16328103840351105 -0.163491353392601 -0.15105992555618286 -0.15024501085281372 -0.08347636461257935 -0.0010162562830373645 0.33727723360061646 0.13920192420482635 -0.11919880658388138 0.043397966772317886 -0.22590528428554535 0.09397261589765549 0.1464400440454483 -0.13417385518550873 0.19110628962516785 0.1074790209531784 -0.1325538605451584 -0.07597416639328003 0.015141156502068043 0.15903685986995697 -0.26313912868499756 0.3973277509212494 0.058249399065971375 0.0707356259226799 0.3580949008464813 0.1540907621383667 -0.22365057468414307 -0.039856284856796265 -0.0664593055844307 0.006232247222214937 -0.29642021656036377 -0.04906576871871948 0.18138889968395233 0.07687564194202423 -0.2586333751678467 0.002728902269154787 0.2680213749408722 -0.26484614610671997 0.20183207094669342 -0.10217785835266113 -0.2597008943557739 0.07536996901035309 -0.23250626027584076 -0.02538001537322998 -0.07751835137605667 6.635078170802444e-05 0.13666515052318573 -0.11666907370090485 -0.07990259677171707 0.12377335131168365 
😲 -0.01128824520856142 -0.3744560182094574 0.01869560033082962 -0.0890815481543541 -0.036189235746860504 -0.16213761270046234 0.30331429839134216 0.6250416040420532 -0.11127419769763947 0.1642763316631317 -0.08004462718963623 -0.20364849269390106 -0.2657724618911743 -0.21437618136405945 0.34590280055999756 -0.23478825390338898 0.07129821926355362 -0.15683740377426147 -0.17862652242183685 -0.14091555774211884 -0.08777635544538498 0.19860997796058655 0.13246431946754456 0.09058033674955368 0.07064153254032135 0.022624341771006584 0.1469212770462036 -0.03182472288608551 -0.1466505080461502 0.23571301996707916 -0.22429747879505157 0.17506709694862366 0.36183249950408936 -0.18461214005947113 -0.09222190827131271 -0.07302072644233704 -0.023610565811395645 0.0420958586037159 0.07126589864492416 -0.12057211995124817 -0.14760525524616241 0.13982822000980377 0.1731533408164978 -0.18095223605632782 0.08504699170589447 0.07343262434005737 -0.12749233841896057 0.2469640076160431 0.10018379986286163 0.17971819639205933 
🇲🇰 0.04130608215928078 0.02312258444726467 0.051211558282375336 0.054482895880937576 0.021151497960090637 0.09944581240415573 0.03377151861786842 -0.04151308909058571 -0.17907221615314484 -0.10797660052776337 0.14254885911941528 -0.02118329517543316 0.05411139503121376 0.15253423154354095 0.00891721062362194 -0.12306158244609833 -0.06779492646455765 -0.09569288045167923 -0.050420451909303665 0.20249168574810028 -0.0230717696249485 -0.24590817093849182 -0.027441158890724182 0.07467878609895706 -0.047160591930150986 0.009567484259605408 0.1056247279047966 -0.18321320414543152 -0.10435599833726883 0.08897193521261215 -0.00015380272816400975 -0.11623336374759674 -0.23655179142951965 0.021942006424069405 0.07934528589248657 0.17574472725391388 0.03585067018866539 -0.047999851405620575 -0.2024843841791153 -0.02782825008034706 0.06920856237411499 -0.11289345473051071 0.07482671737670898 -0.03559986874461174 -0.15848973393440247 0.01321693230420351 -0.05533941462635994 0.08918313682079315 0.03742785006761551 -0.015351362526416779 
