1230 50
:card_index_dividers: 0.19883407652378082 -0.11272045969963074 -0.6906726360321045 0.6105875968933105 -0.10057799518108368 0.6044451594352722 -0.8221537470817566 -0.7981670498847961 0.33153271675109863 0.9130303263664246 -1.8495335578918457 0.5255256295204163 -0.3687986433506012 -1.1115299463272095 0.6177839636802673 0.2438582330942154 -0.24181708693504333 0.09852544963359833 1.0453369617462158 0.5971112251281738 0.7826273441314697 -0.724649965763092 -0.6019962430000305 -1.7373318672180176 1.1558256149291992 -0.06455209106206894 -1.0004082918167114 -0.028277669101953506 0.2847757637500763 -0.023180631920695305 -0.2911534607410431 0.4002196788787842 0.4478992521762848 -0.5761833786964417 -0.28522709012031555 -0.787983775138855 0.25276899337768555 0.5968675017356873 0.4058364927768707 0.04540758579969406 -0.33462104201316833 -0.16665105521678925 0.49100926518440247 -0.6494261622428894 -0.5234434604644775 0.10259093344211578 0.765587568283081 1.2339671850204468 0.5074144005775452 -0.66799771785736
:keycap_*: 0.7022764086723328 -0.43846532702445984 -0.5897513031959534 -1.2844961881637573 0.275587797164917 -1.2353326082229614 0.2541755437850952 -0.18349780142307281 -0.7099255323410034 0.41076716780662537 0.8608755469322205 -1.20340895652771 -0.07346659898757935 1.6912388801574707 -0.9535457491874695 -1.098278522491455 0.15170739591121674 -0.14993171393871307 -0.614452600479126 -0.31614017486572266 -0.47299784421920776 0.9190594553947449 -0.3167734444141388 1.0707364082336426 0.37877464294433594 0.4370116889476776 -1.1276910305023193 1.0798026323318481 -0.7507998943328857 -0.7468492388725281 -0.41982465982437134 -0.42540329694747925 1.1998531818389893 0.3136812448501587 -0.10025355219841003 0.046637993305921555 -0.4132934808731079 0.5071994662284851 0.8155894875526428 0.34977465867996216 0.12271171808242798 -0.16271305084228516 -1.9958114624023438 1.0398228168487549 0.09722042828798294 -0.27045631408691406 0.5225029587745667 1.2027207612991333 0.8576319813728333 0.089827574789524
:vulcan_salute_medium-dark_skin_tone: 0.24106235802173615 -0.3351569175720215 -0.07725109905004501 0.0022134240716695786 0.19041267037391663 0.17360517382621765 -0.45158150792121887 0.10524342954158783 0.2402278631925583 -0.036378566175699234 -0.30214428901672363 -0.25709691643714905 -0.41562631726264954 -0.24337200820446014 -0.28145158290863037 0.15886206924915314 -0.1376097947359085 0.2365744560956955 -0.15964169800281525 0.6136684417724609 0.6164788007736206 -0.10188227146863937 -0.01257241889834404 -0.27906978130340576 -0.5615643858909607 0.13774171471595764 0.15083743631839752 -0.2189311683177948 0.39560362696647644 0.3077991008758545 -0.2877889573574066 0.16058169305324554 -0.02729829028248787 -0.6133849024772644 0.2416856586933136 0.3579564094543457 -0.008946598507463932 -0.043979112058877945 -0.3904013931751251 0.25396469235420227 -0.022614451125264168 0.38939186930656433 0.44523555040359497 -0.43894386291503906 -0.10446455329656601 0.2890265882015228 0.16594356298446655 -0.5403898358345032 -0.3104022741317749 -0.275123417377471
:stop_button: 0.2949552834033966 -0.07911306619644165 -1.0096569061279297 0.6860970854759216 -0.4272964596748352 0.25324392318725586 1.0522652864456177 0.8416159749031067 1.1167311668395996 -1.7016397714614868 -0.512111485004425 -1.0116174221038818 -0.8554230332374573 -0.1368332803249359 0.23906904458999634 -1.4933054447174072 1.0868947505950928 -0.263986736536026 -1.1430976390838623 -0.29096049070358276 0.22119520604610443 -0.3772718906402588 -0.44019660353660583 0.6486136317253113 -0.36904242634773254 -0.21632780134677887 0.6858807802200317 -0.5785943865776062 0.020553864538669586 0.11474129557609558 0.3152672350406647 0.1941225230693817 -0.05455533787608147 -0.34740719199180603 -1.1534079313278198 -0.385417103767395 -0.005292561836540699 0.34269586205482483 0.2753070294857025 -0.17134438455104828 0.17581020295619965 0.4567267596721649 -0.005283867008984089 0.13057182729244232 0.5579555034637451 0.05863878130912781 0.04259653389453888 -0.24331487715244293 0.44346883893013 0.0697758048772811
:record_button: -0.23968464136123657 -0.17248526215553284 -0.36740151047706604 0.5667613744735718 -0.8209303617477417 1.1535186767578125 0.6928418278694153 0.05017554387450218 0.2573275864124298 -0.9164338111877441 -0.05456475540995598 -0.5908119678497314 -1.0130281448364258 -0.2513086199760437 0.050152454525232315 -0.9350829720497131 1.2751883268356323 -0.968731701374054 -0.4291563332080841 0.24600113928318024 1.0834630727767944 -0.47307929396629333 -0.7806730270385742 -0.7111285328865051 -1.0209592580795288 0.3047795593738556 1.0284610986709595 -0.7878395915031433 -0.70033198595047 1.154052495956421 -0.585278332233429 -0.01677701622247696 0.18065515160560608 0.6222568154335022 -0.5797228217124939 -0.029988078400492668 -0.25568684935569763 0.18552930653095245 0.6663779020309448 -0.03288266807794571 -0.9055554866790771 0.881026566028595 -1.0784140825271606 -0.08845458924770355 -0.8802932500839233 -0.5300296545028687 -0.2811658978462219 0.08550889790058136 -0.5756715536117554 -0.4493969082832336
:film_projector: 0.9126534461975098 1.234454870223999 0.9510798454284668 -0.14008912444114685 -2.0297813415527344 1.0422697067260742 0.28107336163520813 -1.4704523086547852 1.1803345680236816 1.138716220855713 -0.1413203924894333 -1.318232774734497 -1.841417670249939 1.3700164556503296 0.6682091355323792 0.46601781249046326 -0.1766773909330368 -0.5598085522651672 -1.9286813735961914 -0.5566344857215881 2.143749713897705 2.967046022415161 0.28904834389686584 -0.5767749547958374 -0.5019899606704712 1.828879475593567 1.6688706874847412 -0.23696894943714142 0.09141220152378082 0.3231751024723053 -0.9897578954696655 0.22590894997119904 -1.0925852060317993 -2.4703762531280518 -0.022464588284492493 0.6018474102020264 2.534815788269043 -1.0661991834640503 -1.3137377500534058 -1.168751835823059 1.1853384971618652 -0.14781618118286133 -1.3213173151016235 0.9388812184333801 -0.4793594479560852 -2.613062620162964 -1.312082052230835 0.3120043873786926 -0.2507135272026062 -0.785107135772705
:orthodox_cross: 0.5706936120986938 -0.5932789444923401 0.2396819293498993 0.1616642326116562 0.08647268265485764 0.12245813012123108 0.15523730218410492 0.3120013177394867 -0.8228864669799805 -0.2282644510269165 0.7956405878067017 0.14215116202831268 -0.561026394367218 0.35057422518730164 -0.6860477328300476 -0.13228534162044525 0.258857786655426 1.0717049837112427 -0.18459811806678772 -0.9527985453605652 -1.1529126167297363 -0.04777628928422928 -0.11166929453611374 0.2784188389778137 -0.26016440987586975 0.23958884179592133 0.40259256958961487 0.43890318274497986 0.04277612268924713 0.09608188271522522 0.6973848938941956 -0.9139964580535889 -0.06028762459754944 -1.2931009531021118 0.19266735017299652 1.292822003364563 0.8596318960189819 0.02917235530912876 -0.19239553809165955 0.6272144913673401 0.764815628528595 -0.9469478726387024 0.2871397137641907 -0.06493344902992249 -0.2385060042142868 -0.08787322789430618 -0.7112640738487244 0.4159872233867645 -0.7457735538482666 1.00782835483551
:spider: 0.9791226387023926 -2.0194296836853027 0.7522476315498352 0.07545002549886703 0.15590670704841614 1.654400110244751 1.3148188591003418 -1.3538864850997925 0.6253743171691895 -0.3406004011631012 -0.48898845911026 -0.05378981679677963 -0.8290464282035828 -0.20984616875648499 1.4560540914535522 -0.3373916447162628 0.3035616874694824 -1.7533633708953857 -0.2079242616891861 0.4269043505191803 -0.474623441696167 0.6966995000839233 0.8551428318023682 0.2553851902484894 0.5108600854873657 0.35742512345314026 0.7678508162498474 -1.4615769386291504 0.698469877243042 -1.18674898147583 -0.20064537227153778 0.14900541305541992 -1.608239769935608 0.5008322596549988 -0.44163426756858826 -0.8733806014060974 -1.4354147911071777 -1.694887638092041 0.5031779408454895 0.3849658668041229 -1.3585493564605713 2.5299594402313232 0.893643319606781 -0.21561579406261444 -0.37140655517578125 0.2838834822177887 0.6657890677452087 -1.3115195035934448 -1.009536623954773 0.67379891872406
:passenger_ship: 0.9832131266593933 -0.17115508019924164 -0.10526113957166672 -1.2345755100250244 -0.3386528491973877 -0.7870053648948669 -0.7681612372398376 0.7419965267181396 1.427999496459961 0.7447799444198608 -0.25991952419281006 -0.8501875400543213 0.8148407340049744 0.30149391293525696 -0.39617154002189636 -0.06180845573544502 1.2943545579910278 0.3610522747039795 0.3492134213447571 0.9024783372879028 -1.225530982017517 -0.6540217995643616 -1.9135994911193848 1.2863951921463013 0.3364957869052887 -0.33658334612846375 2.0989980697631836 0.6757326126098633 0.4127236306667328 1.3974961042404175 -0.1366262584924698 -1.1288964748382568 1.7734386920928955 1.4099972248077393 0.46497493982315063 -1.4848982095718384 -0.9553027749061584 1.2104696035385132 -1.2217066287994385 -1.4154449701309204 0.9881936311721802 1.2675817012786865 0.873307466506958 -0.3642169237136841 -1.8140007257461548 0.7185048460960388 -0.8245065212249756 0.616390585899353 0.3386874496936798 -0.546577930450439
:scorpion: -0.42267483472824097 -0.09015391021966934 0.45936131477355957 0.11829843372106552 -0.006754586938768625 0.36542320251464844 0.2052067667245865 0.01999731920659542 0.0942588523030281 -0.140342578291893 0.2820982038974762 0.07140979170799255 0.0018056663684546947 -0.6778682470321655 -0.06777188926935196 0.4318404197692871 -0.13998498022556305 1.1663432121276855 -0.47673362493515015 0.4717041552066803 0.0283859521150589 0.1166498139500618 0.10101912915706635 0.3364451825618744 -0.40669381618499756 -0.506339967250824 -0.2472313642501831 -0.285805344581604 -0.16590793430805206 0.507631778717041 -0.3512839078903198 -0.7083380818367004 -0.6188837885856628 0.21510562300682068 0.053827229887247086 -0.4797636866569519 0.5656760334968567 -0.08441721647977829 0.22254596650600433 0.4420609176158905 -0.6922853589057922 0.29657185077667236 -0.06170203909277916 -0.10444207489490509 -0.39769259095191956 0.8643110990524292 -0.1675678789615631 0.7147799730300903 0.09944917261600494 0.2884989976882934
:ferry: 0.6212470531463623 -0.5221872925758362 2.02262806892395 -0.7360054850578308 -0.44791415333747864 -1.70304274559021 1.2493104934692383 0.4839251935482025 -0.1307324469089508 -0.406093031167984 -0.14138279855251312 0.4761592745780945 -2.0484673976898193 -0.24513033032417297 -1.4949129819869995 1.4540904760360718 -0.12361855804920197 0.4721202254295349 -1.015803575515747 0.056409191340208054 0.2405431568622589 -0.3467332720756531 -0.8350318670272827 -0.9252097010612488 -0.3898029327392578 -1.2605630159378052 1.3197646141052246 -1.2105523347854614 -1.1189388036727905 1.270092487335205 -1.6949020624160767 0.4925590753555298 0.04255308210849762 0.99234938621521 -1.4000189304351807 -1.719872236251831 -1.6384940147399902 0.9833197593688965 1.4733268022537231 0.5384312868118286 1.5080132484436035 -0.5111087560653687 1.638922929763794 -2.1348583698272705 0.3940832316875458 0.3055254817008972 0.3966783881187439 0.1328931450843811 -0.996570885181427 -0.417852789163589
:ice_skate: -0.4140075147151947 0.6969215869903564 -0.16605305671691895 0.6866615414619446 -0.17747586965560913 0.018896615132689476 0.8373732566833496 0.05946218594908714 -0.5240507125854492 -0.4529598355293274 1.553501009941101 0.23491084575653076 0.6862249970436096 -0.39452216029167175 0.24277442693710327 -0.05231732875108719 -0.9576826691627502 -0.7434161901473999 -0.8184492588043213 -1.3264418840408325 0.157500222325325 0.6309080719947815 2.04384183883667 -0.25038865208625793 -1.1523934602737427 0.9944551587104797 -0.9899942278862 -1.1201270818710327 -1.629603385925293 -2.5957934856414795 -0.41830435395240784 1.6974233388900757 -0.8157431483268738 0.6322116851806641 -1.241958498954773 0.9069010615348816 -1.277259349822998 0.7264137864112854 0.09670337289571762 -0.09206835180521011 -0.38999876379966736 -0.24392645061016083 1.034175992012024 0.19173920154571533 -0.9302096366882324 -0.3731040954589844 1.0369004011154175 -0.9044920206069946 -0.9360262155532837 -0.807417333126068
:takeout_box: -0.17866337299346924 -1.7015734910964966 0.3966263234615326 0.34768155217170715 0.4500387907028198 -0.0984840914607048 0.8717265725135803 -0.13566534221172333 0.6779547929763794 -0.8555198907852173 0.0187087282538414 -1.5866296291351318 -0.3169531226158142 -0.2332671582698822 -1.003587245941162 -1.8019999265670776 -0.3734737038612366 -0.1981562227010727 -0.32104161381721497 0.5489888787269592 0.3793394863605499 0.07536517083644867 -0.28033387660980225 -0.11719807982444763 0.18773187696933746 -0.33966493606567383 -0.3484512269496918 -1.4116276502609253 -0.12298895418643951 -0.8740614056587219 0.28724801540374756 1.556675672531128 -0.398247092962265 -0.06885309517383575 -0.12127184122800827 0.24515026807785034 -1.176413655281067 0.11242971569299698 0.5586703419685364 0.6820122003555298 0.12281258404254913 0.41231659054756165 0.3213489353656769 -0.702728271484375 -0.6570295691490173 -0.3581564426422119 0.8858768343925476 -1.035447597503662 1.4585301876068115 0.834015786647796
:ping_pong: 0.14547120034694672 0.11968804150819778 -0.2589731514453888 0.8011155128479004 -0.43061065673828125 -0.538881242275238 0.019888699054718018 -1.0353660583496094 -0.016506658867001534 -0.8766615986824036 -0.12882758677005768 -0.035959694534540176 -0.5158644914627075 -0.613319993019104 -0.32288092374801636 -0.7707573175430298 -0.05896985903382301 -0.7430426478385925 0.8084502816200256 0.29409274458885193 0.06921624392271042 0.3685346841812134 -1.4025757312774658 0.0059893252328038216 -0.8634983897209167 -0.042296092957258224 -0.9851270318031311 -0.8569456338882446 -0.3570490777492523 -0.2428637593984604 0.18676523864269257 2.326079845428467 0.3771732747554779 -1.0213027000427246 0.3870818614959717 0.7395273447036743 -0.9488556385040283 0.3053092956542969 -1.0216197967529297 0.09265666455030441 0.5012272000312805 -0.47850778698921204 0.37723079323768616 1.2152386903762817 1.193427562713623 -0.3559805750846863 -0.893281877040863 2.1775667667388916 0.529297411441803 -0.34466403722763
:wilted_flower: -0.9180404543876648 -0.21191371977329254 -0.28523939847946167 -1.5999126434326172 0.8342416286468506 1.602871298789978 -0.3416832387447357 1.2979127168655396 -0.024055957794189453 -1.0082995891571045 1.510275959968567 1.3389003276824951 1.931126594543457 0.5522554516792297 0.559531569480896 -0.0600145198404789 1.152862548828125 0.6321678161621094 0.08147972077131271 1.3354727029800415 -3.3331689834594727 -1.5598715543746948 0.24201345443725586 -1.5221415758132935 -0.5838157534599304 0.2169523686170578 -0.09989525377750397 -1.4080623388290405 -0.04582935571670532 -0.07988060265779495 -1.4503726959228516 -0.6283913850784302 -0.38797909021377563 2.2775468826293945 0.7969467639923096 0.2020634412765503 0.049319375306367874 -1.7125221490859985 0.6138013601303101 1.4707893133163452 -1.3945447206497192 -1.2014223337173462 -0.6029770970344543 -2.2291297912597656 0.09301494061946869 -1.3251831531524658 -0.944034993648529 -0.38013431429862976 2.0220985412597656 -1.125924468040466
:motorcycle: 1.5966074466705322 -1.4799988269805908 0.09442461282014847 -0.5821710824966431 0.7906498908996582 1.6930108070373535 0.4346087872982025 -0.2892328202724457 0.6261360049247742 -0.505382776260376 0.7937427759170532 -1.296791672706604 -1.0822235345840454 0.22089996933937073 -0.4223933219909668 -0.14149843156337738 0.015930142253637314 1.3459901809692383 -0.35519373416900635 -0.04914388805627823 -0.022830722853541374 0.0441242940723896 -1.8069322109222412 -0.07119456678628922 0.3777235448360443 1.2880220413208008 0.14710643887519836 -1.295013666152954 -0.48370420932769775 -0.21865203976631165 0.39125457406044006 0.30298319458961487 1.179924726486206 -0.6516091227531433 -0.27686673402786255 0.007701196242123842 0.26743394136428833 -0.5643571019172668 1.1294279098510742 0.5642804503440857 -1.1505215167999268 2.631301164627075 2.143320083618164 -0.952277660369873 -1.1613109111785889 0.6999905109405518 -0.44653281569480896 -1.4040969610214233 2.428201675415039 0.2056706100702285
:eject_button: -0.6242984533309937 -2.089165687561035 0.3477959930896759 -0.2238290011882782 -0.09787993133068085 -0.4954855740070343 -0.1853359490633011 0.9352361559867859 -0.6015560626983643 -0.8047675490379333 0.8880876302719116 -0.4924495816230774 -0.011548084206879139 -0.09259272366762161 -0.7094696760177612 -0.4175407290458679 -0.8773294687271118 -0.5534795522689819 -1.546838641166687 -0.714240550994873 -0.25294676423072815 0.41872701048851013 0.9220694899559021 0.421813040971756 -0.2846585512161255 1.4208500385284424 0.3618079721927643 -0.009331201203167439 0.5361551642417908 -0.0340069942176342 -1.0953706502914429 -0.9456032514572144 -0.04449451342225075 -0.5321862697601318 0.8427059650421143 -0.4876455068588257 0.04714192822575569 0.2104528695344925 -0.9817476868629456 -0.24244935810565948 -0.8650461435317993 -1.2651045322418213 0.22177718579769135 0.598372220993042 1.1549164056777954 0.6925504803657532 -1.775951862335205 -0.4496813118457794 -0.1746588498353958 -1.463562846183776
:camping: 1.8488975763320923 2.0563223361968994 1.4364120960235596 1.018704891204834 0.41452834010124207 -0.4223030209541321 0.8503183722496033 0.6940969824790955 2.411879301071167 -1.459137201309204 -0.8112683296203613 1.060215711593628 -0.47814032435417175 -0.17114606499671936 0.13671880960464478 0.1650342494249344 -1.069742202758789 1.0454204082489014 -1.055553674697876 2.8333258628845215 -0.009981760755181313 0.4936027526855469 1.3144506216049194 0.3620099425315857 -1.0879895687103271 2.1021385192871094 -0.7656688094139099 0.7593291997909546 -0.515522301197052 1.733235478401184 -0.2688198387622833 -1.3112400770187378 -1.5331782102584839 0.8236448168754578 0.8788337111473083 0.8139270544052124 -0.7667930126190186 -0.011392448097467422 -0.7761672139167786 -0.6963691115379333 1.0945039987564087 -0.7078638672828674 0.8473371863365173 0.01150314137339592 -0.7284208536148071 0.516669511795044 -0.3229405879974365 -0.8420448303222656 -1.2575021982192993 -2.76767945289611
:shinto_shrine: 0.6488255858421326 -1.742658257484436 0.9674776792526245 0.8078486323356628 -0.9999913573265076 0.8286105394363403 0.868804931640625 -1.5265157222747803 -1.142268180847168 0.5858755707740784 0.38213253021240234 2.1585049629211426 -1.211129903793335 -0.08784454315900803 -0.19095414876937866 -0.20870515704154968 0.7956762313842773 -1.389357089996338 0.23831787705421448 -0.778261661529541 1.331703543663025 -1.221624493598938 -0.08702649921178818 -0.3730856776237488 0.7124334573745728 0.7084411978721619 -0.7291692495346069 -0.7547670602798462 1.6607320308685303 0.7987527251243591 0.08012144267559052 0.6251861453056335 0.9069089293479919 -1.2274856567382812 -1.455713152885437 0.8571829199790955 -1.7004417181015015 -0.05667677894234657 -1.357711672782898 0.1180102676153183 0.12045106291770935 -0.05068226903676987 0.9847152233123779 0.7543042302131653 0.4708317816257477 -0.8834887146949768 -1.2218527793884277 -1.2552708387374878 -0.48324674367904663 -0.695579349994659
:shark: 0.5885099172592163 -0.059896618127822876 -0.8296487927436829 0.2422630786895752 -0.7751970291137695 0.2982061803340912 0.32595860958099365 -0.783932089805603 0.6356583833694458 -0.7885281443595886 0.5698232650756836 0.316633015871048 1.22648286819458 0.38361743092536926 -0.17998765408992767 -0.05636386573314667 0.004140446428209543 -1.0712931156158447 -1.040399193763733 -0.2527828812599182 0.05445342883467674 -0.6257805824279785 -0.16688385605812073 -0.8510258793830872 -0.21185532212257385 -0.47482535243034363 -0.309614360332489 0.30462777614593506 -0.08971253782510757 -0.3535236120223999 -1.311946988105774 0.45829740166664124 0.8958851099014282 -0.05489111691713333 -0.9927279353141785 1.1719236373901367 0.7291724681854248 0.1278608739376068 -0.30781883001327515 -0.1520564705133438 -0.6250749826431274 -0.7188190817832947 0.6802564263343811 0.1571490466594696 0.06624971330165863 -0.7278314828872681 0.8230338096618652 0.12304304540157318 0.9530287384986877 -1.391282677650451
:bat: -0.5798963904380798 -0.6159425973892212 -1.021059513092041 1.5810075998306274 0.21120572090148926 -0.5519832968711853 0.0762966051697731 1.1524211168289185 -1.5587490797042847 -1.0840325355529785 0.40162965655326843 0.8910839557647705 2.4790613651275635 1.9732719659805298 -1.9498409032821655 1.2372349500656128 -1.0370978116989136 -1.5096358060836792 0.3049820065498352 -2.154892921447754 -0.6113966107368469 0.0010417025769129395 0.964806854724884 -1.8982499837875366 0.7908645272254944 -1.5655022859573364 1.216351866722107 -0.6794977784156799 -2.4524545669555664 -0.2572108209133148 -0.28459054231643677 -0.34362587332725525 1.0960750579833984 1.049952745437622 0.506538987159729 1.041502833366394 0.0368279404938221 -0.5253363251686096 -0.5736576318740845 1.0698530673980713 -0.7361699938774109 1.2947121858596802 -0.4280942678451538 -2.8934366703033447 0.5793222188949585 -1.057951807975769 2.632004976272583 0.8189356327056885 1.331954836845398 1.368369936943054
:clamp: 0.8830692768096924 0.412190705537796 0.7518298625946045 0.22363419830799103 1.0080904960632324 -1.0667723417282104 0.46940818428993225 0.41525328159332275 1.5443620681762695 1.0568140745162964 -0.47434261441230774 -0.3226695954799652 0.006666610948741436 -0.5978097915649414 -0.33300507068634033 0.4813265800476074 -0.01545578334480524 0.09446051716804504 0.6202069520950317 0.0030862526036798954 0.5293752551078796 -0.7261541485786438 0.24625708162784576 -0.5858409404754639 -1.5512722730636597 -0.3893454074859619 1.3171236515045166 -0.16552700102329254 0.9722733497619629 1.0020264387130737 -0.22732192277908325 -0.10990675538778305 -0.873592734336853 -0.87785804271698 1.6438592672348022 0.9496549367904663 1.3264915943145752 0.5059483051300049 -0.17733176052570343 0.4004707336425781 -0.5295155644416809 0.11183027178049088 0.6050938963890076 0.7460142970085144 -0.30040988326072693 -0.07721226662397385 -0.45565205812454224 -0.21850627660751343 -0.05142052099108696 -1.24589455127716
:biohazard: -0.20336541533470154 0.4820748269557953 -0.21827977895736694 0.7385315299034119 -0.7312444448471069 -1.2401351928710938 0.8438490629196167 -0.8171103000640869 1.2936441898345947 -0.40982693433761597 1.6967504024505615 0.3307308852672577 -0.8808631896972656 -1.0888230800628662 -0.7543116211891174 0.49744299054145813 -0.37164822220802307 0.8032770156860352 -0.8414208292961121 -0.48577621579170227 -1.9332972764968872 0.8620744943618774 -2.6448445320129395 -0.3271726667881012 -0.597809374332428 0.8823454976081848 -0.1584397256374359 1.211371660232544 2.054163694381714 1.9087883234024048 0.6605917811393738 -2.811128854751587 -0.5868515968322754 -0.9620324373245239 0.21827943623065948 -1.887946367263794 0.2146366387605667 -0.19643907248973846 -0.26045504212379456 0.4534650444984436 1.0347411632537842 -1.456822395324707 -1.0475438833236694 -1.4386463165283203 2.100025177001953 0.44272303581237793 0.29688090085983276 0.850841760635376 -0.7921716570854187 1.59898281097412
:wheel_of_dharma: -0.3691428303718567 -1.246464729309082 0.69903564453125 1.6341643333435059 0.6406386494636536 0.17762614786624908 -0.9342252612113953 0.47980794310569763 1.6597727537155151 0.13488951325416565 -1.0094584226608276 -0.0744839608669281 -0.8507142066955566 0.5717253684997559 -0.001671909587457776 0.5536874532699585 1.7571015357971191 1.9367011785507202 -1.410359501838684 -0.5012839436531067 0.08919154107570648 -1.052807331085205 0.021060414612293243 -0.6246740221977234 0.27577224373817444 -0.4987003803253174 1.2890218496322632 1.1304874420166016 -0.41621890664100647 0.010731399990618229 0.024664031341671944 0.35277602076530457 0.23463420569896698 -0.6295356154441833 -1.3604968786239624 0.9590447545051575 1.116603970527649 -0.7756662964820862 -1.3914076089859009 -1.1952662467956543 -0.3708775043487549 -0.5842829942703247 -1.2691655158996582 -0.05784255638718605 -0.39496952295303345 -0.9555842876434326 1.461330533027649 -0.45766934752464294 0.8880126476287842 -0.2574100494384765
:oil_drum: 1.0883276462554932 -0.9147648215293884 -0.0018771428149193525 -0.328072726726532 0.23223528265953064 -0.8799251317977905 -1.8211692571640015 1.9406324625015259 0.4394312798976898 2.0919127464294434 1.1962919235229492 1.5602174997329712 -0.8685502409934998 1.2855145931243896 -1.419439435005188 -1.5184532403945923 0.918474555015564 2.008279800415039 2.4181950092315674 -1.9429059028625488 -0.511505663394928 -1.1274455785751343 -1.305918574333191 -0.01993156410753727 -2.0788798332214355 0.400628924369812 -1.1370147466659546 0.21560350060462952 1.175140619277954 -0.8848517537117004 -0.6149353384971619 -0.23215551674365997 0.23837493360042572 -1.1175217628479004 1.2844456434249878 1.708082675933838 1.171999216079712 0.1393761783838272 1.6268293857574463 1.3947619199752808 0.9689774513244629 -0.5671101212501526 1.6836118698120117 -0.8241828680038452 2.3836913108825684 -0.9019073843955994 0.4846079349517822 -0.26818299293518066 -3.081717014312744 -0.86614191532135
:person_golfing: -0.2804279625415802 2.4801065921783447 1.4182770252227783 -0.0713845044374466 -1.9634544849395752 0.23140211403369904 0.7864852547645569 1.5647245645523071 0.040401265025138855 1.3839595317840576 -0.6455612182617188 0.3351384699344635 0.8225401639938354 -0.19078144431114197 0.6356415152549744 0.841023325920105 -1.9875394105911255 1.375482201576233 -0.6021187901496887 -0.5639064908027649 -0.2599571943283081 3.205841064453125 -0.9980424046516418 0.061607010662555695 2.426348924636841 0.4387579560279846 1.9620195627212524 -0.4041828513145447 0.6447673439979553 0.034029461443424225 -0.5884873270988464 -1.0929160118103027 0.12798945605754852 0.44685840606689453 1.9449080228805542 -0.6942459940910339 -1.4027308225631714 0.04250304400920868 2.7422597408294678 -1.8203990459442139 0.6984443664550781 0.2211340218782425 -0.837708055973053 1.2573096752166748 0.7989638447761536 -0.13767109811306 -0.8143175840377808 -1.5860702991485596 -2.280277967453003 -0.636466741561889
:rhinoceros: 0.047621410340070724 -1.4392868280410767 -0.008047433570027351 -0.0468766875565052 0.16885286569595337 -0.6089479327201843 -0.7021015286445618 -1.7625935077667236 0.9052949547767639 1.812170386314392 -2.259408473968506 -0.5287493467330933 0.9986347556114197 -0.06811504811048508 1.3421778678894043 -1.740164041519165 0.44565796852111816 0.6129358410835266 -0.43437355756759644 0.5988916158676147 -0.11384312808513641 0.4321270287036896 -1.1910334825515747 0.41785499453544617 -0.18256759643554688 -0.11192644387483597 0.8715412020683289 2.1024484634399414 -0.1636592447757721 1.4678994417190552 -0.008360687643289566 -1.9810035228729248 -0.08106871694326401 -0.23802590370178223 -0.46428972482681274 0.2385995239019394 0.05987055227160454 -0.7979453206062317 -0.35493940114974976 1.7796050310134888 1.3832050561904907 1.7821128368377686 -0.7669657468795776 0.6579424142837524 0.40709570050239563 0.883585512638092 -0.3236370384693146 1.5142143964767456 0.9808709025382996 -0.860142827033996
:file_cabinet: -1.0438108444213867 1.2469767332077026 -1.2868318557739258 0.20852132141590118 -0.9354126453399658 -0.9914951324462891 0.7711144685745239 -0.9422596096992493 -0.8758363723754883 0.91532301902771 -0.05038745328783989 -0.5635592341423035 0.22868721187114716 -0.48228204250335693 1.2424768209457397 -0.8126373887062073 0.03749293461441994 0.7825766801834106 0.8617671728134155 0.12607558071613312 0.29826220870018005 -0.8472258448600769 -0.35323429107666016 1.2245970964431763 -1.4794315099716187 0.01337389275431633 0.5763227939605713 0.25162404775619507 -1.3935563564300537 1.0139570236206055 -0.796420156955719 -0.711219310760498 -0.22896674275398254 -0.34973281621932983 -0.6520655751228333 -0.6012301445007324 -0.9468235969543457 -1.5581973791122437 -0.2075013816356659 -1.4905412197113037 1.4782674312591553 -0.21942859888076782 0.6423937082290649 0.5356882214546204 -0.49926266074180603 1.096611499786377 0.11527425050735474 -0.7267085909843445 -0.2585459053516388 -1.155922174453735
:printer: -0.5581246018409729 0.9394004940986633 -0.18764309585094452 0.442866712808609 1.2890595197677612 0.48385632038116455 0.08140086382627487 0.6916885375976562 -0.3516954779624939 -0.5829838514328003 -0.02400357462465763 0.09304451942443848 -0.10598519444465637 1.374224305152893 -0.7177226543426514 -2.505314350128174 0.21968868374824524 -0.9401935935020447 0.26401177048683167 -0.39903724193573 1.0854051113128662 0.08852164447307587 -0.15772265195846558 -1.0161821842193604 0.4583451449871063 1.8068064451217651 0.010118718259036541 -0.5353708267211914 1.6791054010391235 1.2518764734268188 -0.1888546198606491 -0.19708134233951569 -1.0035046339035034 0.21070747077465057 -0.569945216178894 0.43786197900772095 0.7587338089942932 1.566072940826416 -0.4988885223865509 0.11631616204977036 1.0202064514160156 1.1681214570999146 -0.640547513961792 1.5294023752212524 0.8059377670288086 -1.0045892000198364 0.1559513509273529 -0.07026219367980957 -0.4566427767276764 -0.54270470142364
:waning_gibbous_moon: -0.9368528127670288 0.5800617337226868 -0.45432546734809875 0.24882376194000244 -1.9150136709213257 -0.11691457033157349 -1.212681770324707 -1.482187271118164 -0.7844323515892029 0.22437846660614014 1.297655463218689 -1.4188165664672852 0.2194489985704422 3.397059202194214 2.7146620750427246 -0.7276815176010132 -0.33270737528800964 0.319182813167572 0.1325514167547226 1.1235734224319458 1.502967357635498 0.9713473916053772 0.12976570427417755 1.8445487022399902 0.9871950745582581 -0.3208279013633728 -1.0237334966659546 0.1241014376282692 1.428267478942871 -0.6615152359008789 -0.37968409061431885 -0.6064460873603821 2.0181829929351807 0.3521270751953125 -1.5089750289916992 0.40887096524238586 1.166546106338501 1.6022367477416992 -0.3357034921646118 -0.18116922676563263 0.4373101592063904 0.6484903693199158 -0.27576515078544617 0.029472729191184044 -0.515379011631012 -0.4561586380004883 -0.5986756682395935 -0.24563267827033997 -0.9318036437034607 1.523224353790283
:tennis: -1.708025574684143 1.6386553049087524 0.6307286620140076 1.8075872659683228 -0.9143730401992798 0.5674275755882263 -0.6762506365776062 0.4794023931026459 0.8577085137367249 0.7520202994346619 0.2706848382949829 0.8507387638092041 -0.805624783039093 -0.14574675261974335 -0.289770245552063 -0.8829911947250366 -0.2649664282798767 0.6443461775779724 -0.6499083638191223 -0.9847639203071594 -1.2377208471298218 -0.969219982624054 -0.07787571102380753 0.26927459239959717 -0.9689462780952454 -0.04636123403906822 -0.6465345621109009 -0.6487758755683899 -2.1716902256011963 -2.261127471923828 -0.5976682901382446 0.40779274702072144 -0.6947554349899292 0.1435498744249344 1.690685749053955 2.3931875228881836 -0.1289568394422531 1.2091033458709717 0.9898691177368164 0.43859943747520447 -0.07109974324703217 1.3595991134643555 0.7354844808578491 0.5998520851135254 -0.6431095600128174 2.113492727279663 -0.4292623996734619 -0.5030114650726318 -0.9844393730163574 0.3156039416790008
:horse_racing_medium_skin_tone: 0.2539065480232239 -0.33889326453208923 1.020742654800415 0.45313939452171326 1.1888004541397095 1.13833487033844 0.8707020878791809 -0.003076657187193632 -1.5354195833206177 1.7933858633041382 -0.03219639137387276 1.0284976959228516 2.3404958248138428 0.1146513894200325 1.276661992073059 0.8979505896568298 0.2519073784351349 0.03828129917383194 0.5151496529579163 0.162924125790596 0.29838505387306213 0.20770519971847534 1.4014266729354858 -0.9579175710678101 -0.9736133813858032 -0.561802327632904 -0.16051404178142548 0.598505973815918 -0.6523235440254211 -1.4723986387252808 0.3520869314670563 1.318237543106079 -0.10616080462932587 -0.38467279076576233 -0.706758439540863 -0.3278962969779968 0.27441224455833435 0.5706479549407959 -0.5129889845848083 0.07065713405609131 -0.6324213147163391 0.9007936120033264 0.028408123180270195 -0.0017158245900645852 0.8926567435264587 0.15424825251102448 0.18527421355247498 0.453471302986145 -1.2407993078231812 0.356850743293762
:person_wearing_turban_medium_skin_tone: -0.7856700420379639 0.5844576954841614 -0.12292495369911194 -0.978831946849823 -0.40226590633392334 -0.9434449076652527 -1.4815647602081299 0.7193540334701538 0.06312082707881927 -1.602785587310791 -0.5758991241455078 -1.4480652809143066 0.9601439237594604 0.8227322697639465 -1.073748230934143 0.1401369273662567 -0.6417133808135986 0.39935341477394104 -0.5883243680000305 0.13484123349189758 -0.6050912141799927 0.5849093794822693 0.7710039615631104 0.26280444860458374 0.6312769651412964 0.7016867995262146 0.6018149256706238 -1.1500365734100342 -0.6531439423561096 -1.9470809698104858 0.16843181848526 0.06781265884637833 1.219225287437439 1.993789792060852 -0.06640426069498062 2.1199002265930176 -1.328979730606079 -0.6450390219688416 0.19950194656848907 -1.142796277999878 0.26266491413116455 0.8164657950401306 0.2487270087003708 0.4129287302494049 1.1141846179962158 0.5884155631065369 0.46862292289733887 -0.05284778028726578 0.523138701915741 -1.122536420822143
:backhand_index_pointing_up_medium_skin_tone: -0.9056710600852966 2.216843605041504 0.126248300075531 -0.31528493762016296 1.3785709142684937 -0.19392628967761993 -0.8722326755523682 -0.07060539722442627 -0.3581364154815674 -0.2744136452674866 1.3861021995544434 -1.7103694677352905 0.8841087222099304 1.6721651554107666 -1.0917620658874512 -1.2110202312469482 0.4785956144332886 0.6093488931655884 -1.176734209060669 0.5646633505821228 -1.0614070892333984 0.6849964261054993 0.5741297006607056 0.20709335803985596 0.4705321490764618 -0.3356372117996216 -0.601879894733429 0.9684330821037292 0.9697524309158325 0.516090989112854 -0.8880723118782043 1.2280864715576172 -0.22224771976470947 0.7907832264900208 -0.6378300786018372 -0.6088320016860962 0.9232780933380127 -1.2273575067520142 -0.866141676902771 -0.26786261796951294 -0.030636142939329147 -0.49078214168548584 0.4246448576450348 -0.519726574420929 0.8334393501281738 1.1774345636367798 0.606665313243866 -0.8931679725646973 -0.1518935263156891 -0.741137087345123
:person_running_medium-light_skin_tone: -0.4293581247329712 -0.11267908662557602 0.4818020164966583 0.464641273021698 0.1165425255894661 0.3848373293876648 0.6742686033248901 0.33231839537620544 1.2135244607925415 -0.31143710017204285 -1.6165000200271606 1.9056907892227173 -0.23433975875377655 -0.5009932518005371 -0.514475405216217 -1.5772194862365723 0.9377443194389343 1.041882038116455 1.2941745519638062 -3.3270204067230225 -0.7165125012397766 -1.0568135976791382 -0.5506377220153809 -0.5597009658813477 0.48744869232177734 -0.4456866383552551 0.28600800037384033 1.2952332496643066 0.4057953953742981 -0.4484323561191559 -1.9575804471969604 -0.32507407665252686 -0.3190425634384155 0.27366340160369873 0.5785568356513977 1.0734208822250366 0.2292127162218094 -0.17013481259346008 1.218810796737671 0.32360073924064636 -0.5287991762161255 1.3861383199691772 -0.13859298825263977 -0.8913899064064026 -0.17101901769638062 1.7592843770980835 0.21746031939983368 -1.6387375593185425 0.045619286596775055 0.3830974102020263
:person_swimming_dark_skin_tone: -0.13666823506355286 0.16655296087265015 1.2110382318496704 0.004471217282116413 0.3515342175960541 -1.045836329460144 -0.10390958189964294 -1.4875611066818237 0.1077626645565033 0.06986897438764572 1.0431944131851196 -0.07145977765321732 -0.878268837928772 1.1620289087295532 1.4348584413528442 0.1679881513118744 0.7551511526107788 -0.4636256694793701 0.54998379945755 -0.20470920205116272 -0.6515225172042847 -0.5766276717185974 0.9846576452255249 -0.2393471598625183 -0.2860196828842163 -1.4198215007781982 0.13908910751342773 -1.409656286239624 -1.4946811199188232 0.862391471862793 1.3474787473678589 -0.6073405146598816 -0.662906289100647 0.8760381937026978 -2.1822519302368164 0.05334487557411194 0.4353325068950653 0.7378291487693787 0.2905881404876709 -0.31297051906585693 1.1840198040008545 0.33717164397239685 1.4976682662963867 -0.163694828748703 1.4722119569778442 0.31112194061279297 0.003468054346740246 -0.35139426589012146 -3.285667657852173 2.16615414619445
:backhand_index_pointing_left_dark_skin_tone: 0.09723498672246933 -0.15044476091861725 1.13008451461792 -0.15233393013477325 1.5861053466796875 -0.7103224396705627 -0.2327253371477127 -0.7800217270851135 1.007206916809082 0.50395667552948 -0.5156093835830688 1.135635256767273 0.24221943318843842 -0.705058753490448 0.056706272065639496 -1.5226669311523438 -1.423699975013733 -0.4993424713611603 -1.7663342952728271 0.7967034578323364 0.5424304008483887 1.104159951210022 0.38764873147010803 1.2345064878463745 1.440057635307312 0.20025226473808289 0.39392733573913574 0.6345028877258301 -1.5824023485183716 0.19921410083770752 0.6265653371810913 0.49721771478652954 0.5473166704177856 -0.005911477375775576 -0.8081641793251038 -0.6734886169433594 1.046499490737915 1.6180377006530762 0.22750821709632874 1.5535460710525513 1.5888547897338867 -0.2941603660583496 1.138630747795105 1.3487699031829834 -0.35427600145339966 -0.9355976581573486 0.383960098028183 1.885331630706787 -1.18131685256958 0.560156404972076
:person_raising_hand_light_skin_tone: -1.5302934646606445 -0.7942433953285217 -0.5718433856964111 1.8927327394485474 -0.9502362012863159 1.54100501537323 -1.0252257585525513 -0.06034790351986885 0.6447765827178955 -2.57609224319458 0.623801052570343 -1.0779629945755005 0.4682696461677551 1.155231237411499 -0.6016684174537659 -0.7421573996543884 0.6557424664497375 -1.3279600143432617 0.9498640894889832 -0.2615151107311249 -0.0031955218873918056 0.7495949864387512 -1.2170864343643188 0.785616397857666 0.40854158997535706 0.9490136504173279 1.6437345743179321 -0.33629149198532104 -0.5099737048149109 -0.2794781029224396 -0.6399385333061218 -0.5541902780532837 -3.533782720565796 -1.6605761051177979 0.6728533506393433 -0.5682232975959778 -0.5763242840766907 1.6985589265823364 1.2786519527435303 0.2856370508670807 -1.556599736213684 -1.1093833446502686 1.5452970266342163 0.28873249888420105 0.9982072710990906 1.047558307647705 -1.6613402366638184 -0.776668131351471 3.6501052379608154 -1.31762719154357
:person_getting_massage_medium_skin_tone: 0.06540787220001221 -0.1607617437839508 -0.30396097898483276 -0.011277754791080952 -0.3797910809516907 -0.38678911328315735 -0.3826234042644501 1.2977521419525146 1.475466012954712 -2.6918201446533203 -0.6885125041007996 1.0542887449264526 1.876339077949524 -0.39894697070121765 0.7440848350524902 2.0904650688171387 -0.3235214352607727 -0.18794675171375275 1.9331443309783936 0.8371524214744568 1.0413196086883545 0.1465422660112381 0.7346881628036499 0.9981850385665894 0.9576488733291626 -0.9938486218452454 -0.9889335036277771 1.2649410963058472 0.025519024580717087 -0.32633912563323975 -0.22928234934806824 1.053134799003601 -1.345695972442627 0.8669617176055908 -0.7618141174316406 1.6440253257751465 1.9431182146072388 0.22355763614177704 -2.519888162612915 0.2467072457075119 -0.800742506980896 -0.9521555304527283 -0.6794121265411377 -1.1398941278457642 0.5711253881454468 0.8886390924453735 -0.34687528014183044 0.18853631615638733 -0.9080162644386292 2.499660491943359
:boy_medium-dark_skin_tone: 0.790074348449707 0.06951755285263062 1.5893888473510742 0.15190815925598145 -0.7138376832008362 0.3462504744529724 -0.2772713005542755 -0.11752830445766449 1.4078432321548462 -2.139369010925293 -1.6756573915481567 -0.21830163896083832 -2.580051898956299 0.8733705282211304 -0.12626588344573975 -1.8746857643127441 -0.002744457684457302 0.35627761483192444 1.037519097328186 0.8024411201477051 0.5645106434822083 1.265300989151001 1.7141931056976318 1.0418721437454224 0.4824502170085907 -0.8172805309295654 -0.03601984307169914 2.3652100563049316 -0.8445721864700317 1.0021899938583374 -0.0848156064748764 -0.122195765376091 0.8414671421051025 -0.2931590676307678 -0.3101104199886322 -1.185081958770752 -0.2132558822631836 -0.8307213187217712 -0.08449207246303558 1.1519590616226196 1.5777785778045654 1.808524489402771 0.7708208560943604 0.3323122560977936 0.48707422614097595 0.5499688386917114 -0.678714394569397 0.8618419170379639 0.5759280920028687 0.74981290102
:person_pouting_medium_skin_tone: -0.5996411442756653 -2.007021903991699 0.4150042235851288 0.06052500382065773 0.5853127241134644 0.34874802827835083 1.2040334939956665 -1.377921462059021 -0.503264844417572 -0.09163593500852585 -0.9520518183708191 0.0753416195511818 -0.20876073837280273 0.2282896339893341 0.7594602704048157 1.5639104843139648 0.38284629583358765 -1.345978021621704 0.26251962780952454 -2.0521140098571777 -1.638360619544983 0.5727837681770325 -0.12224087864160538 0.4717618227005005 -0.5416339635848999 -0.652791440486908 0.04102202504873276 -0.6602416634559631 -2.0394186973571777 0.12492087483406067 -0.9919576048851013 1.0250952243804932 -1.2365070581436157 -1.1113165616989136 0.8062717914581299 -1.06002938747406 -0.1209513321518898 2.737617015838623 0.284225195646286 0.5322592854499817 -0.25441622734069824 0.7758697271347046 -0.045950353145599365 -0.12509779632091522 0.16870944201946259 0.4093031883239746 1.0373985767364502 -1.5467337369918823 -0.3457770049571991 0.867048740386962
:horse_racing_medium-light_skin_tone: -0.14322757720947266 -0.5374566912651062 -1.2395886182785034 0.06804629415273666 0.010082163847982883 1.1014856100082397 -0.5787807106971741 -0.35104304552078247 0.6264064908027649 0.3739878833293915 0.856300413608551 0.4137680232524872 0.2701934278011322 -0.6566950082778931 0.6832820177078247 0.029466180130839348 -0.6570984125137329 -0.3676114082336426 0.36022400856018066 -0.6918492317199707 -0.20144771039485931 -0.9936797618865967 -0.7456682920455933 0.8402090072631836 -0.39134445786476135 0.44785964488983154 0.8149902820587158 0.21915602684020996 -0.33066049218177795 0.29581159353256226 0.06809890270233154 -0.20042932033538818 -0.8574495315551758 0.717582643032074 0.46803489327430725 -0.43397223949432373 0.35108259320259094 0.48089030385017395 -0.8535800576210022 -0.1553192287683487 0.29684311151504517 -0.8350158333778381 0.8794528841972351 0.6265427470207214 0.20717507600784302 0.48482778668403625 0.9038792252540588 -0.18819865584373474 -0.25693264603614807 -0.338395208120346
:eight-spoked_asterisk: -0.9244673848152161 -2.072779417037964 0.16420157253742218 0.201572984457016 -0.6944602727890015 -0.47635066509246826 0.11455122381448746 0.31396037340164185 0.3595317006111145 0.920078456401825 -0.21169821918010712 -1.9317632913589478 -0.8544610142707825 -0.5048156380653381 1.3082749843597412 0.46330544352531433 2.1817467212677 2.402068853378296 0.7708232998847961 0.8264920115470886 0.7779105305671692 0.14800123870372772 -0.13339926302433014 3.857933759689331 0.28397873044013977 0.528427243232727 -2.1234731674194336 0.02486676163971424 0.4643419086933136 1.9106693267822266 0.5583787560462952 -0.8387073874473572 1.2498831748962402 1.3037097454071045 2.423774242401123 -1.4865188598632812 2.5654687881469727 1.8325903415679932 -0.48409080505371094 1.5631003379821777 -1.9168157577514648 1.1784569025039673 -0.08043842017650604 0.9276107549667358 -0.04298848658800125 0.0778001993894577 -1.3317123651504517 -0.46387040615081787 2.784513235092163 0.500796616077423
:large_blue_diamond: -0.8851076364517212 1.4752931594848633 -1.9067531824111938 -0.3551510274410248 2.2444982528686523 -0.5205062031745911 -1.3617336750030518 -1.5768061876296997 0.5734696388244629 -1.3796814680099487 0.2484336942434311 0.6005615592002869 0.7331641316413879 0.7484703660011292 0.3140271008014679 -1.7022536993026733 -0.27949604392051697 0.19619260728359222 -0.30699285864830017 -1.8751741647720337 1.0385191440582275 -1.2991796731948853 1.0941654443740845 0.5062610507011414 -1.2042772769927979 0.6722504496574402 -0.3098193109035492 0.8727506995201111 1.8443145751953125 -0.4570310413837433 -0.02748296968638897 1.2416573762893677 -0.5277437567710876 0.5428221821784973 -0.43931326270103455 1.308488130569458 1.0035746097564697 1.683692216873169 0.3558712601661682 0.5218295454978943 1.0242444276809692 2.269719123840332 -0.262420117855072 0.9147414565086365 0.8415217399597168 0.9150535464286804 -0.3144063651561737 -0.08120275288820267 3.0795154571533203 -1.98314607143402
:person_medium-dark_skin_tone_blond_hair: 0.7415515184402466 0.2465773969888687 0.08839686214923859 -0.29913264513015747 -1.0103461742401123 1.4275273084640503 -1.5953506231307983 -0.17275285720825195 0.6828017234802246 0.03948292136192322 -0.2136085331439972 -0.4892280399799347 0.5228253602981567 -0.30030372738838196 1.1835426092147827 1.011779546737671 -0.06615214049816132 0.7934480905532837 0.7517764568328857 -0.7604701519012451 0.40978074073791504 -0.008056198246777058 1.0376981496810913 0.5000141859054565 -0.2838137745857239 -0.17211516201496124 -0.22786569595336914 -0.10357137769460678 -1.4646676778793335 -0.890285074710846 -0.2976911664009094 0.17114368081092834 0.3291402757167816 0.7148764133453369 1.8748353719711304 -1.3589283227920532 -0.9100828766822815 0.33125609159469604 1.0653146505355835 -0.39557814598083496 0.610368549823761 0.10145170986652374 1.684563159942627 -0.7735303044319153 0.3169989287853241 -0.041658252477645874 -0.5332227945327759 -2.1682398319244385 -0.13604708015918732 1.179412364959716
:police_officer_medium_skin_tone: 2.0151264667510986 0.6993757486343384 2.134223699569702 -0.577551543712616 1.4472663402557373 -0.09106232225894928 -1.5475302934646606 1.0256808996200562 -1.2199268341064453 0.47015032172203064 -0.1806318461894989 -1.4954856634140015 1.985542893409729 1.371922492980957 0.6676855683326721 -1.2679444551467896 1.8414138555526733 -0.7579312324523926 1.7304545640945435 -0.8606855273246765 1.9186906814575195 0.5948187708854675 0.03363460302352905 -0.7118493914604187 0.727502167224884 -2.4501953125 0.2398068755865097 1.4636276960372925 1.7923328876495361 0.3302527666091919 0.6318459510803223 -2.169858455657959 -1.884691834449768 -0.15604962408542633 2.28961443901062 0.9068167805671692 -0.14554466307163239 -0.2553021311759949 -0.48913225531578064 -0.700397789478302 0.07350980490446091 -0.26141372323036194 0.33369535207748413 -2.6863772869110107 -2.313659429550171 0.4673323929309845 -0.004130219109356403 0.41622042655944824 -0.6178962588310242 -1.640580892562866
:dotted_six-pointed_star: -1.420525074005127 2.545147180557251 0.23767319321632385 -1.4733214378356934 1.2927716970443726 -0.3994726836681366 -1.8360252380371094 -0.0015206367243081331 -1.6790146827697754 -0.09439824521541595 0.5388518571853638 1.0932514667510986 -0.45023441314697266 0.351063072681427 0.7077351808547974 0.17613542079925537 -1.6719833612442017 -0.3890300989151001 -2.722935676574707 0.4841875433921814 -0.44572126865386963 0.5974119305610657 -1.246575117111206 0.6237601041793823 -0.6734078526496887 0.8331775069236755 0.9465696215629578 0.8129199147224426 0.8451628088951111 -1.4571369886398315 0.7035524249076843 0.334126353263855 0.7985636591911316 0.8648659586906433 0.022077247500419617 1.9480420351028442 0.1492832601070404 0.22010432183742523 -1.3651680946350098 -1.526294469833374 -0.6971130967140198 0.15800881385803223 1.461763620376587 1.9061861038208008 -2.7387404441833496 3.7533719539642334 1.8000288009643555 -0.14369653165340424 -0.4729107618331909 0.1863743811845779
:open_hands_medium-light_skin_tone: 0.8025884628295898 1.9843628406524658 1.8436838388442993 0.02882792428135872 0.7270299792289734 -0.594246506690979 0.5056939721107483 0.20003613829612732 0.35516494512557983 -0.6333260536193848 1.2346712350845337 0.4324166476726532 0.36265432834625244 1.1003161668777466 1.4656381607055664 0.8324615955352783 -0.7158721089363098 -1.1324338912963867 2.426231861114502 -1.1454272270202637 1.183145523071289 -0.0670187696814537 -0.1725354939699173 -0.33394116163253784 0.11754287034273148 0.8676614165306091 1.253860354423523 -1.4440762996673584 -0.6819461584091187 0.3625154197216034 -3.23563814163208 0.6458498239517212 -1.326865315437317 -1.8516281843185425 -2.122736692428589 0.2808327078819275 1.7136948108673096 1.6574487686157227 1.215419054031372 0.3228761851787567 2.240506649017334 -0.040662072598934174 0.3878953158855438 -1.0731786489486694 0.3832838237285614 -0.5250728130340576 -1.5364916324615479 -0.14971403777599335 -1.0089588165283203 -0.642514109611511
:woman_dancing_dark_skin_tone: -0.6847893595695496 -0.8136206269264221 0.456434965133667 -0.3471915125846863 -0.26415178179740906 -2.0372066497802734 -1.7734870910644531 1.2641868591308594 0.5669963359832764 -0.0330260694026947 -0.5665618777275085 0.834639847278595 0.48414772748947144 0.7900381684303284 -0.4768977165222168 -1.6229934692382812 1.5803385972976685 -0.662883460521698 2.2264366149902344 -1.3533915281295776 0.1637159138917923 0.7645431160926819 0.18136993050575256 2.9015471935272217 -1.3261635303497314 1.4436454772949219 -1.4119552373886108 -2.028536319732666 0.7589393854141235 -0.3101825714111328 0.41714558005332947 1.1101819276809692 1.4408159255981445 -1.0275460481643677 0.3276132345199585 0.27512484788894653 -0.7188159227371216 2.7811672687530518 -0.7015374898910522 -0.3631254732608795 -1.68599271774292 -0.7205467820167542 0.4159686863422394 -1.2624273300170898 -0.009684242308139801 -0.7485013008117676 -1.2294182777404785 -0.9973777532577515 0.8975194096565247 0.521462798118591
:person_getting_haircut_medium-light_skin_tone: -0.27333971858024597 0.6850869655609131 -1.2874858379364014 0.27841076254844666 0.6687842607498169 0.30611395835876465 -1.0020945072174072 0.6982660889625549 1.1388037204742432 0.6024072170257568 -2.0434062480926514 -0.6220789551734924 0.3148757517337799 0.30562683939933777 0.7488116025924683 0.2752339243888855 0.019695905968546867 0.6131558418273926 0.12389645725488663 0.42813238501548767 -0.13784705102443695 0.5660993456840515 0.08937142789363861 -0.010319001041352749 0.039758164435625076 1.2672103643417358 -1.519424557685852 -0.8701964616775513 0.24021068215370178 -0.3520439863204956 1.815542221069336 -0.5843113660812378 -0.782407283782959 -0.45146608352661133 0.5864288806915283 0.13853982090950012 -0.5935966372489929 0.758882999420166 -1.6449655294418335 0.5184704065322876 -0.4253306984901428 0.20205041766166687 -1.4123072624206543 -1.1885045766830444 0.10647621750831604 -0.6795899868011475 0.28893229365348816 0.4939076900482178 -0.05552719160914421 0.599582433700561
:person_swimming_medium_skin_tone: -0.7630335688591003 0.020704669877886772 -0.8481985926628113 0.11024882644414902 1.903760313987732 1.437617540359497 1.2818872928619385 0.9694879651069641 0.07835806161165237 -0.8385419249534607 0.04990425705909729 -0.2763754725456238 0.07218886911869049 -0.04433317855000496 0.14097081124782562 -1.3492645025253296 -0.45082277059555054 -0.3462173640727997 -0.5118371248245239 0.10796763002872467 0.9525977969169617 -0.012562913820147514 0.2055513858795166 -0.34003421664237976 0.8646973371505737 1.8814188241958618 -0.06289220601320267 -0.5369729995727539 1.4442906379699707 0.5636031627655029 -0.46031439304351807 -0.13656772673130035 0.24883633852005005 -1.8560194969177246 -0.10590196400880814 0.8147744536399841 -0.4173657298088074 -0.14518287777900696 -1.435444712638855 0.005935590248554945 0.31223180890083313 1.4846529960632324 0.9599702954292297 0.70908522605896 0.6696133613586426 -0.06224258989095688 0.3615948259830475 -1.5583349466323853 0.20628906786441803 -1.229721307754516
:white_medium-small_square: 0.5551066398620605 0.33697324991226196 -0.8815776705741882 -0.1347079873085022 -0.6087411642074585 0.9382480978965759 0.26710960268974304 0.47904112935066223 -2.881586790084839 -1.5280120372772217 1.4601023197174072 -0.8736732006072998 -0.9814510345458984 0.27843964099884033 -0.5704348087310791 -1.0041894912719727 -0.7307423949241638 0.01791554130613804 0.3399215042591095 0.20772594213485718 0.015180367976427078 1.3225101232528687 0.9661281704902649 0.7895165681838989 -1.7393429279327393 -0.8710162043571472 -0.45924121141433716 1.4599334001541138 1.7869725227355957 0.318200945854187 0.27966269850730896 0.5748899579048157 -1.3569884300231934 0.6220940351486206 -0.15450415015220642 0.5170643925666809 -0.2930963933467865 -0.9400143027305603 0.9525046944618225 -0.014508289285004139 -0.20723499357700348 -1.6299115419387817 0.5210385918617249 1.3144147396087646 0.6736370921134949 2.2935895919799805 -1.1336650848388672 -0.3099348545074463 -0.48897308111190796 -1.184044480323791
:delivery_truck: 1.1757715940475464 -1.8760716915130615 1.09158456325531 1.032209038734436 1.4103472232818604 1.9229621887207031 -1.142340064048767 1.4759799242019653 -1.7296867370605469 -2.3941967487335205 -0.935858428478241 1.5024291276931763 1.0567716360092163 -1.1222072839736938 -0.44648054242134094 1.9367835521697998 0.3520222008228302 -0.7710386514663696 0.20925505459308624 0.551305890083313 -0.7109784483909607 -1.2707154750823975 -1.7086024284362793 0.2131873518228531 2.9168426990509033 -1.2335158586502075 0.28598394989967346 -0.38211789727211 -0.1504153311252594 0.3668828010559082 -0.19677488505840302 -0.6468492746353149 -0.012054062448441982 0.602237343788147 0.32808706164360046 -0.03230201452970505 -0.03182266280055046 0.5220645666122437 -1.811522126197815 -0.6489027142524719 -0.06287958472967148 1.5787651538848877 0.34169790148735046 0.32073503732681274 -2.0934627056121826 0.517681896686554 0.2913624942302704 -1.1841434240341187 1.0113228559494019 0.272629082202911
:person_mountain_biking: -0.6043875217437744 2.4301867485046387 0.437179833650589 0.7617031335830688 -0.038578104227781296 0.27503445744514465 0.2653147280216217 0.8828881978988647 0.7873464226722717 0.1282089203596115 -0.9232951998710632 1.4369769096374512 -0.8571344017982483 2.2611095905303955 2.597306728363037 -0.41226404905319214 0.48826250433921814 0.1696699559688568 -0.824458658695221 -0.3521479368209839 0.6548612713813782 -0.7866340279579163 0.10038424283266068 0.05763591080904007 0.8063814640045166 0.7043786644935608 0.704648494720459 1.1174694299697876 -0.7794662117958069 1.6063964366912842 -1.148800015449524 0.24436122179031372 0.07251081615686417 -1.4359705448150635 0.8238315582275391 1.8417978286743164 -1.4237310886383057 -0.29410091042518616 -0.5515743494033813 0.9642055630683899 0.5407442450523376 0.7925462126731873 -1.030536413192749 -2.0736284255981445 0.9587768912315369 0.6797015070915222 1.0029352903366089 -1.7762705087661743 0.3819764256477356 1.46789002418518
:metro: -2.504865884780884 -1.0748130083084106 -0.37859755754470825 1.6858866214752197 -0.16420865058898926 -2.8880300521850586 -0.4513673186302185 0.4711419939994812 -0.6286558508872986 0.7183682322502136 -1.0127336978912354 1.2524837255477905 1.1837431192398071 -2.667475938796997 1.5812537670135498 -0.6175689697265625 0.3960110545158386 -0.09260515868663788 2.024512529373169 0.7616820335388184 1.3225525617599487 -0.5657752752304077 3.7815048694610596 0.3008745014667511 0.985537588596344 0.18046796321868896 -1.3593392372131348 -1.933760643005371 2.452895164489746 -1.1274173259735107 -2.3741140365600586 0.5471668243408203 -1.5734955072402954 -0.5892105102539062 0.8754475116729736 1.142574667930603 1.1464422941207886 0.49931448698043823 2.8037164211273193 0.982743501663208 1.6582958698272705 0.4752194583415985 -0.42369890213012695 1.2298552989959717 -0.5125247240066528 0.31730449199676514 0.8952499032020569 -1.966976284980774 0.6029830574989319 0.951619684696197
:no_smoking: -0.061852265149354935 -1.4770886898040771 -0.8524633646011353 -0.6559737324714661 -1.0269628763198853 0.9843200445175171 0.2888210117816925 -2.5439164638519287 -1.1110929250717163 -0.3812452256679535 -0.8729435205459595 -0.28659841418266296 -0.36788254976272583 0.11357598006725311 -0.39638519287109375 1.9279561042785645 -0.29258787631988525 0.510184645652771 -0.004060329869389534 -0.6050741672515869 -1.056939959526062 0.6478910446166992 0.4061802625656128 -1.290374755859375 1.0947051048278809 0.2606142461299896 1.0817265510559082 0.740161657333374 -1.3503015041351318 0.5149344801902771 0.6718473434448242 -0.04786152020096779 -1.3102149963378906 -0.32893627882003784 0.6731714010238647 0.24090734124183655 -0.19512668251991272 1.106824278831482 -1.4271401166915894 2.69840407371521 -0.7645226716995239 -1.636452078819275 0.26493406295776367 1.5385124683380127 -1.480881929397583 0.19889211654663086 1.8832759857177734 -1.6487038135528564 -1.629661202430725 -0.877588093280792
:rugby_football: -0.1056097075343132 3.406694173812866 -0.47497648000717163 0.19982598721981049 0.6953393220901489 0.21981744468212128 0.047795042395591736 1.9101536273956299 -1.0380998849868774 -1.0937963724136353 0.16653233766555786 1.8414891958236694 -0.16160458326339722 0.9988377690315247 1.4686288833618164 -1.8962689638137817 -0.5780420303344727 -1.3940215110778809 0.7770177721977234 -2.7159080505371094 -1.1757956743240356 0.9426852464675903 -0.2878338694572449 -0.22690615057945251 1.0774065256118774 -0.8017486929893494 0.5996235609054565 2.3401272296905518 -0.6660853028297424 -0.41006192564964294 -1.0352976322174072 -0.08119124174118042 -0.4969346523284912 -0.016502976417541504 -0.9709442257881165 1.5612391233444214 1.212929368019104 0.5223948359489441 1.065447211265564 1.8608871698379517 0.7525126934051514 -0.3834313452243805 -0.20252645015716553 0.6719385385513306 -1.4072861671447754 0.7899919748306274 -2.0942976474761963 -0.06861386448144913 -2.172541856765747 1.578092455863952
:person_medium-light_skin_tone_blond_hair: -0.888494074344635 -2.198955535888672 -0.5675337314605713 -0.7989612817764282 2.238598108291626 0.754133939743042 -0.16790811717510223 0.40941283106803894 0.897534966468811 -1.1110152006149292 0.9708788990974426 1.4179043769836426 -2.136578321456909 -1.851898193359375 0.7487591505050659 -0.9552639722824097 1.8639901876449585 -0.03013523854315281 1.546196699142456 -1.369010329246521 -0.5896230936050415 -0.7473354935646057 1.7794049978256226 -0.22515718638896942 0.36194679141044617 -0.3844417929649353 -0.8970817923545837 -0.17489023506641388 -0.056242987513542175 -0.6123445630073547 -0.21936894953250885 2.3468387126922607 -1.1784782409667969 0.7271092534065247 -1.689469337463379 1.671160101890564 0.7600547075271606 1.295446753501892 1.451398253440857 -1.5165882110595703 -1.6228044033050537 1.0805083513259888 -1.553357720375061 1.7673873901367188 1.0590890645980835 -0.25693172216415405 0.09699215739965439 1.370375394821167 -0.9843384623527527 1.084072947502136
:fish_cake_with_swirl: -0.21836574375629425 -1.1290303468704224 -0.8683636784553528 0.9684209823608398 -1.6276612281799316 -0.3839204013347626 0.0814795196056366 0.5802105665206909 0.13285565376281738 -0.1323333978652954 -0.5142256021499634 0.14125335216522217 1.8997819423675537 2.2823984622955322 0.12423107773065567 -3.478447914123535 0.590791642665863 0.12030552327632904 -0.24495437741279602 -0.11249406635761261 0.5009641647338867 -2.8503243923187256 0.4480307698249817 -0.03205322101712227 0.3440418541431427 1.3189986944198608 0.9903067350387573 1.265013575553894 1.3039032220840454 0.9379885792732239 0.9938040375709534 -2.25616455078125 0.4220002293586731 0.5601006746292114 -1.5193003416061401 0.6989365816116333 -0.1442331075668335 -0.28281542658805847 1.0600558519363403 -0.07238227128982544 -1.7384772300720215 0.769304096698761 -0.08121655136346817 0.6560191512107849 0.2469310164451599 1.1001735925674438 1.427372694015503 1.021101474761963 0.7539368271827698 -1.667285799980163
:light_rail: 1.2622430324554443 0.6010949611663818 0.06997790187597275 -0.984475314617157 -0.8140432238578796 -1.7929712533950806 0.18076370656490326 -0.10946273058652878 2.473857879638672 1.9673404693603516 -0.6243154406547546 0.23271282017230988 -0.2741372883319855 0.8331791758537292 -0.9882052540779114 0.6114078760147095 0.6594560742378235 -1.6859440803527832 0.7845108509063721 0.5471797585487366 1.3037407398223877 0.15074287354946136 -0.32609349489212036 -0.9103980660438538 0.54929119348526 1.4637553691864014 0.521299421787262 1.1434729099273682 -0.11881156265735626 -2.7830886840820312 -0.41797688603401184 -2.777470827102661 -1.0220054388046265 -0.22083814442157745 1.6683108806610107 -0.828119695186615 1.9617677927017212 0.7645333409309387 1.5575709342956543 0.9734725952148438 -1.8534419536590576 0.27180975675582886 -0.8099253177642822 1.2687735557556152 -1.42022705078125 -0.7961249947547913 0.6996710896492004 -0.6302708983421326 -0.2618272602558136 -0.331860959529876
:dragon: -0.27982255816459656 -1.4956814050674438 1.2103712558746338 -0.5994093418121338 -0.14138644933700562 0.38149377703666687 1.8466507196426392 -0.49939683079719543 0.6147118210792542 0.981966495513916 0.6542060375213623 1.454177737236023 1.060516119003296 0.1385938823223114 -1.2675899267196655 -4.403349876403809 -0.3991475999355316 4.513613700866699 -1.6389964818954468 -0.6836536526679993 -0.8153631091117859 -0.999032199382782 -2.8622865676879883 0.34875327348709106 -0.5384671688079834 2.759286880493164 3.322150945663452 -1.7123297452926636 1.888305902481079 -0.41742873191833496 -1.8372236490249634 -1.3184317350387573 -1.2628471851348877 -0.15844614803791046 -0.7185741066932678 1.2917455434799194 -1.163586139678955 0.9319345951080322 2.1466825008392334 0.5897954702377319 0.9220043420791626 -0.30110254883766174 -3.12357759475708 -1.2052638530731201 1.9312307834625244 0.22511401772499084 1.0101832151412964 -1.364578366279602 -2.0210061073303223 -0.3549767136573791
:person_rowing_boat_dark_skin_tone: -0.7284157872200012 0.004807436838746071 -0.2720181941986084 0.197633758187294 -0.6349173784255981 1.5178738832473755 -1.2525025606155396 0.7683087587356567 0.3725472390651703 -1.7642005681991577 -0.979305624961853 1.1212927103042603 0.15198726952075958 -0.2517263889312744 1.5921281576156616 1.030583143234253 -1.4466866254806519 -0.7072451114654541 -0.6789952516555786 -1.1266924142837524 1.0436561107635498 -0.08212414383888245 -0.5628249645233154 -0.5303871631622314 -0.5190361738204956 1.6510783433914185 -2.1815764904022217 0.7187095880508423 -0.7087913751602173 -0.08435750752687454 1.4400336742401123 0.5399636626243591 -0.985613226890564 0.08201336115598679 0.0583423487842083 0.6569495797157288 0.8006985783576965 -1.4333912134170532 -0.06137365847826004 0.7736815214157104 2.9142541885375977 0.0852881520986557 -0.11480738967657089 -0.5670970678329468 -2.242469072341919 -0.5519709587097168 1.0497642755508423 -1.349859595298767 0.039881959557533264 -0.262984275817871
:family_man_woman_girl_girl: 0.17189693450927734 -0.9021833539009094 0.832165002822876 0.02729438804090023 -0.7069282531738281 0.4185624122619629 0.3799740970134735 -0.4033343195915222 1.606874704360962 -2.415956497192383 -0.17805932462215424 -0.6612918376922607 -0.49326279759407043 -0.2743328809738159 1.7438956499099731 -1.8246082067489624 -1.9049543142318726 -0.5294565558433533 0.43916505575180054 -0.38324934244155884 -0.4059600532054901 2.9005990028381348 0.9425362348556519 -2.6834206581115723 1.9436112642288208 1.0372989177703857 1.0750781297683716 0.5213488936424255 0.07357417047023773 0.6843295693397522 0.17853672802448273 -0.8837347626686096 -0.8348217010498047 -0.8013610243797302 -1.8730298280715942 0.5399283170700073 -2.1946070194244385 0.10715511441230774 -0.5695942044258118 -1.546678900718689 -1.2262920141220093 1.1645526885986328 0.25307318568229675 -0.10314800590276718 0.2343081831932068 1.2605000734329224 1.4060094356536865 -0.0061845434829592705 -1.2875819206237793 -1.912344813346862
:person_mountain_biking_dark_skin_tone: -0.2690091133117676 0.7921339273452759 0.47482651472091675 -0.4436727464199066 0.008393854834139347 0.7729151248931885 -0.7196027636528015 -0.4905603229999542 -0.2568459212779999 0.43226876854896545 -0.007143416441977024 0.611350953578949 -0.6707212328910828 1.111099123954773 -1.2878845930099487 -0.8679711818695068 -0.27373284101486206 1.0390164852142334 0.48987245559692383 -0.9874474406242371 0.5815667510032654 0.3583461344242096 0.12839311361312866 -0.365806519985199 -1.1298552751541138 1.1127560138702393 0.971976101398468 0.584663450717926 -1.2758287191390991 -0.002724750665947795 -0.574883759021759 0.7902889847755432 -0.5911612510681152 -0.26626259088516235 0.6231675148010254 0.4995832145214081 -0.8143333792686462 1.1065618991851807 -0.12733975052833557 0.7941327095031738 -1.0971159934997559 1.304373025894165 0.24457088112831116 -0.33967405557632446 -0.3899160921573639 0.09229040145874023 0.8223422765731812 0.4297860264778137 -0.5023818612098694 -0.3573411405086517
:customs: -2.356779098510742 3.2344439029693604 -1.7097804546356201 0.4893486201763153 -1.4953603744506836 -1.6598689556121826 -0.4058184027671814 -1.4649800062179565 -0.9108899235725403 -2.204589366912842 -1.992896556854248 0.5113310813903809 -0.2788197100162506 0.34002685546875 2.432002544403076 0.6851881742477417 -0.3138696551322937 -0.798664391040802 0.17002737522125244 -1.1692758798599243 0.4162825345993042 0.3985100984573364 -0.7790464162826538 -0.7694159746170044 0.6980283856391907 1.3291831016540527 0.07252957671880722 0.4490371644496918 1.9198838472366333 1.5109047889709473 1.3015738725662231 -0.05758754536509514 -0.2239948809146881 0.15583544969558716 0.8151980638504028 -0.6100508570671082 1.224090337753296 -1.0335630178451538 0.9968087673187256 1.151652455329895 -0.6547718048095703 -0.76634681224823 -0.847513735294342 0.468608558177948 -1.0646564960479736 0.40097782015800476 -0.21479062736034393 2.1395442485809326 0.6273330450057983 -0.724979579448
:flexed_biceps_medium-dark_skin_tone: -0.6053993701934814 -0.3360205888748169 2.842150926589966 -1.7605931758880615 -2.137599229812622 -0.6596137285232544 -2.3776161670684814 0.4519314765930176 -0.48183342814445496 -0.35981008410453796 0.749154269695282 2.0897583961486816 -0.3921263813972473 0.5563027858734131 -2.0668585300445557 0.8320562243461609 -0.03048497624695301 -1.0482392311096191 -1.3561186790466309 0.4283391833305359 -0.24457718431949615 0.31831037998199463 0.94181889295578 1.1663801670074463 -0.5157083868980408 0.3233738839626312 -1.4569977521896362 -1.9118108749389648 -2.953216075897217 -1.3652108907699585 -1.1615849733352661 -1.8392218351364136 1.9570910930633545 -0.8394421935081482 0.7608208060264587 0.5673767924308777 -2.8603265285491943 -0.6742233633995056 -1.2760539054870605 0.14841094613075256 1.0918065309524536 1.0676301717758179 -0.4353770315647125 -1.9716554880142212 0.15734010934829712 -0.2609379291534424 -0.054999735206365585 -0.14177416265010834 2.48347544670105 1.10504400730133
:person_walking_medium-light_skin_tone: -0.01439445186406374 1.3994308710098267 -0.9083641767501831 -0.47782227396965027 -0.25877106189727783 -2.551724672317505 1.8664472103118896 0.5604352355003357 -0.8173141479492188 0.4655596613883972 2.180229663848877 -0.7633583545684814 -1.209624171257019 -0.41621133685112 -1.086587905883789 1.8575154542922974 0.9695098996162415 0.7509819865226746 2.1046273708343506 -1.347874641418457 1.3099634647369385 1.787730097770691 0.9728600382804871 -2.0245935916900635 0.4171339273452759 0.40399977564811707 0.6122140884399414 -1.0995928049087524 -1.1054505109786987 -3.201378107070923 -0.8468663692474365 1.0650379657745361 0.29636505246162415 -0.3740612864494324 -0.533285915851593 0.04194685071706772 1.5725194215774536 0.9511035680770874 1.5905684232711792 2.038663625717163 0.5266779661178589 0.3049369156360626 0.6791415810585022 1.2081128358840942 1.295964002609253 -0.3502456843852997 0.6344686150550842 -0.2831561863422394 2.0330045223236084 1.32548880577087
:left_luggage: -0.520442008972168 2.211578607559204 0.5193767547607422 1.138176441192627 -0.03298071399331093 -0.25723472237586975 -0.33529558777809143 0.7796078324317932 1.1901559829711914 -1.9383615255355835 -0.6844834089279175 -0.054074592888355255 -2.5683586597442627 1.7205607891082764 -0.6374756693840027 1.0458813905715942 -1.720553994178772 -0.8346928358078003 -0.12908795475959778 -0.2330264151096344 -0.9671747088432312 1.7966101169586182 2.101870059967041 -0.12189420312643051 0.1961953341960907 -0.36467474699020386 1.0807504653930664 -0.5670919418334961 1.6223134994506836 0.7783377170562744 -0.13464400172233582 -0.15797515213489532 4.959738254547119 -1.045093059539795 1.5799471139907837 0.6063356399536133 0.5814574360847473 1.1424989700317383 0.3525145351886749 1.0100295543670654 0.5520383715629578 0.3584977686405182 0.6447502374649048 0.8769934773445129 -0.2950029969215393 -0.08347265422344208 -0.1029660701751709 0.2907770276069641 -0.5887582898139954 -2.252342224121093
:backhand_index_pointing_down_medium-light_skin_tone: 0.18112914264202118 -0.0023895951453596354 -0.32109320163726807 0.3703135550022125 -0.8913819789886475 1.0519194602966309 0.2077149897813797 0.18303494155406952 -0.5991467237472534 0.4363355338573456 0.31430116295814514 -0.3130972683429718 -0.46998119354248047 -0.567698061466217 -0.06789994239807129 -0.13928067684173584 0.05934624746441841 -0.7783669829368591 0.0603974312543869 -0.5229647159576416 0.41393423080444336 -0.021839026361703873 -0.08121111243963242 -0.5727798342704773 1.0350663661956787 0.3826409578323364 0.7598890066146851 0.19450348615646362 0.7734665870666504 -0.5589275360107422 0.3217777907848358 -1.341132402420044 0.11469847708940506 -0.06112642213702202 0.09033473581075668 -0.11347843706607819 -0.09685289859771729 0.031971585005521774 -0.2756037414073944 -1.2481038570404053 0.3081904351711273 -0.518140971660614 0.9826436638832092 -1.205748438835144 -0.5612907409667969 1.1378449201583862 -0.7033823132514954 1.402954339981079 0.5026869177818298 0.3536891639232635
:videocassette: -2.0235676765441895 -0.6923344135284424 -0.11905772984027863 3.051347494125366 0.42827919125556946 -2.593757152557373 -0.36279311776161194 0.46059450507164 1.5218709707260132 0.840066134929657 -1.388936996459961 1.1919523477554321 -0.2547965347766876 -0.2917851507663727 2.0167291164398193 -0.25595787167549133 -0.08983570337295532 -0.2993331253528595 0.5128514766693115 0.18582436442375183 -0.369081050157547 1.000233769416809 -0.5613924860954285 2.2277348041534424 1.030189871788025 -0.8059095740318298 -0.7244160175323486 -2.170931577682495 -1.6353235244750977 1.8397564888000488 -0.628767728805542 0.2459312528371811 -0.5909708142280579 0.5013100504875183 1.5277260541915894 1.7239869832992554 1.2232969999313354 0.6949253082275391 -1.8756113052368164 1.7944917678833008 -1.4991732835769653 2.0843355655670166 -0.18508711457252502 -1.0283923149108887 -3.9353115558624268 -0.3530842661857605 -0.1503102034330368 0.7329902648925781 -0.567618191242218 1.21952998638153
:person_wearing_turban_dark_skin_tone: -1.7861807346343994 1.351948857307434 0.6800732016563416 -0.517808198928833 0.6303671598434448 -0.6915757060050964 0.9362571239471436 0.8655967116355896 -1.6870068311691284 0.1937263458967209 -0.4970233738422394 -0.26189976930618286 1.0201935768127441 1.0505659580230713 0.2238186150789261 0.03985965996980667 0.03458959981799126 -1.25359308719635 1.0533825159072876 -0.33612874150276184 0.9766944050788879 -0.24182729423046112 -0.4891774356365204 1.3232958316802979 -0.2519172430038452 -0.5967016220092773 0.44282740354537964 -0.04024597257375717 -0.5780521035194397 -1.45452880859375 0.13622047007083893 1.3054612874984741 -1.2322367429733276 0.8110787272453308 0.7057084441184998 0.8058592677116394 0.31659725308418274 -0.7542982697486877 -1.5067991018295288 -2.161879777908325 -0.16650806367397308 -0.7909098863601685 -1.2103619575500488 -0.06361351907253265 1.1836702823638916 -0.04053141549229622 -0.3601408302783966 1.8418596982955933 1.1369719505310059 1.60759544372558
:baby_medium_skin_tone: -0.7773618102073669 1.234464168548584 0.800032913684845 -0.8989782929420471 1.7309823036193848 -0.9450150728225708 -0.7154852747917175 -0.39580124616622925 1.2030726671218872 -1.2228411436080933 -0.09379199147224426 -0.18591846525669098 0.27339908480644226 0.5344775915145874 -0.898656964302063 1.7857555150985718 0.7957464456558228 -1.2420647144317627 0.12213853001594543 -3.7939345836639404 -0.19236841797828674 -0.9404531717300415 -0.44531160593032837 -1.5253831148147583 0.5813990831375122 -1.3946740627288818 -1.23799729347229 0.048663146793842316 0.4666098356246948 0.9890475273132324 -1.7034341096878052 -0.47230324149131775 0.18806231021881104 -2.2751173973083496 0.26377543807029724 0.2845032215118408 0.8709782958030701 -0.24983908236026764 1.5154918432235718 0.6912838220596313 -0.9842441082000732 0.05164692923426628 -0.7620728611946106 -0.28627723455429077 -0.2520335912704468 0.5425013899803162 -0.0034814325626939535 0.7733427882194519 1.3060275316238403 0.880708456039428
:baby_angel_light_skin_tone: -1.0377029180526733 0.4142146110534668 0.1042715385556221 -1.120605230331421 1.06753408908844 0.8722145557403564 -1.9052319526672363 -0.5977969169616699 0.16740642488002777 2.0188491344451904 -0.08047337830066681 0.35655757784843445 -0.7271420955657959 3.351196527481079 0.21409067511558533 0.30264508724212646 -0.6968697905540466 1.4253946542739868 -1.095575213432312 1.4246224164962769 0.15114033222198486 -1.8094394207000732 -0.6320325136184692 0.2323588728904724 1.5595184564590454 0.2848103642463684 1.72930908203125 1.960263967514038 0.7419837713241577 -2.601957082748413 -1.1806929111480713 -0.2300107330083847 -0.011001188308000565 -0.7282677292823792 0.18281780183315277 1.8126564025878906 -0.07838474214076996 0.0031041717156767845 1.261212706565857 0.8170735836029053 -0.36201533675193787 2.310811758041382 -0.10838525742292404 -1.6968789100646973 2.391456127166748 -0.22368110716342926 -0.5094965100288391 0.768994927406311 0.45826125144958496 -0.0044863745570182
:black_large_square: -1.3665186166763306 -0.6848523020744324 -0.3542415201663971 -2.4456591606140137 0.06668228656053543 1.3845295906066895 0.48584461212158203 -1.8309324979782104 -0.18807891011238098 -0.22005008161067963 -1.7713273763656616 -0.7859131097793579 -1.6381913423538208 2.0192840099334717 -1.879578948020935 -0.23329240083694458 -0.25717824697494507 -0.821071445941925 -1.7494864463806152 0.9125933051109314 -0.532950222492218 0.1204848363995552 -2.042741298675537 0.4573565423488617 0.04698856547474861 0.8902661800384521 0.45946478843688965 -0.16329945623874664 2.645073175430298 -1.0055440664291382 -0.7453665733337402 -0.5199325084686279 -1.4970003366470337 -0.09026617556810379 -1.2009187936782837 2.500609874725342 -2.507275104522705 -0.8781015276908875 1.2462882995605469 0.26137590408325195 0.028104543685913086 -0.1203189566731453 0.8277342915534973 0.5859991908073425 -1.5646783113479614 1.1006531715393066 -0.357761412858963 -1.5010230541229248 0.8878547549247742 -1.402863502502441
:trolleybus: -1.3616933822631836 1.4791792631149292 1.8161121606826782 -0.18018218874931335 -0.47035181522369385 0.3619690239429474 -0.05360177531838417 0.25888562202453613 0.8898475170135498 -1.9813607931137085 -0.9842059016227722 -0.7125043272972107 -0.1541624218225479 0.7838274836540222 0.41710901260375977 -0.14369633793830872 0.026304850354790688 0.48353734612464905 2.1017208099365234 -0.5299834609031677 1.6593817472457886 -0.5578949451446533 0.3413883149623871 1.9494602680206299 0.24492503702640533 -0.5581058263778687 -0.49139341711997986 0.11470494419336319 0.9266209602355957 -0.42691850662231445 -0.6526474952697754 -1.3261826038360596 1.9587270021438599 0.061483532190322876 -1.2207934856414795 -0.5349070429801941 1.1731531620025635 -0.45817747712135315 -0.07634943723678589 -0.5746589303016663 -0.22325116395950317 0.07954595983028412 -0.26311230659484863 -1.473126769065857 -0.07749737054109573 0.355396568775177 0.15647931396961212 1.434105634689331 1.1466618776321411 0.842883706092834
:person_rowing_boat_medium_skin_tone: 1.23210608959198 0.1411932408809662 0.23189322650432587 -0.18278920650482178 1.1555023193359375 1.1659880876541138 0.5399587750434875 0.7691304683685303 -1.580117106437683 -0.9330018758773804 -0.2824901342391968 -0.05132418870925903 -1.3620061874389648 0.6474384069442749 -1.0109503269195557 -1.5293811559677124 0.9190013408660889 0.818728506565094 1.0269991159439087 -2.3802990913391113 0.8917491436004639 -1.0318760871887207 0.44729870557785034 0.708533525466919 0.9000367522239685 0.7213886976242065 1.219685435295105 0.8262317776679993 -1.667445421218872 0.3145274817943573 0.4082012474536896 0.6898570656776428 -1.3075767755508423 -0.07229875773191452 0.3877454400062561 -0.03837931901216507 0.11916288733482361 1.5223671197891235 -0.03957593813538551 0.8866492509841919 0.5287975668907166 1.2780001163482666 0.009982473216950893 -1.919287919998169 0.8985530138015747 -0.4600665271282196 0.29087457060813904 0.28633826971054077 1.3203376531600952 -1.19546055793762
:baby_angel_medium-light_skin_tone: -0.08486674726009369 -1.4536677598953247 -0.4700149893760681 -0.30422401428222656 0.6834577918052673 -0.8503871560096741 1.0032498836517334 -0.9184984564781189 -1.4429357051849365 -0.5533297061920166 0.24659983813762665 -0.04626781493425369 -0.6175143122673035 -0.12142667919397354 2.0043551921844482 0.44544389843940735 -0.4200098216533661 0.009645606391131878 -1.171104073524475 0.3452606499195099 -1.266549825668335 -1.0108428001403809 -1.340933084487915 -0.14251448214054108 -0.13175922632217407 1.1665679216384888 0.88959139585495 -0.12829279899597168 0.31905215978622437 -0.6161171197891235 0.4782108664512634 1.2822057008743286 0.1766127049922943 0.006035277619957924 0.1102159172296524 -1.0103182792663574 0.46115729212760925 3.8635034561157227 0.5230266451835632 0.9773029088973999 1.8388570547103882 -0.2918732762336731 0.2422141134738922 0.1924518346786499 -1.0088952779769897 -1.3382993936538696 -0.9847395420074463 -0.6971067786216736 0.9554957151412964 0.95253437757492
:construction_worker_light_skin_tone: 2.295283555984497 -0.5740411877632141 -0.7885430455207825 0.719158411026001 -0.752095639705658 0.14732719957828522 0.13231241703033447 -0.732608437538147 -1.2722569704055786 -1.6989333629608154 -2.7054316997528076 1.7697194814682007 -0.0646226704120636 -0.9102943539619446 -0.2743315100669861 -1.3887650966644287 0.2865024507045746 -1.1115343570709229 1.5834635496139526 -0.7667867541313171 0.05167657136917114 -0.046998992562294006 -4.050685882568359 -0.6455997228622437 0.20608022809028625 0.8486464619636536 0.9784407615661621 -1.2063958644866943 -0.29277530312538147 -0.5186986327171326 -0.18331356346607208 1.2862913608551025 0.8518187999725342 -1.7721818685531616 1.2635520696640015 1.0637967586517334 0.7875048518180847 2.5042147636413574 -1.0467677116394043 -0.9747989177703857 2.045842409133911 0.8917656540870667 -0.7884663343429565 0.9274951219558716 0.10934068262577057 0.7956253290176392 -1.6200968027114868 0.025374362245202065 -1.6444145441055298 0.1899070888757705
:ear_dark_skin_tone: 0.6560837030410767 1.2502070665359497 -1.0775959491729736 1.1232404708862305 -1.5807158946990967 -0.8184258341789246 -1.1681029796600342 -1.5131627321243286 1.0174071788787842 -0.46726083755493164 -1.178053855895996 -0.6782582402229309 1.766606092453003 0.5035679936408997 1.959053874015808 -1.085447907447815 -1.3261204957962036 -0.24928711354732513 0.22345203161239624 0.5405023694038391 -0.5298815369606018 1.0993494987487793 0.9131385684013367 1.7820754051208496 -0.2627010941505432 -1.2680606842041016 0.702974259853363 -0.5600602030754089 -1.4835644960403442 -1.1030948162078857 -2.8568761348724365 -0.7257797122001648 1.387352705001831 1.4214308261871338 -0.8586679100990295 1.8482606410980225 1.6800711154937744 -0.34645745158195496 0.8102867603302002 1.2785288095474243 -1.238022804260254 -0.5288547873497009 -0.40043920278549194 1.258955955505371 -0.7695932388305664 1.001217246055603 0.3452244699001312 -1.5758166313171387 2.0759191513061523 -2.351042032241821
:penguin: -1.4097459316253662 -1.643410086631775 -0.35748058557510376 -0.9228277206420898 -0.8403027057647705 0.9610025882720947 -0.8878473043441772 -0.006931927986443043 0.4181266725063324 -2.527094602584839 -2.3846077919006348 -1.8135789632797241 0.6388687491416931 0.8930788636207581 0.07988179475069046 -1.0004161596298218 -0.8699266314506531 -0.24500663578510284 -1.9143372774124146 -0.29492393136024475 0.023700246587395668 0.09692970663309097 -0.554022490978241 0.025870099663734436 -0.4572558104991913 -1.780240535736084 0.13348893821239471 -0.9800482988357544 1.1866192817687988 0.12180566787719727 -0.803192138671875 -2.4193673133850098 -1.613158941268921 -0.3634518086910248 -1.9309232234954834 -0.0009642075747251511 0.022390929982066154 -0.3867875635623932 -1.1510193347930908 2.588538646697998 0.6075378060340881 -0.6891850233078003 2.27746319770813 -1.0197564363479614 -0.12502610683441162 0.0566098727285862 0.9115831255912781 1.154835820198059 -0.4749391973018646 -1.737922310829162
:old_woman_medium-dark_skin_tone: 0.007754421327263117 0.19210465252399445 1.4131120443344116 -0.2877267003059387 0.4279487729072571 2.068960666656494 -2.0656635761260986 -0.32882556319236755 -0.41147664189338684 -0.48028552532196045 -0.6108836531639099 -0.8075534105300903 -0.17795325815677643 -1.2334762811660767 1.8387712240219116 -0.41665342450141907 0.5569731593132019 -2.248321533203125 -0.166418194770813 0.2425580471754074 0.11366474628448486 1.7034823894500732 -0.7679607272148132 -0.05664876475930214 -0.24768131971359253 -0.8395057916641235 0.17793008685112 0.11954869329929352 1.8531936407089233 1.5535149574279785 -1.1430119276046753 -2.5306947231292725 -2.2987565994262695 1.3889808654785156 0.09529277682304382 -0.37735387682914734 1.309423804283142 -0.5463335514068604 -0.09281695634126663 -0.48960691690444946 0.7000499367713928 3.6653218269348145 0.8201776742935181 0.34314587712287903 0.21383091807365417 -0.01841370388865471 -0.2813190221786499 0.08782500773668289 -0.5635449290275574 1.24190866947174
:pig_nose: -0.48950880765914917 0.325581818819046 0.994907557964325 1.6596933603286743 2.7499659061431885 -0.8250759243965149 -0.7448611259460449 -0.8905078172683716 0.867780327796936 -0.7369743585586548 -0.5493140816688538 -0.6384045481681824 2.538905620574951 1.2338677644729614 -0.8760265111923218 -0.29373404383659363 3.131640911102295 -0.7610833644866943 1.5392992496490479 -0.8747770190238953 -2.82692289352417 -0.07816757261753082 0.7175305485725403 -0.19736850261688232 -1.2340831756591797 2.241128444671631 0.2898060381412506 2.8740782737731934 0.21047279238700867 1.1985840797424316 -1.0505268573760986 0.3505244255065918 -0.2707642912864685 0.14127767086029053 0.4148077070713043 0.48415717482566833 -0.610824465751648 0.0698876678943634 0.14486384391784668 1.3076140880584717 -0.01466710027307272 1.7789726257324219 0.5704883337020874 1.6364697217941284 2.041905403137207 -0.37219107151031494 1.1957517862319946 0.8376128077507019 0.45426902174949646 -0.1311767101287841
:heart_decoration: 1.947211742401123 0.4995935559272766 0.5311520099639893 1.4452651739120483 0.7586784958839417 1.1477919816970825 -0.6962071657180786 0.12971153855323792 1.7527692317962646 0.8395535945892334 -0.5984896421432495 0.8184279799461365 0.15525521337985992 1.3720028400421143 0.1887967735528946 3.458644390106201 3.358485698699951 0.6152169704437256 0.8333003520965576 1.2867470979690552 -0.5166998505592346 -0.5676651000976562 0.07136747241020203 -1.6435201168060303 2.5272674560546875 0.5121586322784424 -2.6192872524261475 0.10292705148458481 0.6606004238128662 -1.1673684120178223 0.3503006398677826 0.42335212230682373 0.09235662966966629 -1.160215973854065 0.13314364850521088 0.3884424865245819 -0.32851263880729675 -0.6664415001869202 0.6307277679443359 -1.4301307201385498 -1.1271109580993652 -2.61252498626709 1.1391558647155762 -1.0410505533218384 1.1999413967132568 2.8527650833129883 -0.5557656288146973 0.2952629625797272 -0.12042774260044098 0.751067161560058
:steaming_bowl: -2.0345301628112793 -0.08125919848680496 1.799945592880249 1.8973195552825928 -2.2591676712036133 -2.0232315063476562 -1.7194910049438477 1.575238823890686 -1.6558893918991089 1.5270556211471558 -1.135544776916504 3.3933217525482178 -3.970693349838257 1.7380086183547974 -0.8925545811653137 1.7315574884414673 0.3256986439228058 -1.5124815702438354 -1.820845603942871 2.1283159255981445 -2.3269898891448975 -0.31848233938217163 2.080793619155884 0.6360247731208801 2.4165685176849365 0.43180301785469055 -1.9778101444244385 -2.1007537841796875 -0.1178944930434227 1.9807642698287964 -1.3931605815887451 -0.28687041997909546 3.0096335411071777 0.4579628109931946 -0.07037709653377533 1.0333220958709717 -1.2889702320098877 1.9392200708389282 -2.2174534797668457 -2.1241044998168945 1.626262903213501 0.3152156472206116 1.015332579612732 -1.1812602281570435 1.7446303367614746 0.10334429144859314 -2.688910961151123 -0.9838581681251526 1.218468189239502 -0.742503345012664
:person_tipping_hand_light_skin_tone: -0.8127104043960571 1.248401403427124 -0.34232044219970703 -1.33137845993042 -1.399337649345398 -2.209470510482788 -1.5934261083602905 0.1887027770280838 1.65516996383667 2.19376277923584 -0.12663064897060394 0.3181861340999603 0.4217769205570221 -1.4901597499847412 1.7753130197525024 1.12648606300354 -1.5960102081298828 1.0397831201553345 1.3216911554336548 1.9994940757751465 -0.1533467024564743 1.4504334926605225 0.8746232986450195 1.487087368965149 0.07867884635925293 -0.23190458118915558 -0.7780770659446716 1.3476423025131226 -0.4591931402683258 -0.608870267868042 1.6784790754318237 -1.996216893196106 -2.7114341259002686 -0.5209230184555054 -1.1275360584259033 -0.5135933756828308 1.1393465995788574 -0.9098078608512878 0.08088375627994537 0.5635991096496582 1.411729335784912 4.670785427093506 -1.370559811592102 1.29838228225708 1.6534454822540283 1.9991140365600586 0.32515206933021545 -4.534351825714111 -0.5646918416023254 2.51449298858642
:baby_angel_medium_skin_tone: 2.4050095081329346 1.1286709308624268 -1.1091307401657104 0.04690321907401085 1.6279443502426147 2.434149980545044 0.5153148174285889 -0.07919155806303024 -0.2543102204799652 0.29046329855918884 0.6143890619277954 0.8287495374679565 -0.3936225175857544 1.2482714653015137 0.05635526403784752 0.4405515491962433 0.45009371638298035 -0.025593508034944534 -0.050359658896923065 0.3246140778064728 -0.5713641047477722 2.189073324203491 -1.110896110534668 0.6067894101142883 0.8154380917549133 1.1839056015014648 -1.2205467224121094 0.18808835744857788 -1.149085521697998 1.6863908767700195 1.2018628120422363 -1.2184268236160278 -0.9494364857673645 -0.5402973294258118 -0.23091186583042145 1.5513008832931519 -3.7235360145568848 -2.5553362369537354 1.818345069885254 0.5731801390647888 1.337371587753296 1.1873538494110107 0.6024301052093506 1.7260935306549072 2.976353406906128 0.04966120421886444 0.27651113271713257 0.44199252128601074 0.18765614926815033 0.53153103590011
:construction_worker_medium-dark_skin_tone: 0.14361968636512756 2.1735963821411133 0.24340267479419708 0.3329915702342987 -2.0031943321228027 1.1352280378341675 0.16882526874542236 -1.7404009103775024 -0.29152214527130127 -0.32291480898857117 0.3773152828216553 -0.9598039388656616 -1.3714745044708252 0.9239189624786377 1.1822067499160767 -0.294939249753952 -0.8325125575065613 0.38728755712509155 -0.06809522956609726 1.354156255722046 -0.6863951683044434 1.8119642734527588 -1.1072264909744263 0.7143917679786682 0.21383237838745117 1.1480257511138916 0.19082236289978027 -0.20123730599880219 1.853817105293274 -1.6115286350250244 0.30974265933036804 -1.1510785818099976 -0.17411427199840546 0.9230026602745056 -0.6086378693580627 -0.6463183760643005 0.9602596759796143 -0.38858482241630554 1.0166239738464355 -0.8849923014640808 -0.026200348511338234 -1.649793267250061 -2.072911024093628 0.4331333637237549 -0.33503323793411255 -0.4188983738422394 -1.2475581169128418 1.0144133567810059 -1.3792407512664795 -0.1854688227176666
:family_man_woman_girl: 2.0995230674743652 -0.45826274156570435 -0.7006794810295105 0.2620847225189209 0.4217871129512787 1.1231127977371216 -1.7575863599777222 -0.8419013619422913 -0.563713550567627 1.5140907764434814 0.22882282733917236 -0.38594719767570496 1.7303736209869385 1.332930564880371 1.7587075233459473 -1.2257074117660522 2.7406132221221924 -1.8733497858047485 0.9736006259918213 -0.9797514081001282 -0.0477367602288723 -2.2222347259521484 -3.423370361328125 1.644554853439331 -0.6110501885414124 1.4803322553634644 0.45253679156303406 -1.094374179840088 0.8442844152450562 -0.9829856157302856 -0.1425270140171051 -2.0989534854888916 -1.4978166818618774 -0.3646380305290222 -0.8265805840492249 -0.18105299770832062 -1.6498478651046753 3.137403964996338 -1.256343960762024 -0.21181361377239227 0.9641485810279846 0.9292982816696167 -1.9964585304260254 0.05760136991739273 -1.0673718452453613 0.581335723400116 0.7406370639801025 -1.2078206539154053 -0.4854316711425781 -0.2400737255811691
:person_rowing_boat_medium-light_skin_tone: 0.2516598105430603 1.4548137187957764 -1.092265009880066 -1.9215463399887085 -2.1851794719696045 0.0308062806725502 -0.5871195793151855 -0.21139401197433472 0.2152286171913147 0.8564853668212891 0.9351168274879456 0.19492299854755402 0.4284387528896332 0.3916948437690735 -1.325850009918213 -0.6018377542495728 0.9656075239181519 -1.6413331031799316 -0.5809124112129211 -2.296125650405884 0.4568329453468323 -1.2232245206832886 -2.4406495094299316 0.25761714577674866 -1.0152498483657837 0.7366986870765686 -0.670687198638916 -0.7784526944160461 0.25466862320899963 -3.053910732269287 1.3848093748092651 1.8984813690185547 0.1302533745765686 0.418355256319046 0.5750516057014465 0.47170117497444153 0.22188031673431396 1.4873520135879517 -0.2627853453159332 -0.30795469880104065 -0.39042770862579346 -0.5666362643241882 0.11495625972747803 -0.04469737038016319 -0.7635245323181152 0.0393749363720417 0.12041039019823074 0.10044490545988083 2.13480806350708 0.53777968883514
:flexed_biceps_medium_skin_tone: 0.6454185843467712 -1.6169137954711914 -0.5848732590675354 0.8124392032623291 -1.0971975326538086 1.12434983253479 0.2949562668800354 0.020048748701810837 -0.9140527248382568 2.977368116378784 -0.1015150398015976 -1.1962774991989136 -0.59502112865448 1.2828125953674316 -0.16390983760356903 0.42669180035591125 -2.2819786071777344 -1.6337777376174927 3.6946020126342773 -1.6569608449935913 1.7132904529571533 0.746444582939148 -1.9809088706970215 1.5656499862670898 0.5239711999893188 1.765686273574829 -1.1932610273361206 0.5990630984306335 2.196725845336914 1.3722565174102783 0.2757055163383484 -2.41058087348938 -2.5220024585723877 0.5305319428443909 -0.541632354259491 1.7667858600616455 -1.3775421380996704 -1.3239244222640991 0.7047532200813293 0.6959561705589294 -2.144294500350952 1.1214176416397095 -1.5957618951797485 0.1756773591041565 0.05564301460981369 1.350939393043518 -1.3739416599273682 -0.9042171835899353 0.3287564814090729 1.723769664764404
:minibus: 1.9793920516967773 1.5009723901748657 0.4874893128871918 -0.264079749584198 0.2182474434375763 -1.9812142848968506 -0.5809042453765869 1.2203775644302368 -2.173144817352295 -0.9456980228424072 0.11329232901334763 -1.2701351642608643 0.8597671389579773 -0.02791597880423069 0.6021367311477661 -0.14271347224712372 -0.6134580373764038 0.2592400908470154 0.047486934810876846 -1.3008314371109009 -1.4210703372955322 -0.6223611831665039 -2.122410774230957 0.8246415257453918 -0.7487930655479431 1.2484279870986938 0.7889329195022583 1.553653597831726 -1.1859997510910034 -1.484074592590332 -0.4233175814151764 0.4543415307998657 -1.5142298936843872 0.8853521943092346 -0.655787467956543 -1.154134750366211 -0.38746291399002075 0.3912346661090851 1.2394304275512695 0.7962695360183716 -1.2660859823226929 -1.6015362739562988 0.376723051071167 1.8169264793395996 1.287448763847351 -0.3736030161380768 -0.9042180180549622 -0.45581674575805664 1.6033679246902466 -0.408396214246749
:person_walking_dark_skin_tone: 0.7724534869194031 -0.33168888092041016 1.2732081413269043 -0.1912614405155182 0.12035791575908661 0.21033933758735657 0.4657428562641144 -1.2741707563400269 -0.9222996234893799 -1.0295952558517456 -0.013873254880309105 0.30869677662849426 -0.5331404209136963 0.33377113938331604 -0.7456689476966858 0.2753773033618927 -0.23263932764530182 0.07204484194517136 0.0797160416841507 -0.6622771620750427 0.32826751470565796 0.846441924571991 -0.8633585572242737 0.3344249725341797 0.3420577645301819 1.146880865097046 -0.15075060725212097 1.429224967956543 -0.35607847571372986 0.6609976291656494 -0.38396263122558594 -0.05946049839258194 1.0885244607925415 -0.15567031502723694 -0.08615235239267349 0.14532239735126495 0.11235311627388 -0.12687143683433533 -0.7317379117012024 -0.8541922569274902 0.5526837706565857 -0.10059068351984024 -0.9712005257606506 0.1773337870836258 -0.21510230004787445 0.03095669113099575 -0.9650638699531555 0.1906708925962448 -0.2639656364917755 1.6344418525695
:person_surfing_dark_skin_tone: 0.1580262929201126 -0.19772762060165405 0.9984016418457031 0.17493438720703125 0.12581297755241394 -0.22143787145614624 0.2681954801082611 -1.366307258605957 -1.1888080835342407 -0.3099781572818756 0.4466833770275116 0.23686935007572174 -0.033055733889341354 0.5844501256942749 -1.0877631902694702 0.07605788856744766 -1.0038954019546509 0.3944791257381439 0.75640869140625 -0.6713782548904419 0.6586394309997559 0.7151128649711609 -0.36688119173049927 -0.17075039446353912 -0.122879758477211 0.1428813934326172 0.14247702062129974 0.44368138909339905 -1.0357508659362793 0.30344268679618835 -0.6777800917625427 0.5227845907211304 0.6116663813591003 -0.277181476354599 -0.1538415253162384 0.34380292892456055 -0.10555568337440491 -0.3777768611907959 -0.4172901511192322 -0.36882010102272034 0.42317795753479004 0.7555456161499023 -0.7699411511421204 -0.8988989591598511 -0.21061591804027557 -0.33869072794914246 -0.43639254570007324 0.0392480231821537 0.21214772760868073 0.0494133345782756
:reverse_button: 1.0604978799819946 3.969283103942871 1.0165373086929321 -0.822914719581604 0.9891719222068787 -1.8497463464736938 -1.9758453369140625 -0.423589289188385 -1.0562480688095093 -1.449439525604248 -2.11523175239563 1.700921654701233 -0.030831962823867798 -0.4779627025127411 -1.2135159969329834 0.37335923314094543 0.3744328022003174 -1.410346269607544 0.5334011316299438 -1.0953282117843628 0.7661536335945129 0.380685955286026 2.2945914268493652 -1.4530889987945557 0.6604617834091187 1.2947224378585815 -1.782645344734192 -0.706291675567627 -2.1895813941955566 0.9107334017753601 0.1341497004032135 3.107661247253418 0.5862410068511963 -0.1182807981967926 0.17764653265476227 0.900444507598877 1.8904197216033936 -0.4486379027366638 2.152921199798584 0.9665047526359558 0.5597071647644043 -0.6625456213951111 -0.28597021102905273 0.18278810381889343 -0.39928311109542847 0.8945584297180176 0.9959393739700317 1.2067114114761353 0.34331706166267395 2.72843050956726
:guard_medium-dark_skin_tone: -0.5858168601989746 0.9443808794021606 -1.456329345703125 -0.6784157752990723 0.8204973340034485 0.3779441714286804 0.24715283513069153 0.44424909353256226 -1.323932409286499 0.6014342904090881 -0.7395722270011902 0.07933775335550308 -0.08587855100631714 -0.19079704582691193 -0.773788571357727 -0.04731307178735733 0.3103395402431488 -1.5659053325653076 0.8423246741294861 -0.7607998251914978 -0.2939973473548889 1.3832650184631348 0.05570719391107559 0.10248836874961853 -0.055757682770490646 0.7305535674095154 0.6511690616607666 -2.1520345211029053 -0.5746082663536072 0.002631379058584571 -1.179025411605835 1.5056973695755005 -0.5760806798934937 -0.9203980565071106 0.8615666031837463 0.07958129793405533 -0.47740262746810913 -0.007339627481997013 0.9117014408111572 -0.19214235246181488 0.08368821442127228 2.086190700531006 -0.5165314674377441 -0.6817029118537903 0.4940951466560364 0.33865171670913696 0.8193777203559875 -0.5875127911567688 1.6933306455612183 -0.934689223766326
:mountain_cableway: 1.0803003311157227 0.19281631708145142 1.6394410133361816 0.7009804248809814 1.2380285263061523 -1.1068694591522217 -1.217667818069458 -0.6651075482368469 2.297673225402832 -0.5641405582427979 0.858159601688385 -1.6331305503845215 0.3365572392940521 0.2452782690525055 -0.30207768082618713 -0.9173307418823242 -0.7945834994316101 -1.4840596914291382 0.15398399531841278 -0.9401483535766602 1.3347318172454834 -0.35540273785591125 0.49185875058174133 0.4886924624443054 0.8694138526916504 1.6228667497634888 0.43035876750946045 1.5732873678207397 1.0546014308929443 0.022878341376781464 -2.060760498046875 -3.1210012435913086 -1.593520164489746 0.38345402479171753 0.42371079325675964 -1.4747669696807861 0.06476695090532303 0.08272723108530045 1.1194475889205933 -0.9447469711303711 -2.733558177947998 3.435497760772705 -0.27509477734565735 0.4085801839828491 -1.1710278987884521 1.3578053712844849 -0.07350294291973114 -0.6571505069732666 0.06422759592533112 -0.654898762702941
:carp_streamer: 0.16311201453208923 0.15293744206428528 -2.6583824157714844 -0.28449442982673645 -1.0537983179092407 -0.41999176144599915 0.2825121581554413 -1.2540771961212158 0.18534919619560242 1.1692583560943604 -1.3020687103271484 0.7322834730148315 2.8659558296203613 0.19650207459926605 0.5554006695747375 -1.0898314714431763 -0.9962435960769653 1.0596004724502563 0.15222249925136566 0.10331698507070541 0.09403613954782486 -0.10828103870153427 -0.5155938863754272 0.14468292891979218 2.6017370223999023 1.1380306482315063 -2.688894510269165 0.13121627271175385 -0.9037609100341797 -2.075547456741333 -0.45844539999961853 -0.285567045211792 0.01065161731094122 0.9138445854187012 0.2993316352367401 0.9018500447273254 0.811025083065033 -0.20006121695041656 -0.106490358710289 -0.507551372051239 -2.5246646404266357 -0.3578629195690155 -1.2672885656356812 0.9938541054725647 0.40085095167160034 1.043845295906067 0.017476366832852364 0.5839803218841553 0.4549233913421631 -0.022617403417825
:oncoming_fist_medium-dark_skin_tone: 0.19815275073051453 1.6138734817504883 0.5994075536727905 -0.9875726699829102 1.0553245544433594 0.5718122720718384 0.6111388802528381 -1.521703839302063 0.15248635411262512 1.4953243732452393 -1.3632891178131104 0.5584558844566345 -0.5761255621910095 0.717260479927063 1.8753752708435059 -0.13138462603092194 1.022280216217041 -1.2956818342208862 0.8055590987205505 1.6998857259750366 0.8739194869995117 0.2545718252658844 -1.064524531364441 0.6338163018226624 -0.8053524494171143 0.3296736776828766 1.0862942934036255 0.2984205186367035 0.9026035666465759 2.5728981494903564 1.4620798826217651 0.4607200622558594 1.8677759170532227 -0.3280541002750397 0.33962661027908325 -0.49202510714530945 -2.005664348602295 -0.2947760224342346 0.05887492746114731 -1.2321488857269287 -0.97038733959198 -1.5661754608154297 0.6766781806945801 -0.6059392690658569 0.6496120095252991 -0.5594167113304138 -1.1453503370285034 1.4976224899291992 1.1779152154922485 -0.472399562597274
:oncoming_fist_medium_skin_tone: -2.524557590484619 1.1861484050750732 -0.4940221905708313 -1.846341848373413 2.416045904159546 0.46841755509376526 -0.11477188020944595 0.25281214714050293 0.721413791179657 2.5015604496002197 0.2528791129589081 0.6072142124176025 -0.0450977124273777 0.6645663380622864 0.5608434677124023 1.5622336864471436 -1.115531086921692 -0.6889908313751221 -1.9284322261810303 -0.422747403383255 -0.39927512407302856 -4.051212310791016 0.0005307045066729188 0.9384410381317139 -1.688572645187378 0.5067275166511536 0.48232579231262207 -1.3943371772766113 -0.519801139831543 -1.2053236961364746 -1.0350208282470703 0.4623132646083832 -0.4071691930294037 -1.658514142036438 0.4625924825668335 -0.35998621582984924 -1.5770320892333984 0.2799513041973114 -0.49485909938812256 -0.6412628889083862 -0.0735916793346405 0.318554550409317 0.06569783389568329 0.05394769459962845 -0.7204461693763733 0.1104278713464737 -1.5494111776351929 0.6142392158508301 -0.5530750751495361 -0.0471001453697681
