1661 50
:Slovakia: -0.0552382618188858 0.1041129380464553 0.0227850656956434 0.1489694267511367 -0.0396318100392818 0.0627724900841713 0.2357457280158996 0.068902887403965 -0.0705794841051101 -0.1250804513692855 0.0512417517602443 -0.1742016673088073 0.1106099262833595 -0.0490128956735134 -0.0096392137929797 0.0143004897981882 -0.0151163218542933 -0.1410818397998809 -0.0017332241404801 0.1753437668085098 -0.0378630943596363 -0.2023058980703354 -0.0316058658063411 0.0567273199558258 -0.0460283569991588 -0.0279107633978128 0.0288596004247665 0.0742930918931961 -0.133195474743843 0.0225477460771799 0.0147251449525356 0.1339274793863296 -0.1272924542427063 0.0099147940054535 -0.1461444199085235 -0.2856519520282745 -0.0066226772032678 -0.059847354888916 0.0439019985496997 -0.012744533829391 -0.0167589895427227 -0.0797984600067138 0.2278783619403839 -0.2411147058010101 -0.0148189291357994 0.1187777072191238 -0.3107480108737945 0.1174406707286834 0.2305890321731567 -0.0627671033143997
:necktie: -0.2555611729621887 -0.0455298535525798 -0.252109557390213 0.3068180978298187 0.0381662175059318 -0.0821361392736435 -0.1102073341608047 0.0442363023757934 -0.248979315161705 -0.2518898546695709 -0.0139195974916219 0.0740223377943039 -0.2195592820644378 -0.0374358184635639 -0.1126596927642822 -0.0915407612919807 -0.2050449401140213 -0.146614521741867 0.3184019327163696 0.0151871433481574 0.0370033420622348 -0.0152503354474902 -0.3595688641071319 0.1422380656003952 -0.3499858677387237 0.0830527618527412 0.0485097244381904 -0.0222346745431423 0.0314012914896011 -0.2056629657745361 -0.1464538723230362 0.073072999715805 -0.0416670069098472 0.2210483849048614 -0.0451329313218593 0.0602350197732448 -0.1035519018769264 0.3418301045894623 -0.1354218870401382 -0.0635724961757659 0.1579866111278534 -0.1896333992481231 -0.0879368633031845 0.1092654690146446 -0.1992396265268325 -0.3554655313491821 0.0202911887317895 0.0392718240618705 0.0697506964206695 0.1562174260616302
:cyclone: 0.3248075246810913 -0.0732840970158577 -0.0198750365525484 0.1696858704090118 -0.4941235482692718 -0.299890786409378 0.269625574350357 0.1634111255407333 0.1633792072534561 -0.0680936723947525 -0.1299091726541519 -0.1970366835594177 0.1080066189169883 0.230881467461586 -0.0362291038036346 0.1034739762544632 -0.1139622181653976 -0.1545677781105041 -0.1166997998952865 0.0823103785514831 -0.0946327447891235 -0.2459243535995483 0.1918877363204956 -0.0972056090831756 0.2189899235963821 0.3600229918956756 0.1777554750442505 0.070441648364067 0.1334060877561569 0.3756280839443207 -0.3246248662471771 -0.3364537358283996 0.2990670800209045 -0.262090802192688 -0.1907853633165359 -0.1349788010120391 -0.2998038232326507 -0.1770700067281723 0.1968333572149276 -0.0599467828869819 -0.5205256938934326 0.1279739886522293 0.2867065370082855 -0.1668460518121719 -0.0105264149606227 0.2655323445796966 0.2144844084978103 -0.1287084072828292 -0.0540827810764312 0.0615592300891876
:water_closet: 0.1511429101228714 -0.0137146888300776 0.2408792525529861 -0.182993933558464 -0.0750678703188896 -0.1348636150360107 0.3156211078166961 0.0791681036353111 -0.1200855821371078 -0.0871761441230773 -0.2683965861797333 0.1629931032657623 0.0272702649235725 0.0255155321210622 0.1747891008853912 0.265773057937622 0.1375796645879745 0.0580824427306652 0.3295951187610626 0.2944624722003937 0.447028636932373 0.0183760002255439 -0.0179431103169918 -0.1264335662126541 -0.2630452215671539 0.1140011548995971 -0.0778853595256805 -0.0382416322827339 0.1473755538463592 0.2750096917152405 -0.3966862857341766 -0.0585848428308963 -0.0237854197621345 -0.0943879932165145 0.0009460657602176 0.4556526839733124 0.1203781589865684 0.322096586227417 0.0529851280152797 -0.1157508492469787 0.2728747129440307 -0.1721050441265106 0.2770062088966369 0.2246223986148834 -0.1061036363244056 0.2316725999116897 -0.1401985585689544 -0.1196795850992202 0.2711239457130432 -0.1440825313329696
:ogre: 0.2988173365592956 -0.3665241301059723 -0.1653426438570022 0.1998639702796936 0.0499357245862484 0.0395041033625602 0.2266291975975036 -0.0608932450413703 -0.3386601209640503 0.2175979614257812 0.0279533397406339 0.3291770219802856 0.0669419541954994 0.1188190057873725 -0.0314784459769725 -0.1475979536771774 0.0460510924458503 0.1837476193904876 -0.1488902568817138 0.2236299365758896 -0.0062890578992664 -0.0923770368099212 -0.1562070250511169 -0.0619462952017784 0.0961141735315322 0.1166160553693771 -0.0403854362666606 -0.300344854593277 -0.0632656961679458 -0.1927872449159622 -0.2861223220825195 -0.0512188673019409 0.3664332926273346 -0.1586924046278 0.0748204812407493 0.3696678876876831 0.1053012087941169 -0.3698719441890716 -0.0459240488708019 -0.1974624544382095 -0.3460531830787658 0.0910701528191566 0.0394996888935565 -0.3645927906036377 0.2131176888942718 0.1863797754049301 0.1215568929910659 -0.0903414413332939 0.1425393223762512 0.1624947041273117
:restroom: 0.1782767176628112 0.3295779526233673 0.1009077131748199 -0.189270332455635 0.2519427537918091 -0.0531432926654815 -0.0172904375940561 0.2119809985160827 0.1536386460065841 -0.0507786497473716 -0.1371356099843979 -0.0510861054062843 -0.2106886655092239 0.1628121137619018 0.3231191635131836 0.0004394971765577 -0.0580828934907913 -0.0695134550333023 0.3928599059581756 0.2796551585197449 0.0896411165595054 0.2691079378128052 -0.2493881583213806 -0.0857303291559219 0.0630927756428718 0.0787446498870849 0.2785471081733703 0.1021025031805038 -0.0743671804666519 -0.0694989264011383 -0.1753981709480285 -0.1297664940357208 0.0148724038153886 -0.1102863848209381 -0.2253933399915695 0.2015270292758941 0.2435174435377121 0.1224229633808136 0.1206543520092964 -0.1087336763739585 0.2458489090204239 0.0247551891952753 0.2210732102394104 0.3106691837310791 -0.0721063986420631 0.1741996854543686 -0.2188801616430282 0.0927953049540519 0.1212662979960441 -0.0808058679103851
:men_holding_hands: -0.0776177495718002 -0.11836938560009 0.1527742445468902 -0.1758424639701843 0.1153614968061447 0.1597061455249786 -0.0349676311016082 0.3323319256305694 -0.299377828836441 0.0338592045009136 -0.1442969292402267 -0.081709399819374 -0.2256032973527908 0.0250513218343257 0.1628018617630005 -0.4567785561084747 0.0629221498966217 -0.1919450610876083 0.0950200483202934 0.1414868384599685 -0.0179699454456567 0.2324244529008865 0.1399898827075958 0.1464661657810211 -0.2596715688705444 -0.0052941413596272 0.13406303524971 -0.3987601101398468 -0.3630335032939911 -0.2373893558979034 -0.1928002685308456 0.1411421000957489 -0.1262717545032501 -0.1520274877548217 0.0194949246942996 -0.2639251053333282 0.0114802615717053 0.0377458818256855 -0.0850226059556007 0.1770385205745697 -0.1977197676897049 -0.2233176380395889 0.1614507138729095 0.3591205775737762 0.0514107048511505 -0.3231271207332611 -0.3545624911785126 -0.1255885064601898 -0.2024178057909011 0.1606531590223312
:Fiji: -0.2493018954992294 -0.2114146649837494 -0.0246887076646089 0.0903349891304969 0.0060523734427988 -0.1721169501543045 0.0249621663242578 -0.1967135220766067 -0.1119393184781074 -0.1034479588270187 0.1760384291410446 0.1605788022279739 -0.0327080488204956 -0.1414928138256073 -0.0211251955479383 0.0144851962104439 -0.0636733993887901 -0.0952855721116066 0.0687691941857338 0.0200763270258903 0.0641454234719276 0.0044309729710221 -0.2389130443334579 -0.0720231086015701 0.1078704968094825 -0.0576781779527664 0.1528707593679428 -0.1251287013292312 -0.2733933925628662 0.2744800150394439 0.0218151621520519 0.2616767287254333 0.103714682161808 0.0011720415204763 0.072442315518856 -0.1724624782800674 -0.0652209445834159 -0.0601051710546016 -0.1579755395650863 0.0677487477660179 -0.1394042521715164 -0.1745204627513885 0.1734288185834884 -0.0626890435814857 -0.0923257991671562 0.0957844480872154 0.0254240650683641 0.2678402960300445 0.1469082981348037 -0.0662906318902969
:headphone: -0.2448447793722152 -0.128229022026062 0.1793958246707916 -0.0278821438550949 -0.127541109919548 0.0490091815590858 0.3068574070930481 0.0467595905065536 0.0948652029037475 0.3110345900058746 0.1799613684415817 0.0362766906619071 0.0984125584363937 -0.0432832762598991 -0.1866021007299423 0.1484222263097763 0.0475298836827278 0.0104243420064449 0.2702968716621399 0.0682627409696579 0.0579191409051418 0.1656035482883453 0.1973597407341003 0.1389687359333038 0.3360507190227508 0.3198925256729126 0.135282278060913 0.05782475695014 -0.2005887180566787 -0.2946086823940277 -0.246234506368637 -0.0575073920190334 0.3977316319942474 -0.0837859585881233 -0.13600854575634 -0.0294454228132963 0.0193136278539896 -0.1129797101020813 -0.0294570848345756 -0.1357107311487198 0.2700313925743103 0.0178788676857948 -0.1610691249370575 -0.1961089074611663 0.1946383565664291 0.1840076744556427 0.4091531634330749 -0.0561060681939125 -0.3909206390380859 0.1750701814889907
:pig_nose: 0.1527062505483627 -0.3156048357486725 -0.1449562162160873 -0.353798896074295 0.2048877626657486 0.0407020896673202 -0.1019940972328186 -0.3064033091068268 0.2793171107769012 -0.0513040721416473 -0.0505160689353942 0.1178148090839386 0.1816422939300537 -0.1144871860742569 -0.0247023440897464 -0.0238148365169763 -0.0212421249598264 -0.0583461821079254 0.2905956506729126 0.0804852098226547 -0.1658633351325988 -0.159721553325653 0.2611133158206939 -0.0892185345292091 -0.0098162945359945 0.2740289270877838 -0.0127405086532235 0.2535881102085113 -0.0102320667356252 -0.0903340056538581 -0.3473992645740509 -0.0276293102651834 0.0652369633316993 0.1461613923311233 -0.1780360490083694 -0.0094157019630074 -0.1270413845777511 0.236379936337471 0.2521042227745056 0.0166553109884262 0.0181141830980777 -0.0707595497369766 0.0802237167954444 -0.1235129162669181 0.4569433629512787 0.1306528747081756 -0.1285974085330963 -0.0715017020702362 0.02137709595263 0.225527137517929
:tractor: -0.2368154674768448 -0.1021872833371162 0.2010106593370437 0.2046341598033905 -0.305593729019165 0.0531367287039756 -0.1225750967860221 0.1731283664703369 0.1741319894790649 -0.0756620615720748 -0.1210644841194152 -0.2538706064224243 -0.0693686082959175 -0.2393614947795868 -0.0851930007338523 -0.1251220107078552 0.1864029616117477 0.2197024822235107 0.1038064509630203 0.005208340473473 0.2505336999893188 -0.0991716757416725 -0.1982239931821823 -0.047729767858982 0.0630668029189109 0.1622476577758789 -0.0998842418193817 -0.2603167593479156 0.1220556050539016 0.0133485160768032 -0.1169412359595298 -0.4207145571708679 0.234766885638237 -0.0479532033205032 0.1903090178966522 0.1626073867082595 0.1556369662284851 0.1149942874908447 0.1760368198156356 0.3148050606250763 -0.0484548322856426 -0.4939624369144439 0.0453224368393421 -0.0068944203667342 0.1105455085635185 -0.3347133696079254 -0.0043615363538265 0.0756366252899169 0.1270356178283691 0.2610998153686523
:Cancer: 0.3947626650333404 0.2401396930217743 0.0247730165719985 0.121229700744152 0.0130342608317732 0.1096144393086433 -0.0708540081977844 -0.1743349879980087 -0.1188429519534111 0.3137305676937103 0.1661050915718078 0.242810845375061 -0.0264264624565839 0.1559124439954757 0.274159699678421 0.0353691056370735 -0.1208668649196624 -0.1983570009469986 0.1069648936390876 0.2212190479040146 -0.2299008965492248 -0.1058442220091819 0.0903691053390502 -0.0200507901608943 0.0573214888572692 0.1642981320619583 0.0122025543823838 -0.3196372985839844 -0.3371768891811371 -0.021628824993968 -0.1772697269916534 -0.0104367826133966 0.0178502649068832 -0.3457456529140472 0.0892872810363769 -0.0508338771760463 -0.154363140463829 -0.219410240650177 -0.0692682713270187 0.0637860596179962 -0.2344653159379959 0.0064608035609126 0.2020560652017593 0.074863776564598 -0.1647575497627258 0.1869418174028396 0.0360937975347042 0.3365814983844757 -0.1382671445608139 -0.0611290894448757
:no_smoking: -0.0239015612751245 -0.0969779714941978 0.2390111237764358 -0.1217015460133552 -0.4649147391319275 0.3297849297523498 0.3538254797458648 -0.0244967117905616 0.2230352610349655 0.377376914024353 0.1079372838139534 -0.0457353629171848 -0.1841804832220077 -0.2602960169315338 0.0767034888267517 0.4190878868103027 0.3218346834182739 -0.1943683624267578 0.2609391808509826 -0.2053816169500351 -0.2433682233095169 0.1790198981761932 0.300070971250534 -0.1498392522335052 -0.1733555346727371 0.0888913050293922 -0.1525613814592361 -0.0148611003533005 0.0940095633268356 0.2874050736427307 -0.3404339253902435 -0.0233765095472335 -0.1708687990903854 -0.3017379939556122 -0.2341506630182266 -0.3595356941223144 0.304923415184021 -0.013627634383738 0.3652839064598083 0.325619101524353 -0.1796639114618301 0.073978304862976 0.484937459230423 0.4057318568229675 0.0693374499678611 -0.1215810105204582 -0.3502333462238312 0.072997972369194 0.0900091081857681 0.2989232242107391
:no_pedestrians: 0.3075778186321258 0.1312161684036255 0.1713635027408599 -0.049590028822422 -0.0109471473842859 -0.2192890644073486 0.2306695729494094 0.1151679381728172 0.1528654545545578 -0.0636254549026489 -0.1616813689470291 -0.2546661496162414 -0.0283842198550701 -0.4046717584133148 0.0517198555171489 0.1507177501916885 0.2363125532865524 -0.1997332721948623 0.0369511246681213 0.1037344262003898 -0.1129738092422485 0.030083954334259 -0.1331504583358764 0.0905966609716415 0.1049457937479019 0.2095656245946884 0.1879429668188095 -0.115004189312458 0.2318708747625351 0.0042019723914563 -0.0161970220506191 -0.0797793790698051 0.0122816385701298 -0.0344304703176021 -0.0163137577474117 -0.0448688007891178 0.2441603690385818 -0.0408192351460456 0.0551558434963226 0.3480819165706634 -0.0404370762407779 -0.0491981692612171 0.3146117031574249 0.1606978923082351 -0.3082404434680938 -0.2087549567222595 -0.023506412282586 -0.0635944157838821 -0.0702305287122726 0.4265024065971374
:calendar: -0.0655944570899009 0.0258155353367328 -0.1214835867285728 -0.0114266201853752 -0.3834940195083618 -0.0700232535600662 -0.0185701623558998 0.0673137456178665 -0.0484933517873287 -0.1251154094934463 0.0177878160029649 -0.202791541814804 -0.2970107495784759 0.0098467823117971 0.3821212649345398 -0.0367285087704658 0.0137382671236991 -0.2478239983320236 0.0387607999145984 0.4067597389221191 -0.0676078051328659 0.0591201558709144 0.0795476213097572 0.0534471720457077 0.0266226045787334 0.0428485870361328 0.0587054155766963 -0.3672832548618316 -0.2061441391706466 0.3873654901981354 -0.1130837872624397 0.0347637273371219 -0.2166561931371688 0.1015345975756645 0.0060571483336389 -0.0644236356019973 0.1316582113504409 0.2156827598810196 -0.0043034888803958 0.1338430345058441 -0.3342560827732086 -0.1388516277074813 0.0075880722142755 -0.1622752696275711 -0.0579928122460842 0.2380924820899963 0.165110096335411 0.0357583053410053 0.0652278512716293 0.1081658750772476
:barber_pole: -0.2608331441879272 -0.0981572940945625 0.0002878371160477 -0.1574644148349762 0.1291541904211044 -0.0753357335925102 -0.1027674376964569 -0.1025519296526908 -0.0848564729094505 -0.0411138497292995 -0.0522025749087333 0.0392517894506454 -0.0863233357667923 -0.0740957483649253 0.0195893384516239 -0.3413660526275635 -0.0268505066633224 0.0604264438152313 0.1260456442832946 -0.1160607784986496 0.0145443566143512 0.1800680160522461 -0.2017742842435836 0.0447313338518142 0.0094500733539462 0.1865873783826828 -0.0281718336045742 -0.1390506029129028 -0.1981664448976516 -0.2103982120752334 -0.1304985731840133 -0.1645924896001815 -0.0584643632173538 0.0823660865426063 0.1138368919491767 -0.0771049037575721 -0.0813480541110038 0.2267277240753173 0.1210577711462974 0.3054412007331848 0.2026340812444687 0.1770654171705246 -0.0274394620209932 0.1555953025817871 -0.1880947649478912 -0.1617623418569564 0.1100034266710281 -0.0667002126574516 0.0047110319137573 0.095389686524868
:check_mark: -0.2333059161901474 -0.1171460077166557 -0.0357906818389892 -0.1590642035007476 -0.0982136279344558 0.0588644370436668 0.0694718956947326 0.0850341767072677 0.0668454691767692 0.0348394103348255 -0.1640289574861526 -0.1087920293211937 -0.1559540182352066 -0.128673106431961 0.0115693649277091 0.0593462735414505 0.1575620770454406 -0.2562542855739593 -0.0640288293361663 -0.0193480271846056 0.07285787910223 -0.1031455025076866 -0.0940965861082077 -0.3029913902282715 -0.1155172958970069 -0.0469459071755409 0.0392394736409187 -0.1468602269887924 0.0037486096844077 0.2819173336029053 0.0136826140806078 0.0223877001553773 0.0699164569377899 0.0190963521599769 -0.0554405562579631 -0.1322739422321319 0.0457289665937423 0.1119914203882217 0.0431402325630188 0.0866508483886718 0.039788756519556 0.2064792811870575 0.0243076458573341 -0.0522970892488956 -0.1172633245587349 0.0308413244783878 0.0563036575913429 0.1057594865560531 -0.2080718576908111 0.0791852921247482
:person_pouting_medium-light_skin_tone: -0.2421955317258834 0.0530966036021709 -0.1440140902996063 -0.04423164203763 0.1104075983166694 0.0993010625243187 0.0410065464675426 -0.0548141188919544 -0.0540236234664917 0.0493555702269077 0.0961988568305969 0.0522552393376827 -0.0613278709352016 0.1850064545869827 0.0311390161514282 -0.0587919577956199 0.0673845186829567 -0.128479316830635 0.1025838330388069 0.0328825525939464 -0.0523185245692729 0.122148223221302 -0.0106444088742136 0.0810491219162941 -0.1523853689432144 -0.1483813971281051 0.0167484991252422 0.1173932775855064 -0.0726077482104301 0.0468590073287487 -0.0382831171154975 0.1197922602295875 0.0204786527901887 -0.095386303961277 0.188937246799469 0.0571904107928276 0.0527579896152019 0.0315944626927375 -0.0859486833214759 -0.1466767638921737 0.0811971873044967 0.1438994705677032 0.0941714346408844 0.1398729681968689 0.0799115896224975 -0.0092092510312795 -0.0108959712088108 -0.0933456048369407 -0.317357987165451 0.0652675554156303
:cocktail_glass: -0.1055639386177063 -0.2752247154712677 -0.3016377687454223 0.0219111703336238 0.0535319186747074 0.0170345474034547 0.0726053714752197 0.1422536075115203 -0.2525318264961242 0.2091762721538543 -0.0377964004874229 -0.3377110064029693 0.2357674539089203 0.0099253840744495 0.0532657839357852 -0.0307228397578001 -0.0915981605648994 -0.0663170143961906 0.3450791537761688 -0.2130251824855804 0.333150565624237 0.1416573226451873 -0.0017981007695198 0.3137262165546417 -0.4367348253726959 0.324197769165039 0.1109355762600898 0.0231893099844455 0.1542236059904098 0.2008016109466552 -0.1456660628318786 -0.2818563282489776 -0.0001346967183053 0.0178539995104074 0.2240377962589264 -0.112547181546688 -0.0016740658320486 0.3503281474113464 0.4819653034210205 0.3196544051170349 0.2473897039890289 0.1198987364768982 0.2430094629526138 0.2152026444673538 0.2032075971364975 0.2623936235904693 -0.3267912566661834 -0.0420349277555942 0.2909527719020843 0.1013134941458702
:person_shrugging: -0.075153648853302 -0.1588704586029052 0.0400824546813964 -0.1397802382707595 0.0815244987607002 -0.1298670172691345 0.2964193820953369 0.10930135846138 -0.1665109992027282 0.0226280987262725 -0.0253183338791131 0.0104579525068402 -0.2231730222702026 -0.2640937864780426 -0.0576723925769329 0.0107678147032856 -0.1009375676512718 -0.2000528573989868 0.2941331267356872 0.1395763903856277 -0.0548911802470684 0.2935228645801544 -0.0442114397883415 -0.2690416276454925 0.1150161474943161 0.1688036769628524 -0.0174191240221261 0.0880130752921104 -0.1674322932958603 0.272062748670578 -0.1808081418275833 0.1647493690252304 0.2611609399318695 0.1923539489507675 -0.2115389853715896 -0.2172792851924896 -0.0878965482115745 -0.0967351570725441 -0.0316528528928756 -0.0800500512123107 -0.0207122918218374 0.068644218146801 0.0280776787549257 0.0997039526700973 0.0037754061631858 -0.0080999126657843 0.2390814125537872 0.3397799432277679 -0.1539056599140167 0.1460267454385757
:closed_umbrella: -0.1019742488861084 -0.0743986368179321 0.3069398403167724 0.3917415738105774 -0.3111433982849121 -0.229127436876297 0.0895622745156288 -0.2676707804203033 0.3130496144294739 0.0618569999933242 0.0205188058316707 -0.3276709914207458 0.0301295332610607 -0.0203178655356168 -0.2846546471118927 0.2101244926452636 0.0915251225233078 -0.201256588101387 0.1531739085912704 0.1082716211676597 -0.1132196560502052 0.0825076699256897 0.1202399879693985 -0.3019818663597107 -0.2684171497821808 0.3432439863681793 0.2102905064821243 -0.028205893933773 0.0546254739165306 0.3340919017791748 -0.0174636784940958 -0.3350721001625061 -0.0446110852062702 -0.1804202049970626 -0.473750501871109 -0.1781087815761566 0.0490803234279155 -0.1753201186656952 0.3846440017223358 0.1018633544445037 -0.0645108371973037 -0.195554181933403 0.1108325347304344 0.0227162912487983 -0.0596104711294174 0.0498730167746543 -0.3323219716548919 -0.2646119892597198 -0.1927096247673034 -0.021800972521305
:police_car: 0.1003835126757621 -0.1806996166706085 0.2599904537200928 -0.1105489283800125 -0.1090795844793319 -0.0785986483097076 0.0994623824954032 0.2722269892692566 0.0678353682160377 -0.117765337228775 -0.1977658867835998 0.1056811586022377 -0.2763185501098633 -0.2798159122467041 0.2037573456764221 -0.2955989837646484 0.0433438681066036 0.025378044694662 0.0598101913928985 0.1947314739227295 0.235023483633995 0.0635122135281562 -0.1712624877691269 0.0938644632697105 -0.4565263986587524 0.1312695890665054 0.1072180643677711 -0.3598762452602386 -0.0237982384860515 0.0581123828887939 -0.0807494223117828 -0.0158118791878223 -0.1978927254676818 -0.3991335928440094 0.3159790337085724 0.1786909103393554 0.0557038150727748 -0.02617909014225 0.1398243457078933 0.1276469528675079 -0.0451532676815986 0.1542744040489196 0.1938603669404983 -0.1068800315260887 -0.1586505025625229 -0.349275678396225 -0.2402988821268081 0.1948892176151275 0.2791120707988739 0.1773562431335449
:fried_shrimp: 0.0828152596950531 -0.3745412826538086 -0.1256119310855865 0.2918258011341095 -0.0771390870213508 0.1878060847520828 -0.0408106781542301 0.2863196432590484 0.1757633090019226 -0.1006417423486709 0.0871094241738319 0.1916593462228775 0.198233276605606 0.0783610343933105 -0.0471665896475315 -0.1723515391349792 0.4656181931495666 -0.2737748026847839 0.0562396198511123 0.1569612473249435 0.1303572952747345 -0.3792221248149872 0.0587173551321029 -0.0081019364297389 -0.0280098915100097 0.3427161872386932 0.2727104425430298 -0.1980773657560348 -0.1151147708296775 0.110012799501419 -0.330566257238388 -0.2049382179975509 0.0495904386043548 0.1206503808498382 -0.1451920121908188 0.1557363420724868 -0.3534653186798095 0.1861063987016677 0.249840572476387 -0.0180190801620483 -0.1146013289690017 0.1061188802123069 0.3621732592582702 0.1168045252561569 0.1412500143051147 0.1277639716863632 -0.3386653959751129 0.1038591116666793 -0.078132264316082 0.251912921667099
:heart_with_arrow: 0.1777110397815704 -0.0958156883716583 0.2973198592662811 -0.1293593496084213 -0.1983011662960052 0.2956990301609039 0.0799155682325363 0.0512243285775184 0.0399685129523277 0.2939696907997131 0.2225027084350586 0.0320927836000919 -0.1191694587469101 0.1672338396310806 -0.232887253165245 -0.042045097798109 -0.1439819484949112 0.0902145206928253 0.0029197868425399 0.2652157247066498 0.0517011918127536 0.0888874679803848 -0.177273228764534 0.0081512629985809 0.3196383714675903 0.0751312673091888 -0.2041845470666885 -0.1249475106596946 -0.0184468682855367 -0.0609732866287231 -0.0842552259564399 -0.2402461320161819 0.0554744787514209 0.142689898610115 0.2315436005592346 0.0265327095985412 0.1773836314678192 -4.924974200548604e-05 0.1110214740037918 -0.0596814714372158 0.0573422871530056 -0.152994230389595 -0.0596124045550823 0.0114010423421859 0.1027380898594856 0.0085281310603022 0.1747723817825317 -0.1180281937122345 0.0064119976013898 0.1924881041049957
:oncoming_police_car: 0.0692083090543747 -0.2869561910629272 0.3439708352088928 -0.0638575553894043 -0.0797028392553329 -0.1182858943939209 -0.1337657570838928 0.286897748708725 0.1331596672534942 -0.0695996358990669 -0.1883796006441116 -0.1423528343439102 -0.2920758128166199 -0.1409856379032135 0.1824865490198135 -0.1214252412319183 -0.0843113884329795 -0.0143676362931728 0.2015532106161117 -0.0598223991692066 0.2137291431427002 0.0090677570551633 -0.2061641216278076 0.0498031005263328 -0.1320240795612335 -0.0145534230396151 0.3164102435111999 -0.442112535238266 0.0562049895524978 0.2219990342855453 -0.1186397299170494 0.1699060350656509 -0.1198748648166656 -0.4005648493766784 0.135316327214241 0.1261802762746811 0.1611024588346481 -0.1101095527410507 0.2765881717205047 0.1780385076999664 -0.3089019358158111 0.1592643558979034 0.0493125133216381 -0.0787060931324958 0.0730471089482307 -0.2152515053749084 -0.2590394914150238 0.1716952323913574 0.2345933467149734 0.2979537844657898
:woman’s_clothes: 0.022495049983263 -0.0380018763244152 -0.3604038953781128 -0.1322340667247772 0.030873816460371 -0.075383573770523 -0.0508114844560623 0.0375648364424705 0.2694971859455108 -0.2126606851816177 0.1056681498885154 -0.2964639663696289 -0.0258147828280925 -0.2113362997770309 0.0458308346569538 0.0529272779822349 -0.2654240131378174 -0.0930992439389228 0.5072205662727356 0.1098085790872573 0.0742210373282432 0.4566126465797424 -0.0058978972956538 0.1501857936382293 -0.3336799144744873 0.217014878988266 -0.0783573016524314 0.0099127907305955 0.1559764146804809 -0.0231271963566541 -0.1641511172056198 0.1351871788501739 0.0864849388599395 0.0767961367964744 0.1103673800826072 0.2645048201084137 0.019701424986124 0.1607028096914291 0.0672436133027076 -0.0145662045106291 0.1533247828483581 0.0091231297701597 0.0730596035718917 0.1398360729217529 0.1371604651212692 -0.2802378833293915 -0.1162444874644279 -0.0927725508809089 0.1202139407396316 0.184179425239563
:penguin: 0.1617088615894317 -0.1154283434152603 -0.1034936681389808 -0.0658676102757453 0.0347414202988147 -0.0153700681403279 -0.1473666280508041 -0.1313651651144027 0.0095260590314865 -0.0262402184307575 -0.1122242510318756 0.2493128031492233 -0.0712359175086021 0.06480223685503 0.2244031280279159 0.1523534953594207 0.2509113252162933 -0.1179662495851516 -0.0689765587449073 0.2193115800619125 -0.1806802898645401 0.2128030210733413 -0.0360147096216678 0.1328070312738418 0.0799775943160057 0.2309931218624115 -0.0891797766089439 -0.1663488000631332 -0.206412211060524 0.212803840637207 -0.1742544174194336 -0.1290272772312164 0.1730869710445404 0.1576010882854461 -0.0331340916454792 -0.427870512008667 -0.0947199836373329 -0.2760282754898071 0.0416733771562576 -0.1690885424613952 -0.1751185804605484 -0.2333718389272689 0.2998937964439392 -0.0376615040004253 -0.1605979651212692 -0.0044217980466783 0.1311266422271728 0.102632500231266 -0.2573158740997314 0.2659385800361633
:fish_cake_with_swirl: -0.1052852123975753 -0.2776755690574646 -0.1401962041854858 0.2700559794902801 -0.3095519840717315 0.1339583992958068 0.1058317348361015 0.1213787347078323 0.0211358424276113 0.3858689069747925 -0.2789883613586426 0.2902996242046356 0.2414684295654297 0.1574749201536178 -0.146002247929573 -0.0224658921360969 0.1745399683713913 0.1130823120474815 0.2201256901025772 0.0523564182221889 0.2257063239812851 -0.1663498729467392 0.2264759689569473 0.0493504144251346 0.118272379040718 0.4632476270198822 0.0708640366792678 0.0264656580984592 0.1195617914199829 0.0876650139689445 -0.2881081700325012 -0.1623503565788269 0.1430128961801529 0.2406127899885177 -0.0730801224708557 0.0127800591289997 -0.4744732975959778 0.0834943428635597 0.1356183737516403 0.0967600718140602 -0.1114865690469741 -0.033042337745428 -0.1763020455837249 -0.0732007548213005 0.0290299504995346 0.1988000720739364 0.2389701306819915 0.1103375032544136 0.0186211839318275 0.0157631896436214
:teacup_without_handle: -0.0752119868993759 -0.2069745361804962 -0.1011431813240051 0.2826169431209564 -0.2276675701141357 -0.0649128034710884 0.1295625865459442 0.0592846013605594 0.3038917183876037 -0.0085305450484156 -0.1265732944011688 0.1646240800619125 0.4055021107196808 -0.025658069178462 0.0637440979480743 -0.0132279517129063 0.0020732842385768 0.2593317627906799 0.051497958600521 -0.1440425366163253 0.0796540826559066 -0.095380887389183 0.2823613584041595 -0.1030681058764457 0.1093427315354347 0.2759633958339691 0.1344830989837646 0.249908909201622 0.1953077614307403 0.2624087631702423 -0.1351233720779419 -0.0384174138307571 0.0741386488080024 0.0723004415631294 -0.1665404736995697 -0.0047505334950983 -0.2889015078544616 0.4436791241168976 0.1650207489728927 -0.0945277512073516 -0.006802667863667 -0.1027028784155845 -0.184978649020195 0.103534497320652 0.1581407934427261 0.2013589292764663 -0.226552739739418 0.0263123828917741 0.1700734943151474 0.1853521913290023
:scissors: -0.0007437871536239 -0.1557463705539703 0.0342542976140975 -0.2106243669986724 -0.187093898653984 0.1302633583545684 -0.0158264376223087 -0.1637276709079742 0.0691910609602928 -0.0414652191102504 -0.0710884854197502 -0.0967530757188797 0.0414675250649452 -0.0254888143390417 -0.3301667273044586 0.0438046231865882 0.2470151633024215 -0.16568024456501 0.0645119100809097 -0.1289453655481338 0.0790319219231605 -0.1197526082396507 -0.0557901747524738 -0.2227566242218017 -0.0732323676347732 -0.076707549393177 0.0175595544278621 -0.0232380926609039 0.0851547569036483 0.0705299824476242 -0.1341808885335922 0.0289079528301954 -0.0151964668184518 -0.0307370088994503 -0.1214737445116043 0.0491113513708114 -0.3042515516281128 0.1650556176900863 0.1114130318164825 0.0854209810495376 -0.0647510066628456 0.0504010803997516 0.0170532669872045 0.0759384930133819 0.0153238857164978 0.0471941269934177 0.163081020116806 0.0553923770785331 -0.010397202335298 0.1078210920095443
:glasses: 0.3334836065769195 0.2296321839094162 0.1350159049034118 -0.0624840669333934 -0.0306595526635646 0.0175534039735794 0.2716742157936096 -0.0431829988956451 -0.2843288481235504 -0.0934182256460189 -0.1571490168571472 0.0362656824290752 -0.1101901605725288 0.1169878467917442 -0.2445345968008041 0.4988971948623657 0.0251376722007989 -0.365227073431015 0.225424975156784 0.0849922224879264 -0.1876122653484344 0.3188088834285736 0.0101956566795706 -0.0954361408948898 -0.0949627757072448 0.3731234967708587 -0.1874109953641891 0.0614818073809146 0.0454725846648216 0.1553669422864914 -0.2409435361623764 0.1826967447996139 -0.0333566144108772 -0.4173144400119781 -0.008086678571999 0.1413783282041549 -0.1303872317075729 0.2563929557800293 -0.2064114958047866 -0.0925546810030937 0.1977713108062744 0.2705238163471222 0.2927660346031189 0.0641740784049034 -0.1472056061029434 -0.1575255542993545 0.2433633208274841 0.1469797641038894 -0.0896900370717048 -0.0343592204153537
:no_entry: -0.086534634232521 0.2027382105588913 -0.0366136133670806 0.1715141683816909 -0.1389750689268112 -0.0125833814963698 -0.0884074196219444 0.0895579978823661 -0.0273100715130567 -0.1259793937206268 -0.0763418301939964 0.0234353188425302 0.0268549229949712 -0.0595055148005485 0.1529124081134796 0.0677511617541313 0.0873155668377876 -0.2179673016071319 0.1556468158960342 -0.03923324868083 0.0017779349582269 -0.0581958033144474 -0.2342899888753891 0.0385425314307212 -0.0113510005176067 0.0471283681690692 0.1593557447195053 -0.1625072658061981 -0.081806980073452 -0.0510134659707546 0.0479650534689426 -0.1284720301628112 -0.04633155092597 -0.1874094903469085 0.138473093509674 -0.0503738150000572 0.1037455797195434 -0.1276447176933288 -0.1181739568710327 0.036865159869194 0.1727684438228607 -0.1410497277975082 0.2174202650785446 0.0982555374503135 -0.1730981320142746 -0.0646421834826469 -0.2468206286430359 0.2705089747905731 0.1621832400560379 0.1484893858432769
:guard: -0.122535116970539 -0.0712885633111 -0.0002757346082944 -0.1594103574752807 0.0402525439858436 -0.2848472595214844 0.0380764007568359 0.5179837942123413 -0.0388980433344841 -0.3845952749252319 0.0753892138600349 0.3266043365001678 0.0428319796919822 -0.1296793967485427 -0.2809754014015198 0.0103976624086499 -0.0067510735243558 -0.0207205172628164 -0.0488232374191284 0.1999215930700302 -0.0438604913651943 0.1994602531194687 -0.4507460594177246 -0.3162775933742523 -0.3299353718757629 -0.0260610375553369 0.2406878322362899 -0.3342992961406708 -0.3527922928333282 0.233188658952713 -0.2192432135343551 -0.1468272805213928 -0.0746114403009414 -0.033204335719347 0.4189996123313904 0.2352152913808822 0.1705843657255172 -0.122094489634037 -0.2946463227272033 0.1119831353425979 0.0269102547317743 0.3800317347049713 0.1724020093679428 -0.0418055616319179 -0.1266594976186752 -0.1016345173120498 -0.1964158713817596 0.1102791354060173 -0.2598853409290313 0.1026189923286438
:ID_button: -0.1728559136390686 -0.2956930100917816 0.3042597770690918 0.0218926239758729 0.0503789074718952 -0.0495028384029865 0.0086197340860962 0.137472778558731 0.32640540599823 -0.0139990886673331 0.1876767575740814 -0.1665859520435333 0.0687073096632957 -0.2318807989358902 -0.1533108204603195 -0.1088448762893676 0.0241338908672332 -0.1927489787340164 0.3431599140167236 0.0685102492570877 -0.2235822528600692 -0.1435496658086776 -0.0102431010454893 -0.0370466485619545 -0.1200499609112739 0.1023001670837402 -0.2256363481283188 -0.3265193402767181 -0.0017520883120596 -0.0751071646809578 -0.1781667321920395 -0.213665634393692 -0.3034214973449707 -0.261033296585083 0.1087402403354644 0.178912416100502 0.0257703345268964 0.0457533821463584 0.013816462829709 0.0982003584504127 0.1035853028297424 0.1571041792631149 -0.00201544072479 0.1351924240589141 -0.022018002346158 -0.226912260055542 -0.0220830552279949 0.3708964884281158 0.3671735823154449 0.0799485594034195
:confused_face: 0.1687383353710174 -0.2355507612228393 0.0293332338333129 -0.1243065148591995 -0.0401246435940265 -0.1441905498504638 0.1047279760241508 0.105525903403759 -0.5963056683540344 0.3379136919975281 -0.0804381594061851 -0.1981297433376312 -0.1785630583763122 0.0249045100063085 0.0673203393816948 -0.0784091800451278 0.29838427901268 -0.2317374646663665 0.2705446779727936 0.2366470098495483 -0.2598451972007751 0.2787369787693023 0.1051178276538848 0.4314546883106231 0.3332397639751434 0.1348779946565628 -0.1903395801782608 -0.0160306971520185 -0.1735731661319732 -0.2007075250148773 -0.3137077689170837 -0.0706566646695137 0.2606944441795349 -0.4220425188541412 -0.0518771857023239 -0.0589700639247894 -0.0243469886481761 0.1071048229932785 -0.1738669425249099 0.1010875478386879 -0.2014119327068328 -0.1053543761372566 0.0628338232636451 0.1433349847793579 0.0054510259069502 0.1142711639404296 0.0203676037490367 0.1041017770767211 0.1817664802074432 0.2548120021820068
:Japanese_dolls: 0.1109833121299743 -0.0389949828386306 -0.0240861363708972 -0.1133576184511184 -0.0685249418020248 -0.2451733201742172 -0.0490048341453075 0.327734500169754 -0.3381577432155609 0.0813065022230148 0.053193237632513 -0.0648247003555297 0.1841944903135299 -0.2812035381793976 0.2576116621494293 0.1583627015352249 -0.1781759262084961 0.0813506320118904 0.1348306685686111 0.4302514195442199 0.2853061556816101 0.0798569470643997 -0.2891071736812591 -0.2063326984643936 0.1492860466241836 0.2465647459030151 -0.0947954505681991 -0.5383461117744446 -0.3324595689773559 -0.0472987927496433 -0.1675128787755966 0.1316658109426498 0.0841602683067321 0.0532059632241725 0.1646792143583297 0.0216019116342067 0.3760952353477478 0.0607839673757553 -0.0700477436184883 0.0804898217320442 -0.5265401005744934 -0.4469345808029175 0.1091823652386665 -0.2437231391668319 0.3676362335681915 0.0874964594841003 -0.1841044723987579 -0.1890044808387756 -0.2738909125328064 0.0729866847395896
:person_swimming_light_skin_tone: -0.1735602021217346 -0.0178296156227588 -0.0138347558677196 0.2079195827245712 -0.093797355890274 -0.0003919937298633 -0.1635306626558303 0.0633514747023582 0.1859209537506103 -0.2027365863323211 0.019970903173089 -0.1009982228279113 0.0263763703405857 0.036550436168909 0.0208353493362665 -0.0376000553369522 0.1079321652650833 0.1332812458276748 -0.0307417958974838 -0.0554206483066082 -0.0152519578114151 0.196703627705574 0.047854870557785 0.0136850820854306 0.1844083815813064 0.1652433276176452 -0.0160948634147644 0.0026566935703158 -0.1226908341050148 0.1228780820965766 -0.1165687292814254 -0.2342366725206375 -0.0193550270050764 -0.0400240011513233 0.2036815732717514 0.0354953929781913 -0.0538348220288753 0.0536687262356281 0.0489825755357742 -0.1376712471246719 -0.0278995987027883 -0.038729079067707 0.060588426887989 -0.1274330765008926 0.1640912741422653 -0.0963204354047775 0.0554110445082187 -0.0406376905739307 -0.0545645207166671 0.0317289531230926
:red_exclamation_mark: -0.0560917071998119 0.1356127560138702 -0.1183379292488098 -0.0461997725069522 0.1699489951133728 -0.1053517088294029 0.2029934376478195 -0.0622902661561965 -0.0639259442687034 0.0498276278376579 -0.063608705997467 -0.021258370950818 -0.0129823358729481 -0.1538212448358535 0.0180290229618549 -0.1561427116394043 0.169535830616951 -0.0078652119264006 0.0030873951036483 0.0114087918773293 -0.1683716922998428 -0.1534138172864914 -0.1727946996688842 -0.2253052294254303 -0.0608455836772918 -0.0288660153746604 -0.0200541578233242 0.0658721625804901 0.048395849764347 0.0081119500100612 -0.1277932822704315 -0.1390524804592132 0.0663197338581085 0.2065995931625366 -0.0592040754854679 -0.0915645584464073 0.1131650730967521 0.1232910454273223 -0.0283497478812932 0.222256064414978 0.0086737629026174 0.0926940441131591 0.0118791069835424 0.014653786085546 0.0092757232487201 -0.11619583517313 0.0892591848969459 -0.0760312303900718 -0.126593068242073 0.063125155866146
:thought_balloon: 0.3475466668605804 -0.1710148751735687 0.2123199701309204 -0.2721109092235565 -0.2533321976661682 -0.0569073520600795 -0.1997314244508743 0.1779415607452392 -0.0732431933283805 0.4089646935462951 -0.0767003446817398 0.0918252393603324 -0.1239248290657997 0.1016217991709709 0.1798084825277328 0.0881589651107788 0.2473670393228531 -0.0760755613446235 -0.1791739612817764 0.1324912160634994 0.0333315208554267 0.0839590802788734 0.0073138675652444 -0.1279889643192291 0.2869130074977875 0.1322693973779678 -0.3466231822967529 -0.1571939140558242 0.087699569761753 0.1704116612672805 -0.1831645220518112 -0.0539670139551162 -0.0595380887389183 -0.1766828149557113 -0.2800018787384033 -0.2762040197849273 -0.0391483679413795 0.1454759985208511 -0.004646164830774 0.0373272076249122 -0.2393359094858169 -0.1771236509084701 -0.1320695579051971 0.1338440328836441 -0.1494858115911483 0.0990882515907287 0.1762641221284866 0.0952188149094581 -0.1812200844287872 0.3024546205997467
:speech_balloon: 0.213208258152008 -0.0354438722133636 0.1391317397356033 0.0141619117930531 -0.3772063851356506 -0.1701803654432296 -0.1216720268130302 -0.0183750689029693 -0.1630217134952545 0.2810649573802948 -0.0759579315781593 0.0683232620358467 -0.1474766731262207 0.1231188476085662 -0.0864856541156768 -0.0959994420409202 -0.2330989390611648 -0.0477770902216434 0.0242878012359142 0.2073147892951965 0.3391034603118896 0.2783710360527038 -0.0707253366708755 -0.0612325817346572 0.2334744185209274 -0.026873841881752 0.0747995898127555 -0.0771538913249969 0.0276259146630764 0.4541658163070678 -0.2087596505880355 -0.178310826420784 -0.0872073322534561 -0.3210614323616028 -0.457164466381073 -0.1832684725522995 -0.0651966035366058 0.01871476508677 -0.2271169275045395 0.0474752523005008 0.2447351515293121 0.1593919396400451 -0.3759812116622925 0.0875623375177383 -0.0180882886052131 -0.2748273611068725 0.1491554230451584 0.2126521170139312 -0.2518202364444732 0.3181230127811432
:flower_playing_cards: -0.0344714224338531 0.2210574150085449 -0.0818968117237091 0.3430411517620086 0.0238501876592636 -0.1376165002584457 -0.1690227091312408 -0.1777146607637405 0.0292796567082405 0.1768196374177932 0.0598756149411201 0.3798384964466095 -0.2067087292671203 -0.016657343134284 0.3152744174003601 -0.2646794617176056 0.0425118990242481 -0.1119230911135673 0.0216237567365169 0.1011814773082733 0.1356226801872253 -0.3022487163543701 0.0155614921823143 -0.1359754353761673 -0.1758445054292678 0.2630509734153747 0.3703858852386474 -0.3292126655578613 -0.2294060140848159 -0.1062493249773979 -0.0537756122648716 0.0397026613354682 0.1187463998794555 -0.3199926912784576 0.246347889304161 0.2881765067577362 0.3735783398151397 0.0485933907330036 -0.2399929910898208 -0.160344198346138 -0.159464493393898 -0.0771580561995506 -0.3111418187618255 -0.1299450844526291 -0.4257209002971649 -0.1749926507472992 -0.0468939952552318 0.0484916120767593 -0.091583251953125 0.1852917820215225
:Taurus: -0.0239750165492296 0.1709015071392059 0.0204512123018503 -0.0076834224164485 -0.0705916061997413 0.1212432980537414 -0.2483660131692886 -0.086994394659996 -0.3606395125389099 0.3493508398532867 0.3189062476158142 0.4102260768413543 -0.0150797786191105 0.0137546984478831 0.1221107766032219 0.0343815274536609 -0.1976860165596008 -0.0278629567474126 -0.0483809746801853 0.0509599670767784 -0.1591261178255081 -0.270393818616867 -0.0862156078219413 0.0761597603559494 -0.0234244726598262 0.127697005867958 -0.0076752370223402 -0.3743472397327423 -0.3291248679161072 -0.0516551248729229 -0.2587043642997741 0.1576904952526092 -0.129041239619255 -0.0714520066976547 0.1700528711080551 -0.4324404895305633 -0.1462956964969635 -0.2550583183765411 -0.1303476691246032 -0.050873652100563 -0.1080614179372787 -0.0938847288489341 0.0702513456344604 -0.0708538442850112 -0.1529362499713897 0.1305219233036041 0.1847126930952072 0.3221176564693451 -0.030475502833724 -0.2294719964265823
:balance_scale: 0.2375761419534683 -0.1748636364936828 -0.0519626103341579 -0.0378905534744262 0.1576168090105056 0.093225322663784 0.379594624042511 -0.0987097471952438 -0.0092119919136166 -0.1775222718715667 0.1147274151444435 0.0743184089660644 -0.0425617471337318 0.0582225285470485 -0.162051647901535 -0.0689865499734878 0.043255940079689 -0.0475604459643363 0.1346104741096496 -0.0817064717411995 -0.0062928721308708 -0.0232236664742231 0.0847842618823051 -0.0342235565185546 -0.0227461662143468 0.1149692237377166 0.1318471580743789 -0.14202281832695 -0.2816219925880432 0.0758764594793319 -0.1347277164459228 -0.2317901253700256 0.0930737629532814 -0.2483028322458267 0.048942781984806 0.0050311260856688 -0.166999951004982 -0.079993262887001 0.2366807162761688 0.2534724771976471 -0.1250802725553512 0.2724854052066803 0.1864654123783111 0.192238375544548 -0.1774789690971374 -0.0772660747170448 0.1905345916748047 0.1882314831018448 -0.0560373328626155 0.0269444715231657
:Indonesia: 0.03235400095582 -0.017138747498393 0.0518210940062999 0.0322143621742725 -0.0628690496087074 -0.319582849740982 0.0814980641007423 -0.0724855437874794 0.0513772517442703 -0.1025512441992759 0.0799422711133956 -0.0299266651272773 0.1708479821681976 -0.1720121949911117 0.0401440002024173 0.0489586591720581 -0.0778920277953147 0.0035184444859623 0.179210215806961 0.0939036831259727 0.0575827024877071 -0.0838293954730033 -0.0926836505532264 -0.0259467791765928 -0.1732491254806518 -0.0574127323925495 0.1176544427871704 -0.0596879720687866 -0.0989345461130142 0.0830041840672493 -0.04542688280344 0.0616911314427852 -0.2472369223833084 -0.0934464707970619 0.0207569748163223 -0.0558728128671646 0.1114511415362358 -0.1153455823659896 -0.2597861289978027 0.0758584067225456 -0.0117314085364341 -0.0963431820273399 0.0280230846256017 -0.1285656988620758 -0.2312072813510894 0.1904491931200027 -0.0113725680857896 0.3253994584083557 0.2381551861763 -0.0170514415949583
:motor_scooter: 0.1187020912766456 -0.1162787675857544 0.1159052699804306 0.3284086585044861 -0.2982421219348907 0.1328109055757522 0.2126073092222213 0.0349264740943908 0.1224710494279861 0.0689621865749359 0.1244481280446052 -0.2259963154792785 -0.2580501437187195 -0.2246284484863281 -0.1255737096071243 -0.3100644946098327 -0.1812648326158523 0.1447581052780151 0.0357512086629867 -0.1394657343626022 0.1002679988741874 -0.1067540720105171 -0.1227354109287262 -0.0107627985998988 0.1024966910481453 0.2639297842979431 0.0167262144386768 -0.1903375387191772 -0.218404084444046 0.2653175592422485 -0.2923945188522339 0.0894645601511001 0.184066355228424 0.066263347864151 0.0859235674142837 -0.3124209940433502 -0.0434905029833316 0.0235375203192234 0.0236991569399833 0.3495566844940185 -0.3481882810592651 -0.1959940940141677 -0.0618414543569088 -0.0695269033312797 -0.1665104031562805 -0.1117573976516723 0.1945248693227768 0.0229498110711574 -0.0849959626793861 0.2766253352165222
:left_arrow: -0.2126961648464203 -0.0378697961568832 0.0280869789421558 -0.0133156701922416 -0.0086153484880924 -0.0622285939753055 0.0244292896240949 0.0080579994246363 -0.0672686770558357 -0.0133892865851521 -0.1221886873245239 0.0089639090001583 0.0441156886518001 0.157074823975563 -0.2425756156444549 0.1038037911057472 -0.0490898191928863 0.0144543852657079 0.0983708351850509 -0.1314083188772201 -0.0593578293919563 -0.0522752478718757 -0.047430396080017 -0.0119787482544779 -0.1174510940909385 0.0225722156465053 0.0369942337274551 0.0822800174355506 -0.0069025601260364 -0.0496536828577518 -0.1499128937721252 -0.0871006622910499 -0.0449347496032714 -0.0815584659576416 0.0299553982913494 -0.1651940941810608 0.0229827184230089 -0.0420982539653778 -0.1149472817778587 -0.0305306538939476 0.006647705566138 0.1577717363834381 -0.1618958711624145 -0.0943864658474922 -0.0837119743227958 -0.0985283181071281 0.1459966301918029 -0.1111335232853889 0.0263943970203399 -0.0493882186710834
:ledger: 0.1872844845056533 0.2302774339914322 0.019671382382512 -0.1908489912748336 0.0560521110892295 0.1341250091791153 -0.1799943447113037 -0.1214573755860328 0.3342100381851196 -0.0950747653841972 -0.1618166416883468 0.3000472486019134 -0.117783099412918 -0.1280541718006134 0.2894285023212433 -0.1174715906381607 -0.094807930290699 -0.2369130551815033 0.0714122131466865 0.165126159787178 0.1415111422538757 -0.2227627485990524 0.1669737249612808 0.0900638550519943 -0.0284397192299366 0.1240410283207893 0.0248211324214935 0.1301978975534439 -0.0825574621558189 -0.0761423483490943 -0.1485166549682617 -0.3950921297073364 0.3454784452915191 -0.0779412612318992 -0.0123684806749224 0.1396101266145706 -0.1656604558229446 0.0181309152394533 -0.0327971428632736 0.0246084369719028 0.2503973245620727 -0.0073937498964369 -0.0967135727405548 -0.1127648204565048 -0.1986534297466278 -0.0556639432907104 0.2967062890529632 -0.00488161155954 -0.0182302501052618 -0.0066952924244105
:enraged_face: -0.0461665913462638 -0.210970938205719 0.0378710255026817 -0.2618190944194793 -0.2134062349796295 0.0610922314226627 0.3970631659030914 0.4560218751430511 -0.3183835744857788 0.1950228214263916 -0.1604869216680526 -0.0398523099720478 -0.1630807369947433 -0.10444987565279 0.1905325949192047 -0.0005185745540075 0.2630941867828369 -0.1853430122137069 0.1001481860876083 0.1024090200662612 -0.5335668921470642 0.1024879366159439 0.0708857849240303 0.1154166832566261 -0.1347413808107376 -0.103390134871006 0.1500607430934906 0.0902587100863456 0.1761717349290847 0.1154243573546409 -0.2285684496164322 0.1638926118612289 0.0834931805729866 -0.2376669496297836 -0.3263174593448639 -0.0537263266742229 -0.257827877998352 -0.3093141615390777 0.109435923397541 -0.1386725753545761 -0.1395833194255828 0.271847665309906 0.1583390682935714 -0.0119026368483901 0.2776393890380859 0.0166125148534774 -0.0659648030996322 -0.037549152970314 -0.1013412922620773 -0.0217706263065338
:Morocco: -0.0475198701024055 0.0914874598383903 -0.0364501886069774 0.1025116816163063 -0.02630733884871 -0.0561076067388057 0.0513869896531105 0.0571434758603572 -0.0094787674024701 0.1000439450144767 0.1114041805267334 -0.1998602896928787 0.0240462869405746 -0.1476132571697235 -0.1253181844949722 0.0065134344622492 -0.0493156835436821 -0.2409090846776962 0.2688585221767425 0.3126863539218902 -0.1465758830308914 -0.1158208698034286 0.1556112766265869 0.1216955929994583 -0.0320659801363945 -0.0845008343458175 0.1338834315538406 -0.2507708668708801 -0.2934290766716003 0.0374186113476753 0.0293338987976312 0.0955300629138946 -0.2025034874677658 -0.0635793507099151 -0.0692769438028335 -0.0928892493247985 0.0141793200746178 0.1578710675239563 -0.1523260623216629 0.0950079336762428 0.0824147388339042 0.0250252727419137 0.1254696995019912 -0.1622025966644287 -0.0706843063235282 0.0050572608597576 -0.235624223947525 0.2191910445690155 0.0587449148297309 -0.0731059908866882
:Switzerland: 0.0714857503771781 0.0505135096609592 -0.0722821354866027 0.0450942032039165 -0.0135524049401283 -0.0223143305629491 -0.120707169175148 -0.0971727147698402 -0.202472299337387 -0.1703089922666549 0.2553825378417969 -0.0042959335260093 -0.0538190267980098 -0.0158788170665502 -0.1044725999236106 -0.1804008483886718 -0.0159585960209369 -0.2777224481105804 -0.1177199780941009 0.1788880974054336 -0.1461018174886703 -0.1698111295700073 -0.0695919543504715 0.0236382540315389 -0.2678510546684265 0.1418268829584121 0.1897942125797271 -0.1256466507911682 -0.1929274201393127 -0.1364503502845764 -0.1312895268201828 -0.0857123881578445 -0.0095440540462732 0.0148151498287916 -0.2095848172903061 -0.1396256387233734 0.0202267989516258 -0.1195369288325309 -0.2878809869289398 0.255629301071167 0.1472627967596054 -0.1565261781215667 0.2022708058357238 -0.2764230072498321 -0.2707969546318054 -0.0521016642451286 -0.1760225147008896 0.0395120158791542 0.0210000053048133 -0.0845478251576423
:soft_ice_cream: -0.0842706337571144 -0.0159812774509191 -0.1055511832237243 0.0725971534848213 -0.0667818933725357 0.0878549367189407 0.2243039309978485 0.2485374063253402 -0.151199534535408 0.0235044062137603 0.1049766540527343 0.0771411061286926 0.2264330983161926 0.0403089672327041 -0.2147212326526641 0.0740906447172164 -0.0628663152456283 -0.0639239475131034 0.599737286567688 -0.1200958788394928 0.0065083373337984 -0.0306086763739585 0.2960041463375091 -0.0923549830913543 -0.2825003266334533 0.1903393417596817 0.3955199122428894 -0.0571780763566494 0.2138674110174179 0.4457259178161621 -0.1077999249100685 -0.2316003292798996 0.0195381920784711 0.1457572430372238 -0.0136391194537281 -0.0022566008847206 -0.1926126778125763 0.3558720052242279 0.1879329830408096 0.2729621529579162 -0.0651967748999595 0.1559268087148666 -0.0348822735249996 -0.0003359773545525 0.3198716342449188 0.2102389931678772 -0.2289363145828247 -0.0435596592724323 -0.1391083002090454 0.4080298542976379
:red_exclamation_mark: -0.0397635176777839 -0.0133982179686427 0.1155991107225418 -0.0612284280359745 -0.015930451452732 -0.094702772796154 0.2215261310338974 -0.0682625696063041 0.047628715634346 0.0685308873653411 -0.0853616893291473 -0.166996955871582 0.0110931992530822 -0.1560230255126953 -0.1052024662494659 -0.2440030127763748 0.198908194899559 -0.0563631132245063 -0.2443339228630066 -0.0230298191308975 -0.1278388798236847 -0.1428800523281097 -0.1682525426149368 -0.0578698925673961 -0.0167674981057643 0.0479749739170074 -0.0326085798442363 -0.1150187775492668 0.020669799298048 0.0682656019926071 -0.0472612306475639 -0.2940495014190674 0.1564745157957077 -0.0291399583220481 -0.0009278721408918 0.106049820780754 0.1376461684703827 -0.0971471145749092 -0.0130988527089357 0.2236230671405792 0.1440877169370651 0.0107403611764311 -0.1249364018440246 0.076634481549263 -0.0429131351411342 -0.1195917204022407 -0.0601259134709835 0.015691015869379 -0.1492743790149688 0.0396701209247112
:globe_with_meridians: 0.3712128102779388 0.1949374824762344 0.4279944002628326 0.2262948155403137 -0.0151530308648943 -0.3182156383991241 -0.0717252716422081 -0.1165503114461898 0.3677413463592529 0.0274709947407245 -0.0705460533499717 0.0294236969202756 -0.1258531808853149 0.0762378871440887 0.0579580850899219 0.2164335995912552 0.2704766392707824 -0.0590654909610748 -0.0096376268193125 0.5707247853279114 0.079827532172203 0.0939594507217407 -0.0093680284917354 0.0162388179451227 0.3899784982204437 0.2978963851928711 -0.0045480439439415 -0.2580549120903015 -0.1094096153974533 0.051772441715002 -0.0609319955110549 -0.0076463487930595 0.269172340631485 -0.2254879474639892 -0.0680420771241188 0.0492110401391983 -0.3888710737228393 0.1788324564695358 0.1281691044569015 0.0668589994311332 0.0403069518506526 0.032587930560112 0.0579946972429752 -0.0646665841341018 -0.3909996449947357 0.2414600253105163 0.0727181062102317 0.0003625847166404 -0.1518033444881439 0.1488715410232544
:ferris_wheel: 0.0054703424684703 0.0172057040035724 0.0380073934793472 0.197864294052124 -0.3813812136650085 -0.1308928579092025 -0.0309623796492815 -0.2833202481269836 0.2317247837781906 -0.0413394421339035 -0.3606797158718109 -0.113568514585495 -0.4699566960334778 -0.1872764974832534 -0.05269306153059 0.3816312551498413 0.2924729883670807 0.1972349435091018 0.0227193720638752 -0.1159715875983238 0.1084153354167938 0.0004600407264661 -0.3883839547634125 0.2066113799810409 0.2084190249443054 0.1710093468427658 0.0988486260175705 -0.1676927655935287 -0.1815399229526519 0.0780933499336242 -0.1667754650115966 -0.0397685281932354 0.1840693652629852 0.0138222659006714 0.2068863958120346 -0.0662944316864013 0.2020528018474578 0.0914049968123436 -0.0843617543578147 0.2295039445161819 -0.239917442202568 -0.0272837411612272 -0.3658709824085235 -8.268259989563376e-05 -0.3248765468597412 -0.0340385399758815 0.0611833482980728 -0.0864234343171119 0.1138726249337196 0.2232660800218582
:Zambia: -0.0821027159690857 0.2305354475975036 -0.0013799475273117 0.087093748152256 -0.0351009778678417 0.0525988079607486 -0.0648458302021026 -0.2207337468862533 0.1535143405199051 -0.0267739612609148 0.0364102348685264 -0.0109426258131861 -0.0467135608196258 -0.245435893535614 0.0563288517296314 -0.1205356642603874 0.2073826789855957 -0.0778675898909568 0.0186129976063966 -0.1100970953702926 0.0350453555583953 -0.2218382507562637 0.0092444214969873 -0.0745309516787529 -0.1041477471590042 -0.0656048879027366 0.2347407937049865 -0.0091990856453776 -0.2572276294231415 -0.004341387655586 0.041984062641859 0.0173368901014328 -0.1237032711505889 -0.0784706845879554 -0.0686326995491981 0.1079000830650329 0.1691676378250122 -0.149779811501503 0.0595862157642841 -0.075421817600727 -0.0399584844708442 -0.0309843830764293 0.0725006908178329 -0.1481760293245315 -0.1865804940462112 0.072560504078865 -0.1718431562185287 0.0409893728792667 -0.0090052839368581 -0.0396646633744239
:face_with_thermometer: 0.0968701690435409 -0.128000870347023 0.2783244848251343 -0.2700260281562805 -0.0786553397774696 0.1169276535511016 0.2799267172813415 0.4044156074523926 0.2066940814256668 0.1593783497810363 -0.148132637143135 -0.0414195284247398 0.1518805623054504 -0.1734147071838379 0.1635362654924392 0.0203482303768396 -0.04786853864789 0.0230053421109914 0.1300425827503204 0.3122999668121338 -0.145201489329338 0.2222467809915542 0.2122068405151367 -0.0943505465984344 0.0453492328524589 -0.0597674883902072 0.2031574994325637 -0.309144914150238 0.0792686939239502 0.1574839353561401 -0.1126444488763809 0.0738084837794303 0.1898512244224548 -0.2186084687709808 0.1165953427553176 -0.2929202020168304 0.2101721316576004 0.2046589404344558 0.3538558483123779 -0.1193003132939338 -0.0601056516170501 -0.0464429073035717 0.2995788156986236 0.1581203192472458 -0.1445181220769882 0.1672498881816864 0.0438268147408962 0.2542501986026764 -0.1606667637825012 0.2513813972473144
:unlocked: 0.0375194065272808 -0.058457463979721 0.2297172844409942 0.1080783978104591 -0.1391780525445938 -0.1717090904712677 -0.056416917592287 0.2175486981868744 -0.0224911738187074 -0.0113198682665824 -0.1562984138727188 0.0966272428631782 -0.2073777765035629 0.2031585574150085 -0.0395918898284435 0.1403330266475677 0.3394432961940765 -0.165381908416748 0.2615330219268799 0.0145811904221773 0.0321171171963214 0.0895473808050155 -0.2601657807826996 0.2316439151763916 -0.145196795463562 0.1437729895114898 0.2146063894033432 -0.1593975573778152 -0.0355877205729484 -0.1756506264209747 -0.1599224507808685 -0.1926844418048858 -0.0175470151007175 -0.137917548418045 0.055616233497858 0.1732425689697265 0.2045917361974716 -0.0664169788360595 0.0077095469459891 0.0456554517149925 -0.0040989955887198 -0.2221105098724365 0.2274416238069534 0.1632924824953079 -0.1713024526834488 0.1777800917625427 0.0597220659255981 -0.0815635323524475 0.0252559334039688 -0.1951856166124344
:violin: -0.144392654299736 0.0265758670866489 -0.2015587836503982 -0.0980012193322181 -0.2314442694187164 0.0627348721027374 -0.0552339516580104 0.2125824093818664 -0.1202388927340507 0.3482877314090729 0.1579847931861877 -0.0777428299188613 -0.0699076279997825 0.1904690861701965 -0.0904357284307479 -0.1769341230392456 0.1040344908833503 -0.1090233102440834 0.1488856971263885 -0.0188854560256004 0.2710150480270386 0.1045657247304916 -0.2309157699346542 0.1159098595380783 0.090365782380104 0.3645786643028259 -0.1500887721776962 -0.2926418483257293 -0.3236811757087707 0.0033308723941445 -0.2208545804023742 -0.3935649693012237 0.3086330592632293 0.1279228925704956 0.211912602186203 -0.0905839875340461 0.1944518238306045 0.0815829709172248 0.1582735329866409 0.1337175965309143 0.0225515104830265 -0.1729526370763778 -0.0340961962938308 -0.1335894912481308 -0.0002355173492105 0.1034980863332748 0.0584975183010101 0.2198155373334884 -0.3386013805866241 0.2920811772346496
:cat_with_tears_of_joy: 0.0604088343679904 -0.0782760381698608 0.0792638063430786 -0.1000058352947235 0.0228816047310829 -0.0353246107697486 0.1705747544765472 0.252482146024704 -0.1200417801737785 0.1636147946119308 -0.3018234372138977 0.1083854660391807 -0.1070997789502143 -0.2662286460399627 0.2108094096183776 -0.1790003031492233 0.1586308628320694 -0.0609777681529521 0.0759847834706306 0.2108594179153442 -0.1753322780132293 0.1638186126947403 0.0935751944780349 -0.0734252631664276 0.4856755435466766 0.1656549274921417 -0.1438794583082199 -0.0356302075088024 0.0038143941201269 -0.169376790523529 -0.0769079402089119 0.1052210852503776 0.0478839203715324 -0.0666035413742065 -0.2255817949771881 -0.1828734278678894 0.1246007233858108 -0.2213128954172134 0.0839676707983017 -0.0126036666333675 0.0243621040135622 -0.061302438378334 -0.2498081922531128 0.0302965324372053 0.0795184224843978 0.0663606449961662 -0.1745747774839401 -0.1281654238700866 -0.0361921899020671 0.0150966653600335
:litter_in_bin_sign: 0.1398416757583618 -0.0544318072497844 0.2087489813566208 -0.217242881655693 -0.0004372916009742 0.1005004569888114 -0.0456456653773784 -0.0086257504299283 0.1280687153339386 -0.0190454591065645 -0.0850953310728073 -0.0420558303594589 0.0723572075366973 -0.2183310091495514 0.1808218508958816 0.0082926731556653 0.2800073027610779 0.1930723786354065 0.2136557251214981 0.1285916864871978 -0.0543691217899322 -0.2697397172451019 0.2252036780118942 0.0808436423540115 0.0626918971538543 0.0891972109675407 0.0871497094631195 0.0544868148863315 0.1622296720743179 0.0012862727744504 -0.0814702808856964 -0.0931238010525703 -0.0354565046727657 -0.4871412813663482 -0.1483886688947677 0.2128720730543136 0.17697474360466 0.0194664672017097 0.1441327035427093 0.0855859518051147 -0.2168865948915481 -0.1816140413284301 0.0085529573261737 0.1559625715017318 -0.0515958480536937 0.1880429983139038 -0.1914744824171066 0.072262018918991 0.3694701790809631 0.0575016178190708
:alien: 0.2646263241767883 -0.0073465034365653 -0.0862607285380363 0.1530682891607284 -0.0215853750705719 -0.114886350929737 0.0441910624504089 -0.1025023236870765 -0.0087236678227782 -0.0324178859591484 -0.0407315716147422 0.1820997148752212 0.0917368307709693 0.0323506519198417 0.2822201251983642 -0.371135950088501 0.1331650465726852 0.02261458709836 -0.0632929131388664 0.2622611820697784 0.0550729185342788 0.0685605406761169 0.0923800393939018 0.0611889064311981 0.0934949070215225 0.3234113156795501 -0.164462462067604 -0.3096325695514679 0.0521395467221736 0.2054396420717239 -0.3636703491210937 -0.3154935836791992 -0.3000406920909881 -0.1508996039628982 -0.2036860436201095 0.0768264979124069 -0.0865995287895202 -0.1426078677177429 0.0304083060473203 0.2103158235549926 0.161002829670906 -0.3271823525428772 0.1244717463850975 0.1404794603586197 0.0249881260097026 -0.3232583403587341 0.0024724795948714 0.1508754640817642 0.3062237799167633 0.165886640548706
:full_moon_face: 0.4373010098934173 0.1682555973529815 -0.2358041852712631 0.0015225680544972 -0.0290945786982774 -0.0163887608796358 0.0113420765846967 -0.074962630867958 -0.2562327086925506 0.0291802547872066 -0.2747553288936615 0.1194626167416572 -0.13533915579319 0.2820165455341339 0.1407007128000259 -0.129447191953659 0.4039512574672699 -0.1265825927257537 -0.2398075461387634 -0.0967925861477851 -0.1495918035507202 0.1454319208860397 0.1089534908533096 -0.1208065152168273 0.040501307696104 0.3795952498912811 -0.0398924686014652 0.0418635532259941 -0.0022101232316344 0.1773752868175506 -0.0592683963477611 -0.0538494959473609 -0.31574347615242 -0.013231836259365 0.0439995713531971 0.0982105582952499 0.0748095288872718 0.0232468824833631 -0.1318469494581222 -0.2335135042667389 0.0128711368888616 0.0467659756541252 -0.0338965207338333 -0.4115508794784546 -0.1009775251150131 0.0686255618929863 0.2743382155895233 0.1767788231372833 -0.2077477723360061 0.1795355826616287
:Hungary: -0.2812742590904236 0.2027428448200225 0.0682435780763626 0.160343587398529 0.0314685627818107 -0.0053602182306349 0.0934466123580932 0.1168719381093978 -0.1551951169967651 -0.1639728993177414 -0.0022961571812629 -0.0240920037031173 0.0348068363964557 -0.0620121583342552 0.0648290142416954 0.0160074867308139 0.0675577744841575 -0.1491018384695053 0.105471096932888 0.1465180665254593 0.1730199009180069 -0.1762027442455291 -0.1171441003680229 -0.112090490758419 0.1175804734230041 0.051536701619625 0.0355400703847408 -0.1122128963470459 -0.0964048728346824 0.012201745994389 0.0451910942792892 -0.0327211059629917 0.1354584097862243 -0.2153818756341934 -0.2366159260272979 -0.2541417181491852 0.1481279581785202 0.0542577728629112 -0.0219525825232267 0.1787218451499939 -0.0993975773453712 0.076557956635952 0.1618816405534744 -0.0031476281583309 -0.2003892213106155 0.1721480190753936 -0.0042952941730618 0.1937055438756942 0.0621422566473484 0.0129946880042552
:leopard: 0.4310811161994934 -0.3435656428337097 -0.1163281202316284 -0.30198535323143 -0.0537399984896183 0.0758934319019317 0.1424822658300399 -0.1691873967647552 0.0786240398883819 -0.0218746401369571 0.2105046659708023 0.334412008523941 -0.0349957682192325 -0.0350409820675849 -0.1767556518316269 -0.1029120758175849 0.0632008165121078 0.1630549877882003 -0.0477772988379001 0.3130469024181366 -0.3602032363414764 0.1436973065137863 0.0028835856355726 0.0576290413737297 0.0095258522778749 0.3029382824897766 -0.1099404245615005 -0.0509019568562507 -0.0715399235486984 -0.0052480944432318 -0.2706258893013 -0.1883996278047561 0.1765339374542236 0.1625588238239288 0.1650547534227371 -0.0050906087271869 -0.0976710841059684 -0.3238877952098846 -0.323043942451477 -0.2042332291603088 -0.0525073297321796 -0.0600363351404666 0.2477345913648605 -0.1981327682733535 0.2163245230913162 -0.3122294843196869 0.1242091059684753 -0.0236625075340271 0.3221958875656128 0.1414677500724792
:North_Korea: -0.1171065643429756 0.1311728656291961 0.0473820157349109 0.0581572204828262 -0.0165981855243444 -0.1132864132523536 0.1720477491617202 0.0341974534094333 0.1286001950502395 0.0052660033106803 0.216984748840332 -0.0178330596536397 0.0170198492705822 -0.2376351058483123 -0.2107795476913452 0.2172822952270507 -0.0659759640693664 -0.1728139221668243 -0.0481071323156356 0.1576030701398849 0.0694422200322151 0.0465015359222888 -0.1226567849516868 0.1369112282991409 0.0017556181410327 0.0043454430997371 0.0519715063273906 -0.0362297780811786 -0.0547555685043334 0.0691458880901336 -0.1201068758964538 0.0752335116267204 -0.078787162899971 -0.128642052412033 0.0872163847088813 -0.1711482107639312 0.0298035405576229 -0.0692085623741149 0.0238044671714305 0.1850400418043136 -0.0018356317887082 -0.2864246368408203 -0.0544284768402576 -0.121268481016159 -0.1092045903205871 0.224271684885025 -0.0697269588708877 0.1678747236728668 0.1176182553172111 -0.1010353490710258
:broken_heart: 0.1241466924548149 0.0278391931205987 0.0336302891373634 -0.3541046380996704 -0.2426673322916031 0.2979277372360229 0.2479432523250579 0.4237401783466339 0.2205209285020828 0.2782914340496063 -0.0218001473695039 0.021851846948266 -0.0867310613393783 0.0443355813622474 -0.0195685997605323 -0.0927243158221244 0.0572601146996021 -0.1938139349222183 0.2109977900981903 0.3586178123950958 -0.1743431538343429 0.2562430799007416 0.0667716935276985 -0.0425770580768585 0.1745338439941406 0.1113173589110374 0.0874614417552948 -0.0653746947646141 -0.0195568241178989 0.0592221431434154 -0.0635031387209892 -0.2538894414901733 0.3489864468574524 -0.0411011986434459 -0.2017585486173629 0.0792472139000892 0.1495173424482345 -0.0048405793495476 0.2519998848438263 0.0953960418701171 -0.2200769633054733 -0.2212484925985336 -0.0290056522935628 -0.0023654850665479 -0.1437110900878906 0.0654594153165817 -0.1439334005117416 -0.0849385187029838 -0.3826415836811065 0.006073317490518
:Santa_Claus_light_skin_tone: -0.1227020174264907 -0.0586911775171756 -0.256477028131485 -0.094111643731594 0.0982381254434585 0.044410690665245 -0.0104824211448431 0.1285085678100586 -0.1141534894704818 -0.0539117977023124 0.0895260274410247 0.0752474591135978 -0.0108029935508966 -0.1412365436553955 0.1483799517154693 -0.0888123661279678 0.0118974540382623 -0.1074505597352981 -0.0414558127522468 -0.1345396190881729 0.1043260693550109 0.1475382000207901 -0.1264854073524475 -0.1478436738252639 0.0925669819116592 0.0494240671396255 -0.0511776432394981 0.1137913390994072 -0.0446537286043167 -0.0890266299247741 -0.0748253464698791 -0.19078029692173 -0.1593454182147979 -0.0433137007057666 0.1974924653768539 0.0304810758680105 0.0942979678511619 0.1894754320383072 0.0958313569426536 -0.0020638196729123 -0.0392011553049087 0.0999764204025268 0.0348659828305244 -0.1370764523744583 -0.0997965112328529 -0.0092297960072755 -0.1295286417007446 -0.076472096145153 -0.094761922955513 0.0510954931378364
:backhand_index_pointing_down_medium_skin_tone: -0.1550989151000976 0.0827495455741882 0.099075436592102 -0.0268232449889183 0.0335828624665737 -0.0448862835764884 0.0467287003993988 0.0386178009212017 -0.0283251833170652 0.1724353283643722 -0.1546045690774917 -0.1358664184808731 -0.1635176986455917 -0.0116722360253334 -0.0749605968594551 0.0396815314888954 -0.046400498598814 -0.151229977607727 0.0643516480922699 -0.0907269567251205 0.1310454159975052 0.058816023170948 -0.0265315547585487 -0.0261611919850111 -0.06118655949831 0.1036554425954818 0.1336506456136703 0.0388013198971748 -0.0370614230632782 0.0064864940941333 -0.0218717623502016 -0.1005956679582595 0.1528774350881576 -0.1607833057641983 0.1471984386444091 -0.074902631342411 -0.1428239494562149 0.0439840964972972 0.0516353957355022 -0.1690441071987152 0.0248771104961633 -0.025460559874773 0.1427966654300689 -0.0186669938266277 -0.0781292244791984 -0.0279895290732383 0.1280980706214904 -0.0720196962356567 0.1380893141031265 -0.0753317400813102
:eggplant: -0.1305812448263168 0.0381906516849994 -0.2110698372125625 0.1297335177659988 -0.007853134535253 0.0996566042304039 0.2420729249715805 -0.1485408395528793 -0.1413460224866867 0.1841680407524109 -0.1535319536924362 -0.0347043387591838 0.2408448308706283 -0.2635610699653625 -0.0485479943454265 -0.1514046341180801 -0.1299226582050323 -0.0880291387438774 0.3345921337604522 0.12721548974514 -0.0668050497770309 -0.2620162665843963 0.2918324172496795 -0.1762674003839492 -0.4195828735828399 0.3810288608074188 0.2678453922271728 0.2098150700330734 0.0678741261363029 -0.0437675677239894 -0.2563968300819397 0.0265214331448078 0.1018305793404579 0.098919853568077 0.0301056485623121 0.007646023761481 -0.1853270381689071 0.2481720298528671 -0.0786116272211074 0.0027570193633437 -0.0844302698969841 -0.024251103401184 -0.1218173801898956 -0.2231320291757583 0.1185771375894546 -0.1565506756305694 -0.0510942637920379 0.0097238775342702 -0.2889387309551239 0.3837399780750274
:nose_medium_skin_tone: -0.0430760979652404 -0.0945145934820175 -0.0168184302747249 0.0934983119368553 0.0529935546219348 0.0688674449920654 0.2514040172100067 -0.0869176387786865 -0.1443051248788833 -0.0073540960438549 -0.0871432721614837 0.0586700849235057 0.168210968375206 0.1641938090324401 -0.3273490667343139 0.1344229578971862 -0.0341424234211444 -0.0438892133533954 0.1450710594654083 0.0764868855476379 -0.211092934012413 0.0776760652661323 0.1415404975414276 -0.0624159388244152 -0.1781015545129776 0.1600998938083648 0.2401388585567474 0.075010135769844 -0.0935964286327362 0.0060346322134137 -0.1639280021190643 -0.1119059845805168 0.079808697104454 0.01388596650213 -0.0610977374017238 -0.0816142410039901 -0.1188151016831398 0.1590140908956527 0.1736214309930801 -0.1224614232778549 -0.0613852143287658 0.0238994862884283 -0.1582079380750656 -0.0808768272399902 0.0179618764668703 0.2211012840270996 0.0548680126667022 -0.0049990303814411 -0.1998938620090484 -0.1929056048393249
:pig: 0.0397648848593235 -0.6173714995384216 0.0326316319406032 -0.1222548708319664 -0.0852410346269607 -0.0030947057530283 0.1948554962873459 0.0605794005095958 0.1512711644172668 0.1671860516071319 -0.2532199025154114 0.3409481346607208 0.1701425462961197 -0.1715579181909561 -0.0675326064229011 -0.0431701242923736 0.5432427525520325 -0.0564495101571083 0.1941967010498047 0.4293747246265411 0.2163532823324203 -0.5953869223594666 0.1730764657258987 -0.1669458746910095 -0.2191191613674163 0.2658326625823974 0.073319487273693 -0.213251918554306 0.2150920182466507 -0.1051977425813674 -0.3205320537090301 0.1064033955335617 0.0169064477086067 0.2074977904558181 -0.2359308004379272 0.3287703990936279 -0.128479316830635 0.2947323024272918 0.1850959658622741 0.0232337117195129 -0.156822070479393 -0.0058179637417197 -0.0720387324690818 -0.0304481238126754 0.1259966641664505 0.0917912274599075 -0.3110943138599396 -0.0255718734115362 0.2546779215335846 0.1079902425408363
:face_with_open_mouth: -0.0945587754249572 -0.286380797624588 -0.1043523102998733 0.171364277601242 -0.2257060557603836 -0.0352366641163826 0.2147092521190643 0.1797964125871658 0.2792438864707947 -0.1539838463068008 -0.1189866140484809 -0.2777187824249267 -0.0144071346148848 0.1533444970846176 -0.0868807882070541 0.1979771703481674 0.1829137504100799 -0.3591570556163788 0.1797180771827697 0.2657117843627929 -0.0463519506156444 0.0343028046190738 -0.1394480466842651 -0.0093127470463514 -0.0758836790919303 -0.0483105257153511 0.1055382788181305 0.1908765882253646 -0.2897382378578186 -0.1992912143468856 -0.1271839141845703 -0.1618263274431228 0.1937450617551803 0.0530637204647064 -0.3636398613452911 -0.2767024934291839 0.2457779347896576 0.1338759958744049 0.2160628885030746 0.0345896370708942 -0.0116461208090186 -0.2294680774211883 0.124218076467514 0.397852748632431 -0.0723683908581733 -0.0385838858783245 0.0697479993104934 -0.0773111954331398 0.0080732479691505 0.0290590915828943
:eight-pointed_star: -0.0389947742223739 0.1105048730969429 0.1898615211248397 0.2853322327136993 -0.1898970901966095 0.0457777455449104 -0.0211516954004764 0.0734000131487846 -0.0868844389915466 0.0564653426408767 -0.0243938062340021 -0.0707756802439689 0.0031494651921093 0.0102578569203615 -0.1143948882818222 -0.064859464764595 0.0688796564936637 0.0895995795726776 -0.091030515730381 -0.1487445831298828 -0.3227548897266388 0.0450706519186496 0.0241220500320196 0.0019946275278925 -0.0818966254591941 0.1765227317810058 0.1137188822031021 0.0914273262023925 -0.0840923264622688 -0.047937661409378 -0.084632433950901 0.00697638746351 0.1121583878993988 -0.0233179908245801 0.1132239550352096 -0.0701023116707801 -0.1577646285295486 0.0657173842191696 -0.0218843128532171 -0.1353440433740615 -0.0156613122671842 0.1669019013643264 -0.1118065938353538 -0.0916380062699318 -0.0700620487332344 -0.0499337278306484 -0.1656786948442459 -0.0951605886220932 -0.0334234684705734 -0.0025857565924525
:divide: 0.0285757686942815 -0.1426135152578354 0.0050019975751638 -0.1631530076265335 0.0022376386914402 -0.0402273647487163 -0.0784419476985931 0.0459618270397186 -0.1002372875809669 -0.1059888154268264 0.0268382914364337 0.0718266889452934 -0.077064037322998 -0.0132521837949752 -0.0576714016497135 -0.066368281841278 -0.1532671153545379 -0.0594479367136955 -0.0223722700029611 0.0180384237319231 0.0495408661663532 -0.1160922348499298 0.0100528514012694 -0.1218633130192756 -0.0922922044992446 -0.0377366058528423 0.1292673796415329 -0.0844339877367019 -0.0846538469195365 0.0172651596367359 0.0099435681477189 0.0445738732814788 0.1013021543622016 -0.0096142515540122 0.0685988068580627 0.0076344851404428 -0.0597051307559013 0.0672418996691703 0.1304522454738617 -0.061340108513832 -0.043961402028799 -0.0693665146827697 -0.0831014513969421 -0.1469208896160125 0.0870378986001014 0.1231345012784004 -0.0693344175815582 -0.0359406098723411 -0.1604732275009155 0.1247291192412376
:watch: -0.0955504849553108 -0.2676036059856415 0.2773134112358093 0.2894697189331054 -0.0430009439587593 -0.2941712439060211 -0.0548206493258476 0.1365096122026443 0.3265123665332794 0.0148965958505868 0.0645980089902877 -0.0161532387137413 -0.1503559052944183 0.2646202147006988 0.2568447589874267 0.1880888491868972 0.0125361513346433 -0.1188229396939277 0.1790840476751327 -0.063650757074356 0.1179746612906456 0.1649549007415771 -0.1284704357385635 0.0440006889402866 -0.0017021109815686 0.1003749147057533 -0.0481900125741958 -0.3422397971153259 -0.0297435373067855 -0.0705295130610466 -0.0310645457357168 0.1195375323295593 0.1168933361768722 -0.093078427016735 -0.1353909373283386 0.110133521258831 0.1265925467014312 0.0923298001289367 -0.1128546372056007 0.0881515741348266 0.1241364330053329 0.1727887094020843 0.0748326480388641 0.1396566182374954 0.030037822201848 -0.0743999853730201 -0.0091869505122303 0.1067754179239273 -0.3843888640403747 0.2729237675666809
:AB_button_(blood_type): 0.0288250092417001 -0.15877565741539 0.0899510011076927 0.0100803459063172 -0.0206085294485092 0.1350311785936355 0.3264812529087066 -0.1238431185483932 0.0637369975447654 0.1627740859985351 0.3503935933113098 0.1657890975475311 -0.0032894778996706 -0.1236574649810791 -0.2171680480241775 0.0089652929455041 0.0167437978088855 -0.0447066649794578 0.0367325171828269 0.2341651320457458 -0.1309585571289062 -0.0101229203864932 0.2217985093593597 0.079221099615097 -0.0295653417706489 0.3228590786457062 -0.0578150637447834 -0.169791892170906 -0.1687096506357193 0.1951100826263427 -0.1329980343580246 -0.1151415184140205 0.1435839980840683 0.0750616788864135 0.2373289465904235 -0.1199222654104232 0.057863600552082 0.020385380834341 0.2001702040433883 0.3495647311210632 0.0967146977782249 -0.0934439972043037 -0.1095835641026496 0.0356120578944683 -0.0427134744822979 0.1801894307136535 0.0742781460285186 0.1751124560832977 0.168656051158905 0.12025698274374
:ghost: 0.1235039830207824 -0.0549967847764492 -0.0402600616216659 0.012291750870645 0.0090162893757224 -0.217922106385231 0.1921473145484924 -0.0744440704584121 0.075977623462677 -0.002951716305688 -0.1552909016609192 -0.0898949056863784 0.1864398568868637 0.0568896792829036 0.105161115527153 -0.1078423261642456 0.1163703426718711 0.1374471187591552 -0.0766463279724121 0.2466575354337692 0.028030464425683 0.0597758330404758 -0.1336458325386047 0.1831138432025909 -0.0963103249669075 0.2872382998466491 -0.2464427947998047 -0.1308732628822326 0.0365065671503543 0.1363063007593155 -0.2356588244438171 0.0587504394352436 0.0888642519712448 -0.0876824930310249 0.1221759319305419 0.381407231092453 0.0520096160471439 -0.3335108757019043 -0.0270380862057209 -0.0212704613804817 -0.1033015251159668 -0.0821521654725074 -0.2416568100452423 -0.1280741095542907 0.0623813718557357 -0.1079519987106323 -0.0717202574014663 -0.2205251902341842 0.1530434787273407 0.2485334575176239
:mount_fuji: 0.0410266704857349 0.0918702334165573 0.0467091239988803 -0.0910705849528312 -0.0306460689753294 0.0713575854897499 0.0762386620044708 0.2286885380744934 0.0543475300073623 0.0278490800410509 -0.0959440842270851 -0.2398505061864853 -0.0153563655912876 -0.2353450655937194 -0.107651837170124 0.1356141120195388 0.2361943423748016 0.125980719923973 -0.082781121134758 0.1435122936964035 0.1424015760421753 -0.1616142243146896 -0.2405876219272613 0.0313997790217399 0.0559663698077201 -0.0336397998034954 -0.1520699858665466 0.1426152139902115 -0.215141162276268 0.2121066600084304 -0.1425294578075409 -0.0114152058959007 0.0656515285372734 -0.0323811583220958 -0.0527481511235237 -0.0902724266052246 -0.0916652381420135 -0.0128357019275426 -0.057948924601078 0.1287931203842163 -0.0476088970899581 0.0393914245069026 0.0524363741278648 -0.0214936602860689 -0.0162783153355121 -0.191301941871643 -0.0530357137322425 0.1180880963802337 0.1826063245534896 -0.2857222557067871
:Cuba: -0.1674013137817382 0.16135174036026 0.0242623910307884 -0.0154070416465401 -0.0103255808353424 -0.1737364381551742 -0.0531389005482196 0.0774332955479621 -0.0745346322655677 -0.1838599890470504 0.1196540966629982 -0.1780954152345657 0.0385078154504299 -0.187605544924736 -0.0770115405321121 -0.2164180129766464 -0.038892775774002 0.0885924696922302 0.0195151902735233 0.0950900688767433 -0.0908636674284935 -0.0327527374029159 -0.1631105691194534 -0.2025547325611114 -0.0626513957977294 -0.0949630737304687 0.1581447869539261 -0.1451003104448318 -0.2245495617389679 0.0234572235494852 0.0324100442230701 0.090285912156105 -0.0482997670769691 -0.1793912053108215 -0.1549812704324722 -0.014077921397984 0.0424013920128345 0.0262827072292566 -0.0481525212526321 0.2635522186756134 -0.0868014842271804 -0.0119254682213068 0.1348324418067932 -0.1767527014017105 -0.1253906339406967 -0.1907159239053726 -0.2954059839248657 0.0509113110601902 0.0542024411261081 -0.096204936504364
:worried_face: 0.096103586256504 -0.1491721421480178 0.0735816285014152 -0.0338686369359493 -0.0136698009446263 -0.2976472377777099 0.2591963112354278 0.3583647012710571 -0.2300596833229065 0.1243438944220542 -0.1058666035532951 -0.2637742459774017 -0.1609356254339218 -0.2183556854724884 0.1218451783061027 0.2526310682296753 0.0760130658745765 -0.3614494502544403 0.4515869319438934 0.330588698387146 -0.2928412556648254 0.2629469335079193 0.010714110918343 0.0449591763317585 0.1123437881469726 0.1309584826231002 0.1711722463369369 -0.0390914157032966 0.1889218091964721 0.2547711431980133 -0.1820269078016281 0.0338982008397579 0.386151373386383 -0.3185959458351135 -0.0514916405081748 -0.2376762479543686 -0.2890613675117492 -0.2411026507616043 0.0238075871020555 -0.0573740638792514 -0.3593237698078155 0.0022217698860913 0.2928139865398407 -0.2412872314453125 -0.1004622355103492 -0.0612000524997711 -0.1273103803396225 0.411491185426712 0.040650475770235 0.3963935077190399
:bomb: 0.2585869431495666 -0.1940094232559204 0.1873509734869003 -0.1710380166769027 -0.0301674716174602 -0.0962324887514114 0.1953343898057937 0.1502730399370193 -0.0409500040113925 -0.070621870458126 -0.248984694480896 -0.2728508710861206 -0.1118594706058502 -0.0534214451909065 -0.0856137201189994 -0.0826446861028671 0.10386423766613 0.1346085518598556 0.0495184063911438 0.1166855543851852 0.1900462955236435 0.1838526576757431 -0.0153928296640515 0.2830387651920318 -0.0189427770674228 0.0590834133327007 0.0552738606929779 -0.0220842696726322 -0.0105712190270423 -0.0358043722808361 -0.1019931435585022 -0.1118803918361663 0.0980494394898414 -0.042261142283678 0.2261551320552826 0.1484864950180053 0.1921595782041549 0.0681523457169532 0.0460774190723896 0.1730957776308059 -0.133923128247261 -0.0013959226198494 0.064243234694004 -0.20417021214962 0.1250529587268829 0.0169202126562595 0.0226692147552967 0.2232102453708648 0.2548087835311889 0.1328063756227493
:person_tipping_hand: 0.2170936167240142 -0.3279924392700195 -0.1263438165187835 -0.0774297639727592 -0.0056467647664248 -0.0804091840982437 0.0808858349919319 0.0063281054608523 0.0079528260976076 0.3152365684509277 -0.1598962992429733 0.1546192467212677 -0.0805467665195465 -0.002465933561325 0.0873940214514732 0.0416223257780075 0.1093634068965911 -0.1552061587572097 0.4765534400939941 0.2464503943920135 0.0956167057156562 0.4268665015697479 -0.1481568217277526 0.2455154508352279 0.1986887156963348 0.0605432987213134 0.1052714064717292 -0.0028901733458042 0.0636506080627441 0.0648661851882934 -0.0388247184455394 -0.0025216983631253 -0.1645335108041763 -0.2021729946136474 0.2727687060832977 -0.0527250654995441 -0.2531814873218536 0.2097177952528 0.1644605696201324 -0.0015932437963783 0.218485414981842 0.0414393171668052 0.0723861679434776 0.1477454006671905 -0.0449684932827949 -0.2818295359611511 0.1490914076566696 0.3154345154762268 0.1386969089508056 0.4431380927562713
:crab: 0.1146420538425445 -0.2175616025924682 -0.1929699629545211 0.1419770866632461 -0.1812353581190109 0.1127582266926765 -0.0027754022739827 0.1743451058864593 0.0660954639315605 0.1237694025039672 -0.0216696504503488 0.155020996928215 0.1864800155162811 0.2102164179086685 -0.1318672895431518 -0.0905577093362808 0.0031441377941519 0.0716821625828743 0.0954185798764228 0.2950430810451507 -0.1970111727714538 -0.2009088546037674 -0.071320354938507 -0.2106793969869613 -0.1791139394044876 0.2161940783262252 -0.0446192324161529 -0.1452298015356063 -0.0702686682343483 0.0889590233564376 -0.1767396181821823 -0.1028460189700126 -0.1052194684743881 0.3466759026050567 0.0526109747588634 0.0605664700269699 -0.0434929132461547 0.0563344210386276 0.1235501542687416 -0.0263202041387558 -0.3501402139663696 0.0410047732293605 -0.1358286589384079 -0.0262336861342191 0.0404803641140461 0.1123557537794113 -0.0029534301720559 -0.0332291275262832 0.0476086474955081 0.1955200731754303
:Ghana: -0.1977833807468414 -0.0801280885934829 0.2437187582254409 0.0083206547424197 0.0181280858814716 -0.2825139462947845 -0.0151037098839879 -0.1323083341121673 0.0994787886738777 -0.1122643500566482 0.2047321051359176 -0.1478758752346038 0.0350779928267002 -0.2404096722602844 0.0159917492419481 -0.2038422524929046 -0.0673620104789733 -0.1911337226629257 0.0940184891223907 -0.1683005839586258 -0.1039578542113304 -0.010601875372231 -0.0046532773412764 0.0307879596948623 -0.0277754534035921 -0.0073641664348542 -0.0673383995890617 -0.0812398120760917 -0.4021428227424621 0.229357972741127 -0.0762490779161453 0.1290060430765152 -0.0463032498955726 -0.3072581589221954 0.1361434608697891 0.0316437818109989 0.1499708443880081 -0.1248336136341095 -0.2267933338880539 0.0989847406744957 0.1165648400783538 0.0601417906582355 0.2469398379325866 -0.1181741803884506 -0.3349688053131103 0.1274950802326202 -0.168857529759407 0.2299889624118805 0.1080018728971481 -0.1259707361459732
:top_hat: -0.481606125831604 0.2304721176624298 -0.0837460309267044 -0.268680065870285 0.0732882097363472 -0.0964718014001846 -0.0068581760860979 0.044672917574644 -0.0690201595425605 -0.0921379625797271 -0.1381030231714248 0.0037830434739589 -0.1758177131414413 0.1609795093536377 -0.1129242330789566 -0.0363643690943717 0.4000727832317352 -0.0161700248718261 -0.1147733479738235 0.0668952092528343 -0.0032925226259976 -0.176887959241867 -0.3199935257434845 -0.0824902430176734 -0.4682382941246032 -0.0039194952696561 0.0381515808403492 -0.0799944400787353 -0.1756843328475952 0.1978064775466919 -0.1635285019874572 -0.1314819604158401 0.1003889292478561 0.079221174120903 0.4663107693195343 0.245882511138916 0.3621924817562103 0.3647871613502502 0.1894261240959167 0.1526906043291092 -0.0772854909300804 0.0518209673464298 0.0434072017669677 0.1742651611566543 -0.1424981951713562 0.0072214496321976 0.1377116739749908 0.0047861649654805 0.0952315032482147 0.2616332471370697
🇼 0.0219951495528221 0.1701095849275589 0.083585500717163 0.1960528492927551 0.0529583692550659 0.0241342186927795 0.1847533136606216 -0.1679560244083404 0.0300566554069519 -0.1595461815595626 -0.0667271092534065 0.1455207765102386 -0.1275611817836761 0.0262715220451354 -0.0073425257578492 0.1015553697943687 -0.062096320092678 -0.082966111600399 0.0856495425105094 -0.113910011947155 0.1986285001039505 -0.0209791734814643 -0.1443712562322616 -0.046221025288105 -0.1065004393458366 0.1211442351341247 -0.0514785945415496 -0.1962670385837555 -0.0020414516329765 0.1892942786216735 -0.0333315096795558 -0.094415932893753 0.0453664660453796 -0.1109207943081855 -0.0794352367520332 -0.0975960418581962 -0.070337601006031 -0.0288902726024389 0.009531732648611 0.0775460675358772 0.0045311483554542 0.0583946481347084 -0.0279547628015279 -0.1008680164813995 0.0576234757900238 0.0741481781005859 -0.0004997824435122 0.1249239891767501 0.0536589436233043 0.0511903129518032
:backhand_index_pointing_right_medium-dark_skin_tone: -0.2758026421070099 0.0244505908340215 0.1645993143320083 -0.0688293203711509 0.1475412547588348 -0.0100204851478338 -0.0044517144560813 0.081322006881237 -0.0941130891442298 0.1706733703613281 -0.1661836504936218 -0.1243509203195571 -0.1047665327787399 0.1336444616317749 -0.1171230301260948 -0.0768718644976615 0.2189823538064956 -0.141460046172142 0.0456999391317367 0.0225153174251317 -0.096133716404438 0.1355091482400894 0.1411945670843124 -0.1566054224967956 0.0791973248124122 0.1289897114038467 0.1175958439707756 0.0320839136838912 -0.0166620071977376 -0.1270886212587356 -0.0893771052360534 -0.1084992066025734 0.2099081575870514 -0.0905892550945282 -0.0908597856760025 -0.0770769938826561 -0.2123580276966095 0.0131999310106039 0.0271193347871303 -0.1828988939523697 0.0275710821151733 -0.0280253011733293 0.0925611779093742 6.923505225131521e-06 0.1592041701078415 -0.0392839945852756 0.0825444459915161 0.0013340612640604 -0.0904991179704666 -0.19788259267807
:speak-no-evil_monkey: 0.2702656090259552 -0.244475319981575 -0.0291648413985967 0.0234050266444683 -0.2011705189943313 0.0285381749272346 0.149026021361351 -0.0582550279796123 0.1061944216489791 0.1832720041275024 -0.3709512948989868 0.0710175260901451 0.0445359870791435 -0.3269681632518768 0.1961104720830917 0.0395247749984264 0.2532577514648437 -0.1924867630004882 0.208899438381195 0.3631846904754638 -0.2190250158309936 0.1384588629007339 0.2669869661331177 0.1312231719493866 0.40735724568367 0.0666078478097915 -0.0199959985911846 0.08748210221529 -0.0107581783086061 -0.3481365144252777 -0.0245715994387865 -0.3122434914112091 -0.1848439425230026 -0.2096347510814666 -0.1337873786687851 -0.1647577285766601 0.097013272345066 -0.2489321231842041 0.038182508200407 0.2753960490226745 -0.216411679983139 0.1179978102445602 -0.0397124774754047 0.3678649067878723 0.0308633390814065 -0.0440473519265651 0.059543639421463 0.2698552310466766 -0.1502426415681839 0.13045035302639
:cooked_rice: -0.0547570139169693 -0.0530355721712112 -0.0882633700966835 0.1800428479909896 -0.022947534918785 0.0416490994393825 -0.1238896250724792 -0.1056024953722953 0.1435878872871399 -0.2899854481220245 -0.2155313193798065 0.1308861672878265 0.302247554063797 -0.3725207149982452 -0.0433652363717556 0.1659765094518661 0.195780947804451 0.1375645101070404 0.1116255670785904 0.211817979812622 -0.009119183756411 -0.1881373971700668 0.1999914199113845 -0.0740563422441482 -0.2757916152477264 0.1976790130138397 0.2137198150157928 -0.1666239351034164 0.0454248748719692 0.239454910159111 -0.1517097949981689 -0.2065625488758087 -0.0963191613554954 0.0490764565765857 0.2215952575206756 0.2752859592437744 -0.2106533050537109 0.2005432993173599 -0.0051031080074608 0.274362176656723 -0.3155907690525055 0.1840347796678543 -0.0219263471662998 -0.0245111305266618 0.2290269136428833 0.2298424988985061 -0.2146749347448349 0.2025387287139892 -0.2717697620391845 0.2431954145431518
:rice_ball: -0.2353033870458603 -0.0321828536689281 -0.1351153999567031 0.2955393195152282 0.0794163197278976 -0.1528195887804031 -0.1457532793283462 0.026241697371006 -0.1054381057620048 -0.1839584112167358 -0.1751624643802642 0.2171048521995544 0.1020282208919525 0.055908590555191 0.1278809309005737 0.0368612855672836 0.2626773416996002 -0.2082641124725341 0.1211563497781753 0.2782009541988373 0.1987431794404983 0.0186349768191576 0.0236794780939817 -0.3547889590263366 0.1035708636045456 0.1572405248880386 0.3871258497238159 0.1396836042404174 0.014839350245893 -0.0606313087046146 -0.1095827966928482 -0.2770067155361175 0.1933061927556991 0.082041323184967 0.0517808310687541 0.1465342342853546 -0.174170434474945 0.2255029678344726 -0.0959550514817237 0.1129334047436714 0.0102922143414616 0.0859027430415153 0.1012172773480415 -0.276899516582489 0.3277412056922912 -0.03909507766366 -0.1380562633275985 0.1748223900794983 0.0594023168087005 -0.1378243714570999
:no_littering: 0.1840535700321197 -0.1007321327924728 0.3705592155456543 0.0854535922408104 -0.0027361700776964 -0.1144638657569885 0.1925699710845947 0.0607595182955265 0.1099824160337448 -0.0868330523371696 0.0019613695330917 0.0931069403886795 0.1172971278429031 -0.1526651531457901 0.1497325152158737 0.0733251497149467 0.3615162074565887 0.049294140189886 0.4353117942810058 0.0729121640324592 -0.0290833283215761 -0.269169420003891 0.0074727614410221 -0.0633894428610801 0.1168118491768837 0.2050084918737411 0.0913990437984466 -0.0886982306838035 0.2704903483390808 0.1052262485027313 -0.0928775146603584 0.0196073297411203 -0.2212054580450058 -0.3292783498764038 0.0066414391621947 0.2971809804439544 0.1429943293333053 -0.0060190269723534 0.2952889800071716 0.2374147921800613 -0.2070053368806839 -0.2014088034629821 0.1316859871149063 0.1146521568298339 -0.0809961333870887 0.1249239891767501 -0.3292104303836822 0.2348630428314209 0.4197719693183899 0.1754883676767349
:woman_dark_skin_tone: -0.2485791146755218 0.1051853150129318 -0.1127408221364021 -0.0830278024077415 0.0604497864842414 0.2843979299068451 0.0953269526362419 0.0153762269765138 0.0027590689714998 0.1266336292028427 -0.0465705245733261 -0.0837213173508644 0.1520310193300247 0.0509833432734012 0.0806720256805419 -0.1228512078523635 0.0525472462177276 0.1798303425312042 0.0707247704267501 0.0969233736395835 0.0197579115629196 0.1474004685878753 0.1352294236421585 0.1893548518419265 0.0535155721008777 0.0289882700890302 -0.0986092314124107 -0.0163835436105728 -0.0648122131824493 0.153557687997818 -0.0874364450573921 -0.2807957231998443 -0.0225655231624841 -0.2865097820758819 0.0601817034184932 0.0245580188930034 -0.1132045537233352 0.1786447763442993 -0.0196786187589168 -0.0388630926609039 0.095220997929573 0.0884355306625366 0.1505702137947082 -0.014896348118782 0.0033532695379108 -0.1471886783838272 0.048681516200304 -0.109361708164215 0.1345989406108856 0.2354937046766281
:France: 0.0116667440161108 0.1632949262857437 -0.1494572162628173 -0.1587121337652206 -0.1202141568064689 -0.0156440865248441 0.050045870244503 0.0804061070084571 -0.0090238386765122 -0.1000884249806404 0.2463047504425048 0.0382542014122009 -0.0263086389750242 -0.1576184183359146 -0.0875003337860107 -0.2065563350915908 -0.2004723697900772 -0.3448386192321777 0.062193501740694 0.1552998572587967 -0.1169461756944656 -0.1378701329231262 -0.327274888753891 -0.0184235721826553 -0.0456441901624202 0.0482582785189151 -0.025594562292099 -0.1998473554849624 -0.164583146572113 0.2982950210571289 -0.0767751485109329 -0.0189749132841825 0.0071519142948091 -0.0839591026306152 -0.1947147101163864 -0.1650432497262954 0.1005774363875389 0.012208305299282 -0.2814747095108032 0.2211929559707641 0.1989691704511642 -0.0776971653103828 0.2409310489892959 -0.1495006382465362 0.0306368339806795 0.2215785980224609 -0.1988100707530975 0.0827588587999343 0.118918590247631 0.0963062047958374
:princess_medium-light_skin_tone: 0.1081382185220718 0.0003833207010757 -0.0243891980499029 0.0774231776595115 0.029623694717884 -0.0388186834752559 0.0409885346889495 0.1269432455301284 0.0049766828306019 -0.0103183146566152 -0.0315976217389106 0.1770338118076324 -0.0859138444066047 -0.0742245987057685 -0.0203659702092409 0.0201844628900289 -0.0897163897752761 0.0938373506069183 -0.1326362639665603 0.0346216037869453 0.1764974892139434 0.0896118506789207 0.1588806360960006 -0.0557831414043903 -0.0405329428613185 -0.0260446052998304 -0.1385183930397033 0.1083250790834426 0.0285623781383037 0.0793032199144363 -0.0489435754716396 -0.1785519868135452 0.0674204900860786 0.0483778566122055 0.1817362755537033 -0.0284844562411308 -0.0496032685041427 0.1823673695325851 0.0958075821399688 -0.1160663738846778 0.1945404559373855 0.0480198003351688 -0.1086358875036239 -0.1297813206911087 0.1158322915434837 0.0644570440053939 -0.0516397170722484 -0.0558239705860614 0.0586668066680431 0.1221670508384704
:crying_cat: 0.163281038403511 -0.163491353392601 -0.1510599255561828 -0.1502450108528137 -0.0834763646125793 -0.0010162562830373 0.3372772336006164 0.1392019242048263 -0.1191988065838813 0.0433979667723178 -0.2259052842855453 0.0939726158976554 0.1464400440454483 -0.1341738551855087 0.1911062896251678 0.1074790209531784 -0.1325538605451584 -0.07597416639328 0.015141156502068 0.1590368598699569 -0.2631391286849975 0.3973277509212494 0.0582493990659713 0.0707356259226799 0.3580949008464813 0.1540907621383667 -0.223650574684143 -0.0398562848567962 -0.0664593055844307 0.0062322472222149 -0.2964202165603637 -0.0490657687187194 0.1813888996839523 0.0768756419420242 -0.2586333751678467 0.0027289022691547 0.2680213749408722 -0.2648461461067199 0.2018320709466934 -0.1021778583526611 -0.2597008943557739 0.075369969010353 -0.2325062602758407 -0.0253800153732299 -0.0775183513760566 6.635078170802444e-05 0.1366651505231857 -0.1166690737009048 -0.079902596771717 0.1237733513116836
:astonished_face: -0.0112882452085614 -0.3744560182094574 0.0186956003308296 -0.0890815481543541 -0.0361892357468605 -0.1621376127004623 0.3033142983913421 0.6250416040420532 -0.1112741976976394 0.1642763316631317 -0.0800446271896362 -0.203648492693901 -0.2657724618911743 -0.2143761813640594 0.3459028005599975 -0.2347882539033889 0.0712982192635536 -0.1568374037742614 -0.1786265224218368 -0.1409155577421188 -0.0877763554453849 0.1986099779605865 0.1324643194675445 0.0905803367495536 0.0706415325403213 0.0226243417710065 0.1469212770462036 -0.0318247228860855 -0.1466505080461502 0.2357130199670791 -0.2242974787950515 0.1750670969486236 0.3618324995040893 -0.1846121400594711 -0.0922219082713127 -0.073020726442337 -0.0236105658113956 0.0420958586037159 0.0712658986449241 -0.1205721199512481 -0.1476052552461624 0.1398282200098037 0.1731533408164978 -0.1809522360563278 0.0850469917058944 0.0734326243400573 -0.1274923384189605 0.2469640076160431 0.1001837998628616 0.1797181963920593
:North_Macedonia: 0.0413060821592807 0.0231225844472646 0.0512115582823753 0.0544828958809375 0.0211514979600906 0.0994458124041557 0.0337715186178684 -0.0415130890905857 -0.1790722161531448 -0.1079766005277633 0.1425488591194152 -0.0211832951754331 0.0541113950312137 0.1525342315435409 0.0089172106236219 -0.1230615824460983 -0.0677949264645576 -0.0956928804516792 -0.0504204519093036 0.2024916857481002 -0.0230717696249485 -0.2459081709384918 -0.0274411588907241 0.074678786098957 -0.0471605919301509 0.0095674842596054 0.1056247279047966 -0.1832132041454315 -0.1043559983372688 0.0889719352126121 -0.000153802728164 -0.1162333637475967 -0.2365517914295196 0.0219420064240694 0.0793452858924865 0.1757447272539138 0.0358506701886653 -0.0479998514056205 -0.2024843841791153 -0.027828250080347 0.0692085623741149 -0.1128934547305107 0.0748267173767089 -0.0355998687446117 -0.1584897339344024 0.0132169323042035 -0.0553394146263599 0.0891831368207931 0.0374278500676155 -0.0153513625264167
:input_numbers: 0.1328323781490326 -0.0686722695827484 0.3539698421955108 -0.1301870197057724 -0.0933810994029045 -0.035314355045557 0.2009016722440719 -0.0496194213628768 -0.0836497545242309 0.0560288578271865 -0.0101917572319507 0.0605230331420898 0.0093429163098335 -0.2194989919662475 -0.0832081362605094 -0.1820825785398483 -0.0710292533040046 -0.2867908775806427 0.2223477810621261 0.0673187375068664 0.0346386469900608 -0.2134662121534347 -0.0620101355016231 0.3712902069091797 0.0952351540327072 0.0652780681848526 -0.1132149174809455 -0.2672382295131683 -0.0486393272876739 0.0301442239433527 -0.0810357928276062 -0.0667085349559784 0.3770230710506439 -0.0410767272114753 0.2744472920894623 0.040856871753931 0.2807744443416595 -0.1188810169696807 -0.2463012635707855 0.3605252802371979 0.0744492933154106 0.074807122349739 -0.1918311417102813 0.2103520184755325 -0.405305802822113 -0.2380889952182769 -0.0316372886300087 0.1692204475402832 0.0761728957295417 0.0678502097725868
:cigarette: -0.1134946346282959 -0.2254273891448974 0.1447328180074691 -0.2299766093492508 -0.2958924770355224 0.1895371228456497 0.2052779793739318 -0.1487337946891784 0.375623345375061 0.4112327396869659 0.2022802084684372 -0.0861699879169464 0.0428716950118541 -0.3415360450744629 -0.0685753300786018 0.2496030330657959 0.008769067004323 -0.025333222001791 0.1556454449892044 -0.0533487498760223 -0.0355244651436805 -0.0813820883631706 0.1616014689207077 -0.0043928786180913 -0.3798649311065674 0.0864400044083595 0.2130253314971923 -0.0147486552596092 0.0810913518071174 0.2456135153770446 -0.2661747634410858 -0.2613080143928528 -0.0405366383492946 -0.1688365191221237 -0.1282366067171096 -0.1089262962341308 0.1736101508140564 0.0495562441647052 0.3700458109378814 0.2657635509967804 -0.0626194104552269 -0.120445616543293 0.1149932518601417 0.3222763836383819 0.2749601900577545 0.1520505845546722 -0.3802292644977569 -0.0526308976113796 -0.0120368869975209 0.0531906150281429
:nail_polish: -0.2052501887083053 0.1269798576831817 -0.0610556155443191 -0.0940620750188827 0.0461684465408325 0.1516469717025756 0.346401184797287 0.2643604576587677 -0.2156831622123718 0.1459792554378509 0.1412676721811294 -0.29911008477211 -0.0929419696331024 -0.024555629119277 -0.0330184064805507 -0.0297621414065361 0.0219587292522192 0.1251170486211776 0.3672882914543152 -0.0265754368156194 0.2003218978643417 0.1570143103599548 -0.2407590895891189 -0.1114116683602333 -0.1049817651510238 0.2229240089654922 -0.2691468596458435 -0.0007868087268434 0.0847812592983245 -0.1163518652319908 -0.2552005350589752 0.2015286237001419 0.065050721168518 -0.0637722536921501 -0.149624764919281 0.1636082231998443 0.0487027987837791 0.2773953974246979 0.1047775819897651 -0.1577188074588775 0.2585727572441101 -0.1026497110724449 0.2354115545749664 -0.2090408056974411 -0.0454777739942073 -0.1352816075086593 -0.0055839987471699 0.0551955886185169 0.1323205232620239 -0.0177224911749362
:basketball: -0.2874453961849212 -0.1807005554437637 0.0920244231820106 0.1799326390028 -0.1828354746103286 -0.5746732950210571 -0.0732016265392303 0.0341026000678539 -0.2621641159057617 0.0557185783982276 -0.0338248200714588 -0.1588057726621627 -0.4086988270282745 -0.1128420457243919 -0.2632801830768585 -0.0153024345636367 0.4465598464012146 -0.0530782230198383 -0.188821867108345 0.0288971345871686 -0.1543357521295547 0.0460462383925914 -0.2391145825386047 -0.1585651934146881 -0.4655672609806061 0.0193950943648815 0.1025921404361724 0.0733988210558891 0.0857785046100616 -0.3048213422298431 -0.2608770430088043 0.3730794787406921 0.0605017431080341 -0.2135310918092727 0.011990301311016 0.1770310699939727 -0.1183987259864807 -0.0031853411346673 0.2534169554710388 0.2391499876976013 -0.055069200694561 0.3202376365661621 -0.0775520950555801 -0.0461250320076942 -0.4550838768482208 0.0522887781262397 0.0556619204580783 0.1494585126638412 0.0212717466056346 0.1077576577663421
